tree
version=v2
num_class=1
num_tree_per_iteration=1
label_index=0
max_feature_idx=22
objective=binary sigmoid:1
feature_names=price category year country_Argentina country_Australia country_Austria country_Chile country_France country_Germany country_Israel country_Italy country_New_Zealand country_Other country_Portugal country_South_Africa country_Spain country_US continent_africa continent_asia continent_europe continent_north_america continent_oceania continent_south_america
feature_infos=[4:100] [0:3] [1000:7200] [0:1] [0:1] [0:1] [0:1] [0:1] [0:1] [0:1] [0:1] [0:1] [0:1] [0:1] [0:1] [0:1] [0:1] [0:1] [0:1] [0:1] [0:1] [0:1] [0:1]
tree_sizes=7998 8016 8044 8035 8021 8020 8000 8015 8016 8023 8019 8026 8010 8020 7995 8000 8021 8042 7949 8054 7968 8016 7979 8013 7957 8003 7934 8004 7922 7942 7925 7947 7951 7950 7958 7956 7913 7892 7959 7957 7940 7963 7955 7903 7940 7940 7957 7956 7881 7860 7844 7912 7915 7855 7831 7896 7917 7865 7858 7781 7920 7886 7822 7857 7835 7817 7780 7856 7811 7930 7824 7894 7827 7835 7749 7769 7860 7764 7793 7812 7874 7804 7727 7836 7801 7853 7835 7758 7767 7797 7778 7713 7693 7809 7836 7731 7742 7863 7718 7694 7628 7713 7764 7879 7661 7652 7733 7751

Tree=0
num_leaves=101
num_cat=0
split_feature=19 13 0 8 5 22 0 7 0 0 15 2 2 6 11 2 12 2 2 2 3 11 0 0 2 2 7 0 0 2 0 0 0 2 10 6 2 2 2 10 2 2 2 2 2 2 0 2 0 2 2 2 0 0 2 12 0 20 2 2 0 0 3 0 2 2 2 0 21 12 0 0 12 0 0 2 2 0 2 2 0 2 22 0 2 2 12 16 0 2 2 0 2 0 0 17 2 9 2 2
split_gain=2381.68 948.942 761.025 538.569 348.08 206.733 161.211 157.768 150.137 143.733 115.436 90.7711 78.6619 77.8823 68.6105 62.8687 58.2399 49.4088 39.3839 35.3641 27.3848 24.4333 22.9355 21.6489 18.4389 17.0853 35.5371 44.3098 21.5787 17.6479 16.8527 16.5574 15.2193 15.2191 14.4752 13.8067 13.5499 13.5369 13.0152 12.2269 11.9755 11.8719 11.6357 11.6161 11.5011 11.0706 19.6958 10.9355 10.657 10.0189 9.54182 9.44181 9.37611 9.24484 9.13807 8.90685 8.36853 10.082 8.25247 10.8512 8.3704 9.98665 8.17811 8.17236 9.0642 8.79001 8.10707 7.979 7.67032 8.09477 7.84408 7.52273 7.34672 7.33758 6.90834 9.88133 12.6976 8.31758 7.26886 9.94383 6.85189 6.77152 6.70417 6.76923 6.67555 8.08081 6.61231 6.54545 6.37772 6.34678 6.21092 6.14487 6.10456 6.10159 6.0988 6.08669 8.33074 5.98085 5.86001 5.82351
threshold=1.0000000180025095e-35 1.0000000180025095e-35 31.500000000000004 1.0000000180025095e-35 1.0000000180025095e-35 1.0000000180025095e-35 49.500000000000007 1.0000000180025095e-35 47.500000000000007 22.500000000000004 1.0000000180025095e-35 2012.5000000000002 2015.5000000000002 1.0000000180025095e-35 1.0000000180025095e-35 2010.5000000000002 1.0000000180025095e-35 2014.5000000000002 2010.5000000000002 2008.5000000000002 1.0000000180025095e-35 1.0000000180025095e-35 17.500000000000004 17.500000000000004 2013.5000000000002 2007.5000000000002 1.0000000180025095e-35 37.500000000000007 27.500000000000004 2009.5000000000002 71.500000000000014 9.5000000000000018 27.500000000000004 2014.5000000000002 1.0000000180025095e-35 1.0000000180025095e-35 2011.5000000000002 2013.5000000000002 1996.5000000000002 1.0000000180025095e-35 2014.5000000000002 2014.5000000000002 2013.5000000000002 2014.5000000000002 2005.5000000000002 2014.5000000000002 11.500000000000002 1995.5000000000002 61.500000000000007 2011.5000000000002 2006.5000000000002 2004.5000000000002 8.5000000000000018 25.500000000000004 2005.5000000000002 1.0000000180025095e-35 19.500000000000004 1.0000000180025095e-35 1995.5000000000002 1999.5000000000002 41.500000000000007 40.500000000000007 1.0000000180025095e-35 78.500000000000014 2010.5000000000002 2003.5000000000002 2011.5000000000002 99.500000000000014 1.0000000180025095e-35 1.0000000180025095e-35 42.500000000000007 25.500000000000004 1.0000000180025095e-35 13.500000000000002 18.500000000000004 2012.5000000000002 2009.5000000000002 16.500000000000004 2013.5000000000002 2012.5000000000002 37.500000000000007 2011.5000000000002 1.0000000180025095e-35 45.500000000000007 1999.5000000000002 1996.5000000000002 1.0000000180025095e-35 1.0000000180025095e-35 15.500000000000002 2008.5000000000002 2014.5000000000002 12.500000000000002 1995.5000000000002 33.500000000000007 46.500000000000007 1.0000000180025095e-35 2015.5000000000002 1.0000000180025095e-35 2002.5000000000002 2009.5000000000002
decision_type=2 2 2 2 2 2 2 2 2 2 2 2 2 2 2 2 2 2 2 2 2 2 2 2 2 2 2 2 2 2 2 2 2 2 2 2 2 2 2 2 2 2 2 2 2 2 2 2 2 2 2 2 2 2 2 2 2 2 2 2 2 2 2 2 2 2 2 2 2 2 2 2 2 2 2 2 2 2 2 2 2 2 2 2 2 2 2 2 2 2 2 2 2 2 2 2 2 2 2 2
left_child=2 3 5 4 6 9 10 39 17 14 12 54 25 16 18 47 30 35 22 51 53 24 50 33 32 34 27 29 74 -27 38 36 -17 52 94 37 -31 58 -10 66 -6 -40 -3 -33 -16 88 -47 87 -21 93 73 -9 -22 -7 92 84 57 95 -4 -60 61 62 98 64 89 -65 -8 -50 70 -70 -62 86 -58 -1 75 76 -28 -78 79 -76 -36 -29 -19 -84 85 -24 -49 -11 -13 -41 -83 -52 -12 -37 -2 96 -20 -93 -61 -100
right_child=1 42 8 -5 40 20 7 19 13 15 11 45 -14 -15 44 21 -18 82 56 48 23 -23 55 -25 -26 26 28 81 -30 31 -32 43 -34 -35 80 49 -38 -39 41 63 -42 -43 -44 -45 -46 46 -48 71 67 -51 91 -53 -54 -55 -56 -57 72 -59 59 60 68 -63 -64 65 -66 -67 -68 -69 69 -71 -72 -73 -74 -75 78 -77 77 -79 -80 -81 -82 90 83 -85 -86 -87 -88 -89 -90 -91 -92 97 -94 -95 -96 -97 -98 -99 99 -101
leaf_value=0.0082802547770700636 0.010937500000000001 0.075567736883320288 0.10000000000000001 0.083171521035598717 0.051332560834298963 -0.030759651307596517 -0.028846153846153844 0.084000000000000005 0.10000000000000001 -0.099999999999999922 0.027272727272727271 -0.0043010752688172052 0.05158371040723983 0.026530612244897962 0.050000000000000003 -0.0056022408963585443 0.044000000000000004 0.0041958041958041958 -0.022033898305084745 -0.015625 0.071428571428571438 -0.075000000000000011 0.066666666666666513 -0.066363636363636375 0.0028571428571428571 0.0062500000000000003 0.020689655172413793 0.00063694267515923574 0.014777878513145964 0.040000000000000008 -0.074327440430438138 0.025611052072263552 -0.026953748006379587 0.0011494252873563218 -0.0048231511254019296 -0.071428571428571147 -0.062162162162162166 -0.028789986091794159 -0.062752823745731545 -0.039303482587064675 0.074912891986062713 -0.039013452914798213 0.090966122961104151 0.048594377510040164 -0.073770491803278701 -0.018181818181818184 0.059375000000000004 -0.02897196261682243 0.015076923076923078 -0.044186046511627913 0.00043668122270742359 0.035106382978723406 -0.044991511035653659 0.0010309278350515464 -0.025183374083129585 0.047826086956521741 0.0066666666666666671 0.021963499056010069 -0.088679245283018876 0.0032258064516129032 -0.064968152866242038 0.016129032258064516 -0.070786516853932585 0.0043478260869565218 -0.050877192982456146 -0.059278350515463922 0.016 -0.050000000000000003 -0.025714285714285717 0.099999999999999881 -0.04673684210526316 -0.042290748898678419 0.075000000000000011 -0.02229299363057325 -0.0068736141906873618 0.009987029831387809 -0.025899280575539571 0.0085106382978723406 -0.016117216117216119 0.025203252032520326 -0.025714285714285714 -0.027272727272727271 -0.099999999999999992 0.099999999999999825 -0.012826086956521741 -0.054545454545454543 0.10000000000000001 0.099999999999999964 0.021393034825870648 -0.01864406779661017 0.037500000000000006 0.021684210526315792 -0.048818897637795282 0.026984126984126985 0.083333333333333343 0.024137931034482762 0.077777777777777779 -0.071428571428571438 -0.046188340807174891 -0.037041036717062638
leaf_count=157 384 1277 4 927 863 1606 208 50 5 2 11 186 442 98 8 714 50 286 118 256 7 56 6 440 910 512 116 314 1103 20 1301 1882 627 87 622 7 37 719 3807 402 287 223 797 249 122 44 128 642 325 43 229 188 589 97 1227 23 945 1589 53 31 314 31 89 23 399 388 50 20 35 6 950 908 16 157 451 771 278 94 546 123 210 198 11 2 920 66 4 9 201 236 16 475 254 63 12 58 9 7 1115 1852
internal_value=0 0.361418 -0.626487 0.186674 0.0897636 -0.268379 -0.00369914 -0.45501 -1.00099 -0.116896 0.106414 -0.318869 0.210501 -1.23632 0.110499 -0.404959 -1.26847 -0.770986 0.149529 0.255066 -0.738854 -0.195059 -0.0607843 -0.9813 -0.162594 0.164777 0.204471 0.355638 0.0643308 0.459259 -1.28861 0.537477 -0.311708 -0.758419 -0.0521173 -0.815512 -0.526316 -0.830544 -1.22478 -0.80422 1.14435 -1.22878 1.6297 0.565931 -1.32308 0.368515 0.790698 -0.714377 -0.00332779 -0.123894 0.150244 0.907563 -0.872483 -0.578978 -0.576408 -0.273892 0.306399 0.387824 -0.871429 -0.873995 -0.863215 -0.806928 -0.81827 -0.875691 -0.781099 -1.11436 -0.403101 0.226087 -0.997701 -0.146341 -1.02532 -0.728443 0.156087 -0.140127 -0.0428752 0.0587768 -0.163934 -0.344086 -0.157143 -0 -0.201923 -0.174242 0.0200669 -1.38462 -0.302419 -0.888889 -0.563467 1.27273 0.180879 -0.633229 -0.448598 0.278481 -0.913208 0.342857 0.262626 -0.0540541 -0.299213 0.406639 -0.800534 -0.809572
internal_count=39825 17127 22698 15053 14126 11603 12976 2545 11095 8777 10431 2051 8380 5484 4905 3872 5386 5611 4775 839 2826 2307 2040 1123 2251 7938 6710 3228 3482 2700 5336 2188 1341 683 1228 5312 57 5199 4035 1706 1150 4030 2074 2131 130 559 172 1565 601 113 1025 238 596 1703 1492 1015 2735 1774 4480 4476 4423 3118 3087 1448 1037 411 258 345 1305 41 1264 1554 961 314 2379 1259 488 372 1120 574 832 528 299 13 992 72 646 11 387 638 214 711 265 70 396 185 127 482 2998 2967
shrinkage=0.05


Tree=1
num_leaves=101
num_cat=0
split_feature=19 13 0 8 5 22 0 7 0 0 15 2 2 6 11 2 12 2 2 2 3 11 0 0 2 2 7 0 0 2 0 0 2 0 10 6 2 2 10 2 2 2 2 2 2 2 0 2 2 12 0 0 2 0 20 2 0 2 2 0 0 3 0 2 2 2 0 2 10 21 12 0 0 12 0 2 2 0 2 2 0 2 2 2 22 0 12 16 0 0 2 2 0 2 2 0 0 2 0 17
split_gain=2150.58 858.34 687.795 487.056 314.433 186.686 145.547 142.464 135.949 129.746 104.2 81.9414 71.0588 70.389 61.9919 56.779 52.6241 44.6276 35.5476 32.2401 24.7726 22.0913 20.7236 19.5999 16.6431 15.4216 32.0813 39.9986 19.4759 15.936 15.295 15.2004 13.7483 13.7404 13.0648 12.4684 12.2422 11.7625 11.0511 10.8613 10.7531 10.6786 10.5937 10.3953 10.1163 10.0039 17.7955 9.87927 9.04621 8.77687 8.46807 8.34724 8.26136 7.55502 9.0996 7.46393 10.6493 7.45802 9.84106 7.5754 9.0184 7.40698 7.39724 8.19727 7.94579 7.33331 8.35117 7.31829 6.97609 6.929 7.31985 7.10674 6.79947 6.64206 6.23511 8.91842 11.461 7.50819 6.56067 8.97549 6.1856 6.15992 9.22931 6.11296 6.06508 6.12505 5.9769 5.92257 5.78647 5.75668 5.75211 5.68986 5.62674 8.45843 5.60667 5.58964 5.51724 5.51328 5.5112 5.49422
threshold=1.0000000180025095e-35 1.0000000180025095e-35 31.500000000000004 1.0000000180025095e-35 1.0000000180025095e-35 1.0000000180025095e-35 49.500000000000007 1.0000000180025095e-35 47.500000000000007 22.500000000000004 1.0000000180025095e-35 2012.5000000000002 2015.5000000000002 1.0000000180025095e-35 1.0000000180025095e-35 2010.5000000000002 1.0000000180025095e-35 2014.5000000000002 2010.5000000000002 2009.5000000000002 1.0000000180025095e-35 1.0000000180025095e-35 16.500000000000004 17.500000000000004 2013.5000000000002 2007.5000000000002 1.0000000180025095e-35 37.500000000000007 27.500000000000004 2009.5000000000002 71.500000000000014 10.500000000000002 2014.5000000000002 27.500000000000004 1.0000000180025095e-35 1.0000000180025095e-35 2013.5000000000002 1996.5000000000002 1.0000000180025095e-35 2014.5000000000002 2014.5000000000002 2004.5000000000002 2013.5000000000002 2005.5000000000002 2014.5000000000002 2014.5000000000002 11.500000000000002 1995.5000000000002 2011.5000000000002 1.0000000180025095e-35 8.5000000000000018 25.500000000000004 2005.5000000000002 19.500000000000004 1.0000000180025095e-35 2013.5000000000002 99.500000000000014 1995.5000000000002 1999.5000000000002 41.500000000000007 40.500000000000007 1.0000000180025095e-35 78.500000000000014 2010.5000000000002 2003.5000000000002 1998.5000000000002 12.500000000000002 2011.5000000000002 1.0000000180025095e-35 1.0000000180025095e-35 1.0000000180025095e-35 42.500000000000007 25.500000000000004 1.0000000180025095e-35 18.500000000000004 2012.5000000000002 2009.5000000000002 16.500000000000004 2013.5000000000002 2012.5000000000002 37.500000000000007 1999.5000000000002 1996.5000000000002 2011.5000000000002 1.0000000180025095e-35 45.500000000000007 1.0000000180025095e-35 1.0000000180025095e-35 70.500000000000014 15.500000000000002 2007.5000000000002 2015.5000000000002 19.500000000000004 2014.5000000000002 2014.5000000000002 7.5000000000000009 46.500000000000007 1995.5000000000002 33.500000000000007 1.0000000180025095e-35
decision_type=2 2 2 2 2 2 2 2 2 2 2 2 2 2 2 2 2 2 2 2 2 2 2 2 2 2 2 2 2 2 2 2 2 2 2 2 2 2 2 2 2 2 2 2 2 2 2 2 2 2 2 2 2 2 2 2 2 2 2 2 2 2 2 2 2 2 2 2 2 2 2 2 2 2 2 2 2 2 2 2 2 2 2 2 2 2 2 2 2 2 2 2 2 2 2 2 2 2 2 2
left_child=2 3 5 4 6 9 10 38 17 14 12 52 25 16 18 47 30 35 22 41 51 24 65 32 33 34 27 29 74 -27 37 68 50 -17 96 36 57 -10 67 88 -39 -9 -3 -16 -33 89 -47 87 98 81 -22 -7 97 54 99 56 -21 -4 -59 60 61 -60 63 90 -64 66 -1 -8 -31 71 -71 -61 86 91 75 76 -28 -78 79 -76 -36 82 -24 -29 -19 -86 -49 -11 -6 95 -40 -55 93 -80 -85 -13 -2 -12 -37 -20
right_child=1 42 8 -5 39 20 7 19 13 15 11 45 -14 -15 43 21 -18 84 53 55 23 -23 49 -25 -26 26 28 83 -30 31 -32 44 -34 -35 80 48 -38 40 62 -41 -42 -43 -44 -45 -46 46 -48 72 -50 -51 -52 -53 -54 73 -56 -57 -58 58 59 69 -62 -63 64 -65 -66 -67 -68 -69 -70 70 -72 -73 -74 -75 78 -77 77 -79 92 -81 -82 -83 -84 94 85 -87 -88 -89 -90 -91 -92 -93 -94 -95 -96 -97 -98 -99 -100 -101
leaf_value=0.019586325935236779 0.01039094160326927 0.071893686089109718 0.095241872246060344 0.079152069758308491 0.047040668217773612 -0.029228704784680294 -0.027409649701333735 0.079943320784711613 0.095241872246060344 -0.095241872246060247 0.025913993245874064 0.10021551947656389 0.049037701856232796 0.025208594084658378 0.047530212352017258 -0.0053221735553759192 0.041820590230911649 0.0039860341641509136 -0.014215627424187686 0.010259376838860709 0.067945248412184259 -0.071352002056865843 0.068798413762055297 -0.063116116655798624 0.0027142910105948832 0.0059375596424806939 0.019657311380616382 0.00060509302433858628 0.014039762035538748 -0.035926379001310765 -0.070710347903898269 0.025004969539630217 0.0010919548793773865 -0.025610794122541969 -0.0045820206213657688 -0.067945248412183981 -0.027356253268145298 -0.05967492299503227 -0.039262358639196443 0.071268893288723642 -0.037077130210943929 0.02948914197961492 0.086599853838578267 -0.070179032989884399 0.04696556569595163 -0.017274179036690939 0.056456851902300847 -0.027529242168949315 -0.041997594291658565 0.047689953241681834 -0.04276395061376119 0.00097938197175264675 -0.0239280674016926 0.0038625140019844569 0.02086788317597759 -0.017908362997616639 -0.08216723631184468 -0.084413929706134705 -0.038041235250590867 -0.061786038164797955 0.015323593268948119 -0.067332942617824118 0.0041304554758838982 -0.048365166156583171 -0.056364788036859494 0.009841881588499312 -0.079123248579911765 0.015200991860941569 0.013068068519643723 -0.024432679438084987 0.095241872246060219 -0.044424673099168359 -0.040194490406420688 0.071352002056865843 -0.0065300108742702111 0.0094879190704997424 -0.024608515814887207 0.0080852553211983591 -0.020934646414903859 0.023946956428622268 -0.024432679438084984 -0.011380539143070786 -0.051687828660585224 -0.025913993245874064 -0.095241872246060316 0.095241872246060164 0.095241872246060344 0.095241872246060288 0.086964883052043043 0.020325750743646259 -0.020258150552010967 0.030701490114141489 -0.018242960311853806 0.069231389279979114 0.035637745606055198 -0.006967299275744414 0.079306602497087791 -0.046406075624720586 0.025639666946350406 0.022934432894743409
leaf_count=15 384 1277 4 927 825 1606 208 50 5 2 11 5 442 98 8 714 50 286 127 308 7 56 7 440 910 512 116 314 1103 54 1301 1834 87 627 622 7 719 3807 330 287 223 263 797 122 237 44 128 642 43 24 589 97 1227 858 1589 205 13 53 2998 314 31 89 23 399 388 898 20 50 63 35 6 950 908 16 451 771 278 94 23 123 210 1006 70 198 11 2 4 9 38 201 308 87 504 19 16 181 12 254 63 58
internal_value=0 0.343529 -0.595455 0.177405 0.0852982 -0.255019 -0.00351512 -0.432436 -0.951663 -0.111071 0.101109 -0.302998 0.200004 -1.17575 0.104987 -0.38479 -1.20634 -0.732777 0.142066 0.242371 -0.702208 -0.185323 -0.0577509 -0.932906 -0.154473 0.156555 0.19427 0.337915 0.0611178 0.436379 -1.22549 0.510722 -0.720828 -0.296149 -0.049514 -0.775111 -0.789401 -1.16467 -0.764385 1.08807 -1.16848 0.750772 1.55086 -1.25861 0.550343 0.350182 0.751684 -0.678913 -0.117746 -0.242823 -0.829293 -0.550154 -0.547718 0.291107 0.368481 -0.0600332 0.130366 -0.828296 -0.830733 -0.820473 -0.766918 -0.777701 -0.83236 -0.742361 -1.05953 0.161831 -0.736339 -0.383016 -0.190804 -0.94846 -0.139084 -0.974718 -0.69227 0.148289 -0.0407339 0.0558413 -0.155758 -0.326925 -0.149294 2.71452e-07 -0.191836 -0.269329 -0.814743 -0.165544 0.0190632 -1.31873 -0.535416 1.21217 0.975973 0.171846 -0.601737 0.126668 -0.306247 0.397095 -0.426254 -0.0817208 0.249517 -0.868059 0.325808 -0.0513598
internal_count=39825 17127 22698 15053 14126 11603 12976 2545 11095 8777 10431 2051 8380 5484 4905 3872 5386 5611 4775 839 2826 2307 2040 1123 2251 7938 6710 3228 3482 2700 5336 2188 683 1341 1228 5312 5199 4035 1706 1150 4030 313 2074 130 2071 559 172 1565 113 1107 596 1703 1492 2735 1774 526 321 4480 4476 4423 3118 3087 1448 1037 411 933 35 258 117 1305 41 1264 1554 961 2379 1259 488 372 1120 574 832 1083 77 528 299 13 646 11 863 387 638 945 546 42 214 186 396 265 70 185
shrinkage=0.05


Tree=2
num_leaves=101
num_cat=0
split_feature=19 13 0 8 5 22 0 7 0 0 15 2 2 6 11 2 12 2 2 2 3 11 0 0 2 0 2 7 0 0 2 0 2 0 10 6 2 2 10 2 2 2 0 2 2 2 0 2 0 2 2 2 2 2 0 2 0 12 0 0 20 2 2 0 0 3 0 2 2 2 0 2 21 12 0 0 10 21 12 0 2 12 0 0 2 0 22 0 2 2 2 9 16 0 2 2 2 16 2 2
split_gain=1943.77 779.578 623.218 442.13 284.525 168.768 131.493 128.776 123.854 117.165 94.0897 74.0051 64.3005 63.7821 56.1295 51.3452 47.6533 40.3673 32.0911 29.1892 22.5054 20.0405 18.8481 17.8472 15.0254 14.0234 13.9234 28.9751 36.1205 17.7333 14.4034 13.7284 12.4413 12.4134 11.7934 11.2725 11.1114 10.6579 10.0151 9.93861 9.80385 9.79975 9.54578 9.42148 9.17331 9.06086 16.1116 8.94207 8.63195 8.70634 9.20697 8.36726 8.17487 7.7504 7.65823 7.56724 7.54299 7.24706 7.11122 6.82361 8.21583 6.75709 9.0048 6.89245 8.15266 6.75254 6.7317 7.44132 7.43072 6.72496 6.76788 6.60899 6.58015 6.91787 6.52932 6.32203 6.30044 6.27033 6.64305 6.48421 6.0975 6.02432 5.62465 5.58702 5.52121 5.55143 5.51126 5.56861 5.48065 5.46408 6.57226 5.41741 5.38452 5.31813 5.31075 6.76121 5.79226 5.33097 5.30344 5.30226
threshold=1.0000000180025095e-35 1.0000000180025095e-35 31.500000000000004 1.0000000180025095e-35 1.0000000180025095e-35 1.0000000180025095e-35 49.500000000000007 1.0000000180025095e-35 47.500000000000007 22.500000000000004 1.0000000180025095e-35 2012.5000000000002 2015.5000000000002 1.0000000180025095e-35 1.0000000180025095e-35 2010.5000000000002 1.0000000180025095e-35 2014.5000000000002 2010.5000000000002 2008.5000000000002 1.0000000180025095e-35 1.0000000180025095e-35 17.500000000000004 17.500000000000004 2013.5000000000002 71.500000000000014 2007.5000000000002 1.0000000180025095e-35 37.500000000000007 25.500000000000004 2009.5000000000002 10.500000000000002 2014.5000000000002 27.500000000000004 1.0000000180025095e-35 1.0000000180025095e-35 2013.5000000000002 1996.5000000000002 1.0000000180025095e-35 2014.5000000000002 2014.5000000000002 2013.5000000000002 61.500000000000007 2005.5000000000002 2014.5000000000002 2014.5000000000002 11.500000000000002 1995.5000000000002 20.500000000000004 2012.5000000000002 2009.5000000000002 2006.5000000000002 2011.5000000000002 2004.5000000000002 8.5000000000000018 2004.5000000000002 25.500000000000004 1.0000000180025095e-35 10.500000000000002 19.500000000000004 1.0000000180025095e-35 1995.5000000000002 1999.5000000000002 41.500000000000007 40.500000000000007 1.0000000180025095e-35 78.500000000000014 2010.5000000000002 2004.5000000000002 2005.5000000000002 26.500000000000004 2011.5000000000002 1.0000000180025095e-35 1.0000000180025095e-35 99.500000000000014 13.500000000000002 1.0000000180025095e-35 1.0000000180025095e-35 1.0000000180025095e-35 42.500000000000007 1996.5000000000002 1.0000000180025095e-35 12.500000000000002 37.500000000000007 2011.5000000000002 40.500000000000007 1.0000000180025095e-35 45.500000000000007 2013.5000000000002 1999.5000000000002 1996.5000000000002 1.0000000180025095e-35 1.0000000180025095e-35 28.500000000000004 2004.5000000000002 1999.5000000000002 2003.5000000000002 1.0000000180025095e-35 2008.5000000000002 2002.5000000000002
decision_type=2 2 2 2 2 2 2 2 2 2 2 2 2 2 2 2 2 2 2 2 2 2 2 2 2 2 2 2 2 2 2 2 2 2 2 2 2 2 2 2 2 2 2 2 2 2 2 2 2 2 2 2 2 2 2 2 2 2 2 2 2 2 2 2 2 2 2 2 2 2 2 2 2 2 2 2 2 2 2 2 2 2 2 2 2 2 2 2 2 2 2 2 2 2 2 2 2 2 2 2
left_child=2 3 5 4 6 9 10 38 17 14 12 55 26 16 18 47 25 35 22 53 56 24 51 32 33 37 34 28 30 48 -28 76 54 -17 -2 36 61 -10 71 -6 -39 -3 -21 -16 -33 -13 -47 92 49 50 -29 75 -37 -9 -22 80 -7 89 -52 60 -20 -4 -63 64 65 99 67 98 -68 72 -71 -8 73 93 -44 -1 -32 79 -79 -65 -12 -61 -53 -36 -30 88 -19 -88 -86 90 -24 -84 -11 -49 95 -27 -97 -98 -40 -64
right_child=1 41 8 -5 39 20 7 19 13 15 11 45 -14 -15 43 21 -18 86 59 42 23 -23 57 -25 -26 94 27 29 84 -31 31 44 -34 -35 83 52 -38 40 66 -41 -42 -43 74 -45 -46 46 -48 69 -50 -51 58 82 -54 -55 -56 -57 -58 -59 -60 81 -62 62 63 77 -66 -67 68 -69 -70 70 -72 -73 -74 -75 -76 -77 -78 78 -80 -81 -82 -83 91 -85 85 -87 87 -89 -90 -91 -92 -93 -94 -95 -96 96 97 -99 -100 -101
leaf_value=0.0074134521425002833 0.011855034604687082 0.068579464611594573 0.091131780775723592 0.075568727259327229 0.046447269342712032 -0.027786115862728264 -0.02605470932112898 0.076331757354506202 0.091131780775723592 -0.091131780775723523 0.012173431378230293 0.008164491732987644 0.046674822808614902 0.023960255471310532 0.045234752065765126 -0.0050561749187633519 0.039784766625730411 0.0037867771012233932 -0.0024401304546667669 -0.01484163750577568 0.064784738740051639 -0.068058572997905395 0.060178992638256247 -0.060150081265968929 0.0025785945698283278 -0.093249480370438703 0.0056408385853432821 0.013842057176865669 0.00057484376259777368 0.01245261125923766 -0.034155536870479564 0.02376630665471384 0.0010373579327080053 -0.024342932751512125 -0.0043529905790696197 0.015488218709686639 -0.026003892489270281 -0.056851568248087458 -0.0355978909583822 0.067978659669966815 -0.035261750924383141 0.082760013440197844 0.01405604698124157 -0.066930952841852506 0.044694604832943088 -0.016414361388280334 0.053769826990556283 -0.062837438883568991 -0.012528994531457591 0.007290140170003144 -0.060013404092596194 -7.7243985091379012e-05 -0.039953625414753439 0.031910995340960265 -0.040684780427417341 -0.023549236806042859 0.00093041150486873083 0.043152186276770275 -0.011220850284930564 0.0060170344072226481 0.019831350418576432 -0.080647202751435873 0.0049679073750372987 -0.058874761385988676 0.014560131314357483 -0.06419669842775845 -0.014694281049426298 -0.04603230028331512 -0.05552060086340839 -0.021999654806156638 -0.036785646908235776 0.014443589995977496 -0.0069939679673491576 0.099932849472273835 -0.044900212770343235 -0.02096889371089071 0.012417237999622473 -0.023222054164915643 0.091131780775723481 -0.042269616683951072 -0.05289632517317279 0.068058572997905395 0.020244803173056075 -0.023222054164915639 -0.017353557099917406 -0.037142408792835716 -0.091131780775723592 0.091131780775723439 0.034385003104570815 -0.011617516013454968 -0.049377833476525829 -0.068415045019604201 0.091131780775723564 -0.03301281802012148 -0.068825426002302945 0.0359992879438161 0.040786279362862547 -0.065833074970445257 -0.016705522882377175 -0.036611193702029692
leaf_count=157 396 1277 4 927 863 1606 208 50 5 2 16 387 442 98 8 714 50 286 185 256 7 56 6 440 910 16 512 151 314 1248 54 1834 87 627 622 70 719 3807 402 287 223 797 325 122 237 44 128 183 614 984 32 229 43 188 589 1330 97 23 453 945 1589 53 31 314 31 89 51 399 360 602 639 50 38 3 20 157 63 35 6 950 146 16 475 210 85 102 11 2 27 920 66 7 9 89 1243 14 6 22 236 2967
internal_value=0 0.326847 -0.566461 0.168712 0.081095 -0.242424 -0.00334196 -0.411279 -0.906008 -0.105567 0.0960976 -0.288045 0.190078 -1.12029 0.0997679 -0.365765 -1.14949 -0.69704 0.134995 0.230398 -0.667897 -0.176104 -0.0548759 -0.88806 -0.146774 -1.16776 0.148772 0.184615 0.321169 0.0580719 0.414773 0.485488 -0.685672 -0.281415 -0.0470449 -0.737349 -0.750947 -1.10947 -0.727172 1.03619 -1.11309 1.48041 -0.00421822 -1.20021 0.523156 0.33293 0.715502 -0.645649 -0.0486203 0.0279262 -0.154488 0.136435 -0.111987 0.824027 -0.788992 -0.520682 -0.522982 -0.248111 -0.288787 0.276624 0.350175 -0.788043 -0.790358 -0.780556 -0.729455 -0.739718 -0.791959 -0.706089 -1.00896 -0.658326 -0.592207 -0.364055 -0.920482 -1.02836 0.212957 -0.135516 -0.181349 -0.902765 -0.132278 -0.927773 -0.929269 0.140892 0.256527 -0.182269 -0.157304 -0.405171 0.0181068 -1.26182 -0.0976483 -0.273824 -0.805257 0.379163 1.15986 -1.06164 -1.34883 -0.755728 -0.333152 -0.859721 -0.572098 -0.723615
internal_count=39825 17127 22698 15053 14126 11603 12976 2545 11095 8777 10431 2051 8380 5484 4905 3872 5386 5611 4775 839 2826 2307 2040 1123 2251 5336 7938 6710 3228 3482 2700 2188 683 1341 1228 5312 5199 4035 1706 1150 4030 2074 601 130 2071 559 172 1565 2234 1620 636 1025 113 238 596 1492 1703 1015 485 2735 1774 4480 4476 4423 3118 3087 1448 1037 411 1554 1241 258 313 275 345 314 117 1305 41 1264 162 961 711 832 528 214 299 13 112 992 72 482 11 272 1301 58 42 28 638 2998
shrinkage=0.05


Tree=3
num_leaves=101
num_cat=0
split_feature=19 13 0 8 5 22 0 7 0 0 2 15 6 2 11 2 12 2 2 2 3 11 0 0 2 0 2 7 0 0 0 2 2 0 10 6 2 2 2 2 10 2 2 2 2 2 2 0 0 2 12 2 0 0 10 2 0 2 0 0 20 0 2 2 2 2 0 0 3 2 0 12 21 12 2 2 21 12 0 12 0 0 2 2 0 2 2 0 2 2 7 0 2 2 0 22 0 2 0 0
split_gain=1758.29 710.546 565.95 402.648 257.833 152.711 118.864 116.503 113.429 105.839 85.145 79.0814 57.9253 53.2666 50.9136 46.482 43.2331 36.5588 28.9735 26.7673 20.5198 18.2321 17.0383 16.331 13.5675 12.9757 12.5729 26.1828 32.6302 16.0119 13.1878 13.6251 11.2753 11.2208 10.6458 10.2094 10.1171 9.67864 9.18811 9.16443 9.09649 8.98835 8.86705 8.7837 8.55897 8.50452 8.10726 8.01593 9.95886 7.39169 7.22112 6.9827 6.93381 6.82101 6.76064 6.64682 9.159 6.42494 7.37281 6.1652 7.42142 6.15154 6.78414 6.77654 6.13556 8.30194 6.29818 7.37695 6.18979 6.1082 6.14362 5.99248 5.97185 6.26111 5.97055 5.80029 5.68282 6.04775 5.95165 5.47912 5.30629 5.30108 7.2977 9.48518 6.66293 6.07014 7.98558 5.16345 5.13832 5.12789 5.11613 5.07684 5.05454 5.79125 5.04861 5.02724 5.08357 5.01964 6.91258 5.01921
threshold=1.0000000180025095e-35 1.0000000180025095e-35 31.500000000000004 1.0000000180025095e-35 1.0000000180025095e-35 1.0000000180025095e-35 49.500000000000007 1.0000000180025095e-35 47.500000000000007 22.500000000000004 2015.5000000000002 1.0000000180025095e-35 1.0000000180025095e-35 2012.5000000000002 1.0000000180025095e-35 2010.5000000000002 1.0000000180025095e-35 2014.5000000000002 2010.5000000000002 2009.5000000000002 1.0000000180025095e-35 1.0000000180025095e-35 16.500000000000004 17.500000000000004 2013.5000000000002 71.500000000000014 2007.5000000000002 1.0000000180025095e-35 37.500000000000007 27.500000000000004 9.5000000000000018 2009.5000000000002 2014.5000000000002 27.500000000000004 1.0000000180025095e-35 1.0000000180025095e-35 2013.5000000000002 1996.5000000000002 2013.5000000000002 2014.5000000000002 1.0000000180025095e-35 2014.5000000000002 2004.5000000000002 2014.5000000000002 2005.5000000000002 2011.5000000000002 1995.5000000000002 16.500000000000004 27.500000000000004 2011.5000000000002 1.0000000180025095e-35 2005.5000000000002 8.5000000000000018 25.500000000000004 1.0000000180025095e-35 2013.5000000000002 99.500000000000014 1998.5000000000002 12.500000000000002 19.500000000000004 1.0000000180025095e-35 78.500000000000014 2003.5000000000002 2010.5000000000002 1995.5000000000002 1999.5000000000002 41.500000000000007 40.500000000000007 1.0000000180025095e-35 2005.5000000000002 26.500000000000004 1.0000000180025095e-35 1.0000000180025095e-35 1.0000000180025095e-35 2011.5000000000002 2014.5000000000002 1.0000000180025095e-35 1.0000000180025095e-35 42.500000000000007 1.0000000180025095e-35 70.500000000000014 18.500000000000004 2012.5000000000002 2009.5000000000002 16.500000000000004 2013.5000000000002 2012.5000000000002 15.500000000000002 2015.5000000000002 2007.5000000000002 1.0000000180025095e-35 90.500000000000014 2005.5000000000002 1996.5000000000002 37.500000000000007 1.0000000180025095e-35 45.500000000000007 2010.5000000000002 40.500000000000007 46.500000000000007
decision_type=2 2 2 2 2 2 2 2 2 2 2 2 2 2 2 2 2 2 2 2 2 2 2 2 2 2 2 2 2 2 2 2 2 2 2 2 2 2 2 2 2 2 2 2 2 2 2 2 2 2 2 2 2 2 2 2 2 2 2 2 2 2 2 2 2 2 2 2 2 2 2 2 2 2 2 2 2 2 2 2 2 2 2 2 2 2 2 2 2 2 2 2 2 2 2 2 2 2 2 2
left_child=2 3 5 4 6 9 10 40 17 14 11 26 16 51 18 46 25 35 22 42 53 24 57 32 33 37 34 28 30 81 45 54 52 -17 99 36 64 -10 -3 80 74 -39 -9 -33 -16 71 -11 -15 75 -37 92 -13 -22 -7 -32 56 91 58 -1 60 -20 63 -63 -42 -4 -66 67 68 -67 72 -71 -28 73 -48 89 -49 78 -78 -68 88 -6 82 83 -29 -85 86 -83 -59 -61 -8 -12 -21 93 -24 -36 -19 -97 -30 -99 -2
right_child=1 38 8 -5 39 20 7 19 12 15 90 13 -14 47 44 21 -18 95 59 55 23 -23 50 -25 -26 -27 27 29 97 -31 31 43 -34 -35 94 49 -38 41 -40 -41 61 -43 -44 -45 -46 -47 69 48 -50 -51 -52 -53 -54 -55 -56 -57 -58 87 -60 79 -62 62 -64 -65 65 66 76 -69 -70 70 -72 -73 -74 -75 -76 -77 77 -79 -80 -81 -82 85 -84 84 -86 -87 -88 -89 -90 -91 -92 -93 -94 -95 -96 96 -98 98 -100 -101
leaf_value=0.018241853966465656 0.0092810308814412663 0.065566660987503217 0.087549100739152091 0.072346681222395001 0.042569783954235885 -0.026424573643042848 -0.0062421822649463277 0.073088534635562905 0.087549100739152091 0.05571306410673315 0.062730000365486663 -0.039515306046266852 0.022780049251766885 0.001200913337318206 0.043092685078580675 -0.0048035353534581935 0.03787697664389135 0.0035975112493677173 -0.0023181429684667751 0.0065288011033087668 0.061896471104798317 -0.065062422283216612 0.063406320778132491 -0.057423607733813734 0.0024496816245846479 -0.064468660833771799 0.066385081376507768 0.017994068928148543 0.00481111852577928 0.012720075203476709 0.042590249684751252 0.02197864585225533 0.0009854913156597785 -0.023144459791612684 -0.004135449634702278 0.014718623628148984 -0.024726458262201066 -0.054246350803449195 0.07935221237185297 0.064985078202838595 -0.027207843948413309 -0.033555381698542733 0.026861924497635969 0.042007785070043206 -0.06397134017690996 -0.056419311296230637 -0.050563454118650569 0.029808353345181615 -0.0050882458393724499 -0.038038435145175971 0.043382372623851945 -0.021580396465854287 -0.038737637520634013 0.00088389398299405786 0.0023767663914895441 -0.016881459143588445 -0.076380642147828887 0.0057683625924875651 -0.07457757520753186 0.003368742972954759 0.018849878245966251 0.0046586706799189772 -0.051249717829146016 -0.043856793371765464 -0.077290707344082998 -0.034433459828526199 -0.056194592060220219 0.013836122945749131 -0.061328384516253526 -0.020916115090352724 -0.035012811817976809 -0.027927794680335051 -0.006646037328829537 0.095220542603964786 0.013725313342335541 0.075413241609726137 -0.022077163599178558 0.087549100739151994 -0.040253803242714874 0.065062422283216612 0.080949437201307567 -0.0058433093416601469 0.0086504067481463116 -0.02256045943354058 0.0082419436306819371 -0.014414948257050792 0.022908834375500797 0.026863423301653557 0.028879149850623387 -0.038100013617231775 0.039452604370923065 0.062760862686597349 -0.0089036217565805834 -0.029515978409725103 -0.022077163599178551 -0.087549100739152078 0.087549100739151939 -0.00014796563789296472 -0.02938928806317543 0.07520019638260339
leaf_count=15 384 1277 4 927 825 1606 87 50 5 11 130 265 98 285 8 714 50 286 185 291 7 56 7 440 910 1301 13 116 204 1103 46 1882 87 627 622 70 719 3807 797 287 638 223 263 249 122 37 272 127 71 43 24 1227 589 97 459 205 13 761 20 858 1589 23 388 399 53 2998 314 31 89 602 639 14 38 3 50 36 35 6 950 16 38 451 771 278 94 546 123 137 87 121 352 17 878 198 210 11 2 157 167 12
internal_value=0 0.311224 -0.539289 0.160531 0.0771278 -0.230535 -0.00317895 -0.391402 -0.86356 -0.100363 0.0913522 0.0516446 -1.06922 -0.30298 0.0948241 -0.347793 -1.09716 -0.663517 0.128293 0.219102 -0.635681 -0.167369 -0.0521527 -0.846316 -0.13947 -1.11462 0.14139 0.175462 0.305331 0.055177 0.39435 0.416134 -0.652695 -0.267452 -0.0447025 -0.701944 -0.714904 -1.05848 1.41694 0.988092 -0.69229 -1.06192 0.683375 0.486241 -1.14691 -0.503805 -0.614371 0.249354 0.523979 -0.106508 -0.220038 -0.495153 -0.75126 -0.497326 0.120796 -0.0562497 0.123479 0.146973 -0.694583 0.262891 0.332826 -0.754145 -0.962001 -0.672035 -0.750361 -0.752561 -0.743169 -0.694293 -0.704073 -0.626394 -0.563364 0.349291 -0.876557 -0.979565 -0.346131 0.796584 -0.860178 -0.125879 -0.884029 0.133871 0.885089 -0.0371871 0.0518809 -0.13962 -0.295403 -0.137296 0.00631566 0.17972 0.114329 -0.495497 0.914611 0.192643 -0.244047 -0.527222 -0.173192 0.017196 -1.21222 -0.149488 -0.304348 0.225289
internal_count=39825 17127 22698 15053 14126 11603 12976 2545 11095 8777 10431 9949 5484 2011 4905 3872 5386 5611 4775 839 2826 2307 2040 1123 2251 5336 7938 6710 3228 3482 2700 2636 683 1341 1228 5312 5199 4035 2074 1150 1706 4030 313 2131 130 64 1565 519 234 113 1107 1492 596 1703 505 526 321 933 35 2735 1774 1448 411 1037 4480 4476 4423 3118 3087 1554 1241 27 313 275 258 163 1305 41 1264 961 863 2379 1259 488 372 1120 574 898 945 208 482 308 1083 205 832 299 13 528 324 396
shrinkage=0.05


Tree=4
num_leaves=101
num_cat=0
split_feature=19 13 0 8 5 22 0 7 0 0 2 15 6 2 11 2 12 2 2 2 3 11 0 0 2 0 0 12 2 0 2 0 7 2 7 0 6 2 2 2 2 2 2 10 2 2 2 0 0 2 2 12 2 2 0 2 0 2 0 12 21 12 0 2 2 2 0 2 2 2 0 9 4 2 2 0 0 3 2 2 2 0 2 0 21 12 0 0 2 2 2 0 2 0 2 12 0 2 2 2
split_gain=1591.6 649.584 514.897 367.712 233.944 138.291 107.5 105.472 104.333 95.635 77.1938 71.4371 52.7062 48.1404 46.254 42.1179 39.2851 33.1437 26.1629 24.2383 18.7665 16.6274 15.7905 15.0056 12.253 12.0876 11.6888 20.7712 12.3756 10.2415 10.2313 9.59765 20.5893 35.851 19.4438 10.219 9.25619 9.23537 8.8065 8.71299 8.59671 8.50293 8.27963 8.27542 8.18339 7.79116 7.60826 7.25441 9.02269 6.68733 6.66967 6.49912 6.45952 6.41911 6.28411 6.26492 6.23442 6.0004 8.32477 5.94483 5.86816 5.81959 5.7142 8.28948 5.74438 5.64674 5.58699 5.58202 7.70325 6.2718 5.57168 6.96722 6.41528 7.40104 5.55796 5.40207 6.79655 5.51919 5.39584 5.33386 5.31691 5.26637 5.23907 6.22621 5.20343 5.52099 5.21292 5.07991 6.77074 5.0708 7.51938 5.06985 5.18049 7.65098 11.8183 4.99496 4.98235 4.97843 4.91513 6.25334
threshold=1.0000000180025095e-35 1.0000000180025095e-35 31.500000000000004 1.0000000180025095e-35 1.0000000180025095e-35 1.0000000180025095e-35 49.500000000000007 1.0000000180025095e-35 47.500000000000007 22.500000000000004 2015.5000000000002 1.0000000180025095e-35 1.0000000180025095e-35 2012.5000000000002 1.0000000180025095e-35 2010.5000000000002 1.0000000180025095e-35 2014.5000000000002 2010.5000000000002 2009.5000000000002 1.0000000180025095e-35 1.0000000180025095e-35 18.500000000000004 17.500000000000004 2013.5000000000002 71.500000000000014 10.500000000000002 1.0000000180025095e-35 2004.5000000000002 25.500000000000004 2014.5000000000002 37.500000000000007 1.0000000180025095e-35 2008.5000000000002 1.0000000180025095e-35 35.500000000000007 1.0000000180025095e-35 2013.5000000000002 1996.5000000000002 2013.5000000000002 1999.5000000000002 2014.5000000000002 2014.5000000000002 1.0000000180025095e-35 2004.5000000000002 2005.5000000000002 1996.5000000000002 16.500000000000004 27.500000000000004 2011.5000000000002 2002.5000000000002 1.0000000180025095e-35 2005.5000000000002 2004.5000000000002 8.5000000000000018 2014.5000000000002 28.500000000000004 2013.5000000000002 99.500000000000014 1.0000000180025095e-35 1.0000000180025095e-35 1.0000000180025095e-35 80.500000000000014 2003.5000000000002 2010.5000000000002 2005.5000000000002 26.500000000000004 1995.5000000000002 1999.5000000000002 2002.5000000000002 19.500000000000004 1.0000000180025095e-35 1.0000000180025095e-35 2015.5000000000002 1996.5000000000002 41.500000000000007 40.500000000000007 1.0000000180025095e-35 2011.5000000000002 2014.5000000000002 2009.5000000000002 36.500000000000007 2009.5000000000002 11.500000000000002 1.0000000180025095e-35 1.0000000180025095e-35 42.500000000000007 13.500000000000002 2011.5000000000002 2006.5000000000002 2010.5000000000002 26.500000000000004 2011.5000000000002 19.500000000000004 2013.5000000000002 1.0000000180025095e-35 33.500000000000007 2004.5000000000002 2004.5000000000002 1999.5000000000002
decision_type=2 2 2 2 2 2 2 2 2 2 2 2 2 2 2 2 2 2 2 2 2 2 2 2 2 2 2 2 2 2 2 2 2 2 2 2 2 2 2 2 2 2 2 2 2 2 2 2 2 2 2 2 2 2 2 2 2 2 2 2 2 2 2 2 2 2 2 2 2 2 2 2 2 2 2 2 2 2 2 2 2 2 2 2 2 2 2 2 2 2 2 2 2 2 2 2 2 2 2 2
left_child=2 3 5 4 6 9 10 43 17 14 11 26 16 53 18 46 25 36 22 44 56 24 40 30 29 38 -2 31 50 -17 54 32 33 81 -33 82 37 67 -10 -3 -1 -6 -40 78 -9 -16 -11 -15 79 96 -29 -24 60 74 -22 87 -7 58 -21 -42 61 -48 64 -64 -45 -37 -54 -4 -69 -70 71 72 -20 -74 -13 76 77 80 -8 -49 -71 -28 -34 -84 86 -86 -77 88 -35 -58 -91 92 -85 -94 -95 -72 -38 -36 99 -27
right_child=1 39 8 -5 41 20 7 19 12 15 -12 13 -14 47 45 21 -18 -19 70 57 23 -23 51 -25 -26 98 27 28 -30 -31 -32 34 35 55 97 65 49 -39 42 -41 59 -43 -44 62 -46 -47 52 48 -50 -51 -52 -53 66 -55 -56 -57 89 -59 -60 -61 -62 -63 63 -65 -66 -67 -68 68 69 75 95 -73 73 -75 -76 84 -78 -79 -80 -81 -82 -83 83 91 85 -87 -88 -89 -90 90 -92 -93 93 94 -96 -97 -98 -99 -100 -101
leaf_value=-0.025686425996940605 -0.012431663305726209 0.062808628891155058 0.084401502427522396 0.069426918821716518 0.04220473075572255 -0.024803303413963203 -0.02356619027877549 0.070153192185412702 0.084401502427522396 0.034230370967011224 0.043614677854409062 0.013541754583999721 0.021663049177133194 0.0011408857022458657 0.041086559488809092 -0.0022337973120430581 0.036084072990050058 0.00081644581891565529 0.017961249075796007 0.0091523227107391698 0.059239819541143469 -0.062317762871967192 -0.015421738109458542 -0.054902716669782373 0.0023272275317496247 -0.08693896823495284 -0.0055076081449376545 0.057903187632661494 0.039406232709549675 -0.020009177951983901 0.0009362206995427373 -0.012081499038390776 0.010640707592612025 0.017189543522311751 0.077437949234873238 -0.062150913659225371 -0.06617239486004528 -0.023518270245724907 -0.051829562599836836 0.076302995701070034 0.0056322999710965525 0.062242491684527036 -0.031947847050928915 -0.027071846409963313 0.025551556895796114 -0.061256233279961492 -0.04994466438411263 0.028345949389638032 -0.0048329419498784488 -0.03623874786711076 -0.075490258247212991 0.051345617466368565 -0.019889742613017153 -0.021263608625077653 -0.036908718081806582 0.037687943383672567 -0.071620066521579914 -0.016041810335640973 -0.073173003957348048 0.069087247217239453 -0.0063154841387623954 0.0911444174072462 0.015867350649823087 -0.052346889220305004 -0.041732153656052276 0.048157375053022811 -0.033343792505023125 -0.074275409421882696 0.0068025865511783497 -0.038672354816238826 0.0054312595446212811 -0.033678338031515237 -0.021246498791810269 0.074903143045146961 -0.048605165357154569 -0.053599666255415457 0.013149251700298787 -0.05868825067011614 0.01304386383820829 0.072216590169845926 -0.029906749924171274 0.064190071562203507 0.033360246150431032 -0.013927720489827803 -0.020993335623271926 0.084401502427522285 -0.038617797429936318 0.017515623876798014 0.060030693904701504 0.063445363650750097 -0.013524615466686693 0.0071948526889651842 0.0054386868178278912 0.010651012907154355 -0.017517220517261678 0.062317762871967192 0.022884168985210323 0.012022580439716641 -0.063082626092693786 -0.01272602343691843
leaf_count=90 307 1277 4 927 863 1644 208 50 5 19 482 16 98 285 8 550 50 299 1664 308 7 56 730 440 910 16 755 5 270 791 87 726 534 81 12 5 7 719 3807 797 1190 287 223 704 263 122 264 127 71 43 15 15 602 1330 589 198 7 205 13 15 38 3 19 289 436 65 639 53 35 1115 945 28 73 9 146 313 31 89 50 36 1852 11 54 379 35 6 947 1833 68 22 30 584 857 217 476 16 63 486 1243 42
internal_value=0 0.29656 -0.513745 0.152823 0.0733818 -0.219292 -0.00302445 -0.372678 -0.823915 -0.095436 0.0868607 0.0490968 -1.0219 -0.288162 0.0901356 -0.330794 -1.0487 -0.63198 0.121934 0.208427 -0.605356 -0.159087 -0.0495663 -0.807303 -0.13254 -1.06542 0.134399 0.149796 0.675425 -0.254212 -0.621678 0.129056 0.161426 0.281962 -0.0327049 0.0495873 -0.668651 -0.681017 -1.01114 1.35931 0.0839327 0.943341 -1.01441 -0.659486 0.650989 -1.09795 -0.584891 0.237087 0.498656 -0.101332 -0.842838 -0.281734 -0.600287 -0.471002 -0.715826 0.413035 -0.47307 -0.053465 0.117355 0.128401 -0.862056 -0.967401 -0.718617 -0.961825 -0.653239 0.805527 -0.536128 -0.714968 -0.717057 -0.708035 0.249871 0.316383 0.332277 -0.213953 -0.848511 -0.714801 -0.669164 -0.678667 -0.32919 0.75869 -0.663989 -0.0901345 0.0325241 -0.00498315 -0.823448 -0.119848 -0.846396 0.37921 0.734702 0.165667 0.380792 -0.0194258 -0.0688675 -0.0176053 -0.173929 0.127212 0.279773 0.271799 -1.2348 -0.661182
internal_count=39825 17127 22698 15053 14126 11603 12976 2545 11095 8777 10431 9949 5484 2011 4905 3872 5386 5611 4775 839 2826 2307 2040 1123 2251 5336 7938 7631 290 1341 683 7341 6117 2946 1224 3171 5312 5199 4035 2074 1295 1150 4030 1706 313 130 1565 519 234 113 20 745 1546 1492 596 2180 1703 526 321 1205 305 267 1448 308 1140 70 1241 4480 4476 4423 2735 1774 1746 82 162 4388 3087 3056 258 163 2967 766 3101 2567 1301 41 1260 1982 149 59 52 2513 1929 1550 693 961 70 498 1301 58
shrinkage=0.05


Tree=5
num_leaves=101
num_cat=0
split_feature=19 13 0 8 5 22 0 0 7 0 2 15 6 2 11 2 12 2 2 2 3 11 0 0 0 2 0 12 2 0 2 2 0 7 2 7 0 0 6 2 2 2 10 2 2 2 0 0 14 0 2 0 2 2 2 2 2 0 14 0 0 2 2 12 21 12 0 2 2 0 12 21 2 0 0 2 0 0 9 4 2 0 0 0 2 9 2 2 0 0 2 0 2 2 0 0 2 0 2 12
split_gain=1441.54 595.406 469.208 336.615 212.483 125.318 97.2601 96.3337 95.54 86.4346 70.0504 64.544 48.0374 43.5218 42.0769 38.1953 35.7473 30.0983 23.6287 22.194 17.207 15.1958 14.3356 13.8362 11.5948 11.5401 10.5542 18.7999 11.1908 10.1616 10.0475 9.59477 8.66773 18.6107 32.8138 17.5562 9.24074 8.40284 8.39324 8.45025 8.34157 7.93359 7.54114 7.3555 7.01351 6.88365 6.57121 8.18422 6.2379 6.77599 6.2009 7.44615 6.18666 6.05392 6.02492 6.02004 5.90892 5.71816 5.62289 5.5529 5.47999 5.40614 5.39449 6.67973 5.35446 5.29085 5.29013 6.06127 5.71465 5.25288 6.00562 14.141 6.28223 5.22041 5.12184 5.1035 5.08848 5.03821 6.29359 5.79421 6.69765 5.02788 5.00607 4.94391 4.93078 4.89479 4.87727 4.85737 4.83893 4.81344 6.93227 5.51163 6.11148 5.3697 4.80002 4.75262 4.71861 5.91119 4.65373 4.73744
threshold=1.0000000180025095e-35 1.0000000180025095e-35 31.500000000000004 1.0000000180025095e-35 1.0000000180025095e-35 1.0000000180025095e-35 49.500000000000007 47.500000000000007 1.0000000180025095e-35 22.500000000000004 2015.5000000000002 1.0000000180025095e-35 1.0000000180025095e-35 2012.5000000000002 1.0000000180025095e-35 2010.5000000000002 1.0000000180025095e-35 2014.5000000000002 2010.5000000000002 2008.5000000000002 1.0000000180025095e-35 1.0000000180025095e-35 17.500000000000004 17.500000000000004 80.500000000000014 2014.5000000000002 10.500000000000002 1.0000000180025095e-35 2004.5000000000002 25.500000000000004 2014.5000000000002 2011.5000000000002 37.500000000000007 1.0000000180025095e-35 2009.5000000000002 1.0000000180025095e-35 35.500000000000007 61.500000000000007 1.0000000180025095e-35 2013.5000000000002 2013.5000000000002 2014.5000000000002 1.0000000180025095e-35 2010.5000000000002 2006.5000000000002 1996.5000000000002 16.500000000000004 27.500000000000004 1.0000000180025095e-35 99.500000000000014 2009.5000000000002 47.500000000000007 1996.5000000000002 2011.5000000000002 2004.5000000000002 2002.5000000000002 2005.5000000000002 25.500000000000004 1.0000000180025095e-35 13.500000000000002 51.500000000000007 2013.5000000000002 1999.5000000000002 1.0000000180025095e-35 1.0000000180025095e-35 1.0000000180025095e-35 78.500000000000014 2004.5000000000002 2010.5000000000002 33.500000000000007 1.0000000180025095e-35 1.0000000180025095e-35 2008.5000000000002 55.500000000000007 31.500000000000004 2005.5000000000002 26.500000000000004 19.500000000000004 1.0000000180025095e-35 1.0000000180025095e-35 2015.5000000000002 8.5000000000000018 12.500000000000002 70.500000000000014 2014.5000000000002 1.0000000180025095e-35 2011.5000000000002 2007.5000000000002 99.500000000000014 12.500000000000002 2011.5000000000002 25.500000000000004 2002.5000000000002 2003.5000000000002 15.500000000000002 24.500000000000004 2014.5000000000002 13.500000000000002 2007.5000000000002 1.0000000180025095e-35
decision_type=2 2 2 2 2 2 2 2 2 2 2 2 2 2 2 2 2 2 2 2 2 2 2 2 2 2 2 2 2 2 2 2 2 2 2 2 2 2 2 2 2 2 2 2 2 2 2 2 2 2 2 2 2 2 2 2 2 2 2 2 2 2 2 2 2 2 2 2 2 2 2 2 2 2 2 2 2 2 2 2 2 2 2 2 2 2 2 2 2 2 2 2 2 2 2 2 2 2 2 2
left_child=2 3 5 4 6 9 10 17 42 14 11 26 16 50 18 45 24 38 22 54 57 25 44 31 30 29 -2 32 55 -17 52 81 33 34 -28 -34 89 -21 39 69 -3 83 86 -16 59 -11 -15 84 -26 -50 51 -13 -9 -40 -10 -29 64 -7 -31 -1 61 -54 -24 -64 65 -47 68 -68 87 -4 -71 72 -72 -56 95 -38 -58 78 79 -20 -81 -22 -46 -6 -48 -84 98 -44 -39 90 -35 93 -93 -91 -12 -52 97 -36 99 -8
right_child=1 40 7 -5 41 20 8 12 19 15 94 13 -14 46 43 21 -18 -19 77 37 23 -23 62 -25 48 -27 27 28 -30 58 -32 -33 35 36 96 -37 75 88 53 -41 -42 -43 66 -45 82 56 47 -49 49 -51 74 -53 60 -55 73 -57 76 -59 -60 -61 -62 -63 63 -65 -66 -67 67 -69 -70 70 71 -73 -74 -75 -76 -77 -78 -79 -80 80 -82 -83 85 -85 -86 -87 -88 -89 -90 91 -92 92 -94 -95 -96 -97 -98 -99 -100 -101
leaf_value=0.0068306671595063789 -0.011810976729648559 0.06026769001041004 -0.023940132846062133 0.066762255444464777 0.03865109404890657 -0.023935954835402239 -0.014994891378423062 0.053706046218456788 0.067477448004990379 0.032563452037685528 0.030245737769067051 -0.029341381846529836 0.02060487654020908 0.0010838562211785022 -0.02579883631577708 -0.00079262100468690416 0.034394865703549632 0.0007756244920582695 0.017076986940704152 -0.01401633409900244 0.051892777515997496 -0.059787576017306165 -0.03674324463076372 -0.052559595299479213 -0.064866011413726957 0.0090797243153342543 -0.00086233147624276477 0.055124416530948399 0.037517230066703405 -0.016435021323326953 -0.02921097764230688 -0.016149633421683518 -0.011481452847990375 -0.0076278800949245579 0.040261766902547826 0.012917535361357639 -0.059021429408954787 0.012827092695746717 0.013308150139641511 -0.022374303288985254 0.073554283480097321 0.059713971020456919 -0.03304308939680721 -0.074299418182256105 -0.0006850051694734634 -0.047691278714207155 0.026965368577347656 -0.0045905451838038477 -0.052389121095996929 0.11770626110597626 -0.016327275357185918 0.053785328556444745 -0.047852803586713302 -0.034543285471524666 -0.015853174104899458 -0.071701744225308478 -0.018916759630109005 0.0010742147250822169 0.073532936773936172 -0.01978034381237594 -0.052843759928394421 -0.03024523543075798 -0.009972718878662197 0.048849325716801228 -0.0060014147452766183 0.087586940667713387 -0.011590852206092198 -0.048585834659331847 -0.039912132424508105 -0.035654708043914095 0.050288578622910751 0.096020546623056702 -0.057801674624003908 0.034220172039172922 -0.034887820308009541 0.045836369841751726 -0.031769091655231368 0.0060442190594024864 -0.032026330779189975 -0.020195517933355941 0.071420625158264334 -0.04158371041209908 0.018499164441747425 0.075971709527536277 0.069318596185815359 -0.065876131456947012 0.012397130784331901 -0.015535445195187523 -0.03829788293402147 0.057385804197968994 0.02934435645847169 -0.10272702823011665 0.008217160063023041 -0.002683416794257691 0.050499717219361619 0.0057880858299818863 0.035942482985025642 0.017865993546123955 -0.035143833976581572 0.048609668732050131
leaf_count=157 307 1277 462 927 825 1606 73 6 50 19 211 813 98 285 58 763 50 299 1664 256 6 56 75 440 645 401 1041 5 270 1080 240 299 726 80 128 498 5 325 70 719 797 287 330 72 229 264 127 71 6 4 431 11 1166 43 24 15 602 97 7 157 3059 210 920 20 38 3 51 360 399 3975 7 12 24 164 111 65 639 961 28 73 9 378 475 38 36 7 50 308 20 15 139 5 794 2068 271 126 198 1579 121 14
internal_value=0 0.282744 -0.489671 0.145539 0.0698355 -0.208644 -0.00287751 -0.786759 -0.355002 -0.0907645 0.0826006 0.0466795 -0.977865 -0.274146 0.0856853 -0.314695 -1.00362 -0.602242 0.115896 0.198323 -0.576749 -0.151227 -0.0471025 -0.770709 -1.01966 -0.125959 0.127758 0.142397 0.642975 -0.192707 -0.984539 -0.592437 0.122674 0.153446 0.268113 -0.0310806 0.0471205 -0.00576494 -0.637296 -0.649096 1.30663 0.901456 -0.628559 -1.05271 0.119772 -0.557064 0.225487 0.47483 -1.27262 0.314403 -0.448163 -0.564665 -1.00644 -0.0964957 0.719108 -0.800971 -0.571734 -0.450109 -0.317102 -0.12932 -1.00918 -0.903312 -0.215776 -0.174747 -0.82272 -0.923815 -0.685161 -0.879028 -0.608963 -0.681658 -0.705024 0.0438136 -0.66737 0.556557 -0.3048 0.766588 -0.51037 0.237525 0.30081 0.31592 -0.203427 -0.802918 0.229749 0.805561 0.723182 0.34553 -0.313122 -0.491519 0.198234 0.0309044 0.3169 0.00917598 0.150456 -0.0450158 0.832602 -0.22649 0.424685 0.39086 -0.4484 -0.0951935
internal_count=39825 17127 22698 15053 14126 11603 12976 11095 2545 8777 10431 9949 5484 2011 4905 3872 5386 5611 4775 839 2826 2307 2040 1123 5336 2251 7938 7631 290 1850 4681 683 7341 6117 2946 1224 3171 601 5312 5199 2074 1150 1706 130 1025 1565 519 234 655 10 1492 824 4441 113 238 20 1546 1703 1087 314 4435 1376 1015 940 305 267 1448 411 1037 4480 4018 43 31 188 668 70 1241 2735 1774 1746 82 384 711 863 163 482 258 638 345 3101 219 2882 799 2083 482 557 1905 1707 208 87
shrinkage=0.05


Tree=6
num_leaves=101
num_cat=0
split_feature=19 13 0 8 5 0 7 22 0 2 15 0 6 11 2 2 2 12 0 2 3 2 0 0 0 12 0 12 2 2 2 2 2 0 7 2 7 0 2 2 2 2 2 6 2 10 2 2 0 0 2 14 0 9 9 12 2 12 21 2 0 2 2 0 2 0 12 4 2 2 2 2 0 2 14 0 2 2 2 2 2 0 0 7 2 2 0 0 2 2 2 0 2 2 2 2 0 0 2 0
split_gain=1306.2 546.971 429.306 308.787 193.176 88.0286 86.5984 86.5717 139.373 63.6235 58.3223 51.9727 43.8429 41.553 39.3519 37.1108 34.9645 32.5657 26.3008 20.2022 18.432 15.758 13.7496 10.9008 10.8197 9.81781 9.53025 17.0348 10.1284 9.31886 9.04191 8.94709 8.0499 7.82822 16.8277 29.9061 15.8519 8.36625 7.78134 7.67589 7.433 7.35097 7.17278 8.78193 6.99844 6.87875 6.84134 7.26679 5.95691 7.43112 5.74519 5.73856 6.05709 5.72307 5.68663 5.6274 6.29643 5.59805 12.9568 6.38147 5.48358 5.44793 5.34117 7.24083 5.33252 5.27233 5.25183 5.23337 6.072 5.19075 5.17303 5.1506 4.9569 7.23742 4.93225 4.91104 5.64453 4.83512 4.82315 4.82096 4.78943 5.27812 4.75567 4.73668 4.63166 4.61818 4.61634 4.90179 5.92617 6.09476 5.21566 4.88648 5.29289 4.61517 4.57843 4.54195 4.50368 4.4965 4.48918 4.51267
threshold=1.0000000180025095e-35 1.0000000180025095e-35 36.500000000000007 1.0000000180025095e-35 1.0000000180025095e-35 49.500000000000007 1.0000000180025095e-35 1.0000000180025095e-35 25.500000000000004 2015.5000000000002 1.0000000180025095e-35 47.500000000000007 1.0000000180025095e-35 1.0000000180025095e-35 2012.5000000000002 2013.5000000000002 2010.5000000000002 1.0000000180025095e-35 18.500000000000004 2009.5000000000002 1.0000000180025095e-35 2015.5000000000002 17.500000000000004 80.500000000000014 19.500000000000004 1.0000000180025095e-35 10.500000000000002 1.0000000180025095e-35 2004.5000000000002 2014.5000000000002 2011.5000000000002 2014.5000000000002 2013.5000000000002 37.500000000000007 1.0000000180025095e-35 2008.5000000000002 1.0000000180025095e-35 35.500000000000007 2005.5000000000002 2014.5000000000002 2014.5000000000002 1999.5000000000002 2013.5000000000002 1.0000000180025095e-35 2004.5000000000002 1.0000000180025095e-35 1996.5000000000002 1999.5000000000002 16.500000000000004 27.500000000000004 2004.5000000000002 1.0000000180025095e-35 99.500000000000014 1.0000000180025095e-35 1.0000000180025095e-35 1.0000000180025095e-35 2014.5000000000002 1.0000000180025095e-35 1.0000000180025095e-35 2011.5000000000002 51.500000000000007 2002.5000000000002 2013.5000000000002 99.500000000000014 2015.5000000000002 8.5000000000000018 1.0000000180025095e-35 1.0000000180025095e-35 2015.5000000000002 2006.5000000000002 2014.5000000000002 1995.5000000000002 80.500000000000014 2003.5000000000002 1.0000000180025095e-35 25.500000000000004 2010.5000000000002 1996.5000000000002 2010.5000000000002 2011.5000000000002 2009.5000000000002 11.500000000000002 36.500000000000007 1.0000000180025095e-35 2013.5000000000002 2005.5000000000002 64.500000000000014 36.500000000000007 2006.5000000000002 2004.5000000000002 2013.5000000000002 25.500000000000004 2013.5000000000002 1986.5000000000002 2014.5000000000002 2004.5000000000002 90.500000000000014 48.500000000000007 2012.5000000000002 15.500000000000002
decision_type=2 2 2 2 2 2 2 2 2 2 2 2 2 2 2 2 2 2 2 2 2 2 2 2 2 2 2 2 2 2 2 2 2 2 2 2 2 2 2 2 2 2 2 2 2 2 2 2 2 2 2 2 2 2 2 2 2 2 2 2 2 2 2 2 2 2 2 2 2 2 2 2 2 2 2 2 2 2 2 2 2 2 2 2 2 2 2 2 2 2 2 2 2 2 2 2 2 2 2 2
left_child=2 3 7 4 5 9 45 8 13 10 26 21 17 16 50 30 18 23 41 44 75 42 31 29 54 -20 -2 33 61 53 46 65 -3 34 35 82 -35 80 -15 74 86 93 43 57 -8 -7 -10 -48 -16 94 71 -25 -53 60 67 64 -57 69 59 -59 84 -29 63 96 -26 -22 -43 -18 -69 77 -37 -12 78 -74 -17 -9 -77 -4 -47 -45 -36 -82 -28 -11 -13 -39 87 88 89 -6 -89 92 -90 -1 -50 -38 -21 -52 -30 -100
right_child=1 32 11 -5 40 6 19 20 15 83 14 12 -14 38 48 39 24 -19 25 62 22 -23 -24 51 55 -27 27 28 98 -31 -32 -33 -34 36 37 70 95 85 -40 -41 -42 66 -44 79 -46 72 47 -49 49 -51 97 52 -54 -55 -56 56 -58 58 -60 -61 -62 -63 -64 -65 -66 -67 -68 68 -70 -71 -72 -73 73 -75 -76 76 -78 -79 -80 -81 81 -83 -84 -85 -86 -87 -88 90 91 -91 -92 -93 -94 -95 -96 -97 -98 -99 99 -101
leaf_value=0.098155202231918925 -0.011222057047881977 0.057913083679338062 0.082764760682840471 0.064314517459483217 0.071267690349706217 -0.014897818484334399 0.06502225671411252 -0.022781247587413345 0.039391903346207888 0.056256168428738124 0.026771145875571851 -0.045707825902648415 0.019601590511986504 0.028229584533815369 0.0010296792270981601 -0.012646637509516679 0.016238104391586388 0.032799789385999402 -0.016986867382549085 0.0056827394764088403 0.055087042161590709 0.065115321537703885 -0.050403273310403951 -0.062381009802416676 0.0012360057887513499 0.056125583330914199 -0.0051893160700829163 0.052557425804202321 0.026693444449696003 -0.027834564236498039 -0.020282691756063179 0.0016969299586010516 0.071059547670449391 -0.010911774029152374 0.010088343955793503 0.017213450959431151 0.073505351481743669 -0.056153515386514967 -0.055809833946209232 0.0066960134044123697 0.057369362120595992 0.0051841905556451913 -0.021551413740959671 0.027486316394601619 0.023310334174028263 -0.024509357484087661 -0.066088569977991854 -0.030550243182790916 0.025660115040259352 -0.0043603911979400011 -0.019440946482072702 -0.050222159873147834 0.110204230547294 -0.0084106881859403095 -0.030470299600344333 0.073337647760382013 -0.043134758408885178 0.017113714460993249 0.091999577519738363 -0.088988822677924642 -0.050940743493251062 -0.068288643333109994 -0.015117488077975614 -0.068810148419600647 0.021210400198099225 -0.033686947271643654 0.065031307569188138 -0.01920010503544619 0.06827036075236334 -0.03324941299155787 0.034294715923145723 -0.044147080577069453 0.015653544413220442 -0.048111427315180755 0.098947967352591815 0.016116299802835719 -0.022289613424193704 -0.047587245567469377 -0.037993659894534959 -0.038836968372137827 0.030637377536932645 -0.00098999311243043778 0.061064182481914309 0.033690710180310814 -0.029298037918764633 0.043671368985171898 0.065391786186777698 0.016168429471313056 0.044489616385828837 -0.010963226803647646 0.056909911164199994 0.057319938175685176 0.015681930807072381 -0.028033585286848114 0.066672792259601182 0.010785279870952451 0.058732881475949697 0.10318319356749608 0.013501522820193276 0.066839266472666845
leaf_count=3 307 1277 3 927 12 258 50 1606 14 130 11 1161 98 12 285 566 1664 50 1363 291 7 17 493 645 1731 19 755 5 181 240 1231 87 797 726 534 1982 12 5 152 367 287 1190 600 36 263 704 61 2060 127 71 1327 6 4 37 28 22 6 11 12 12 3035 15 205 13 145 589 15 73 9 2407 198 151 19 289 4 73 81 342 436 16 54 2513 11 352 208 65 61 178 256 39 39 191 87 87 36 486 17 3 21 68
internal_value=0 0.269703 -0.466907 0.138648 0.0664765 -0.00273761 -0.338304 -0.245546 -0.162902 0.0785582 0.0443847 -0.813217 -0.936671 0.0214853 -0.26085 -0.443783 0.0467751 -0.961457 -0.127436 0.188751 -0.552163 -0.620434 -0.748532 -0.976863 0.173404 -0.319945 0.121451 0.13537 0.612542 -0.942741 -0.542599 -0.56466 1.25814 0.11661 0.145864 0.254976 -0.0295395 0.0447739 -0.989892 -0.0916383 0.862191 0.077352 -0.630048 -0.672536 0.594615 -0.599399 -0.621882 -0.631083 0.214503 0.452364 -0.426486 -1.22364 0.298055 -0.963966 0.286042 0.0687462 0.966513 -0.687913 0.115448 -0.761681 -0.970637 -0.763036 -0.0500147 0.111252 0.0555712 -0.653288 0.118447 0.300408 -0.193493 -0.698069 0.374952 -0.785106 -0.653625 -0.881684 -0.237261 -0.422755 -0.0810272 -0.929657 -0.592685 0.144468 0.0293632 -0.00650535 -0.0847694 0.795303 -0.864169 0.73031 0.769336 0.72885 0.824938 0.167704 0.469813 0.887707 0.743654 -0.476002 0.689807 0.24556 0.172042 -0.383264 0.714827 1.08508
internal_count=39825 17127 22698 15053 14126 12976 2545 13758 10822 10431 9949 8940 5484 6519 2011 4303 6355 5386 2677 839 2936 3456 1176 5336 3678 1382 7938 7631 290 4681 3366 683 2074 7341 6117 2946 1224 3171 164 937 1150 1295 3439 2839 313 1706 2135 2121 519 234 1492 655 10 4441 1774 1904 28 2787 35 23 4404 20 526 321 1876 596 1205 1746 82 2752 2180 162 1448 308 570 1760 154 345 1140 52 3101 2567 766 482 1369 70 863 802 585 51 217 534 343 90 163 498 308 1330 270 89
shrinkage=0.05


Tree=7
num_leaves=101
num_cat=0
split_feature=19 13 0 8 5 0 22 0 7 2 15 0 6 11 2 2 2 12 0 2 3 2 0 0 0 12 2 7 0 0 0 2 2 2 2 2 10 2 0 2 2 2 0 2 2 2 2 6 2 2 12 2 2 0 2 0 12 0 0 2 9 12 2 0 12 21 2 0 2 10 12 0 0 2 2 0 4 2 2 2 2 2 2 16 14 2 0 2 0 2 0 2 0 0 2 2 2 0 0 2
split_gain=1184.05 503.438 392.813 283.764 175.777 79.6907 78.5993 126.16 78.5073 57.8247 52.7099 48.4234 40.0622 37.8896 35.5924 33.7015 31.5766 29.6964 23.7672 18.5016 16.9612 14.2642 12.7473 10.4049 9.7849 8.90813 8.65357 18.0321 20.7504 11.6028 9.61244 9.80366 8.4745 8.25871 7.82006 7.73967 7.64192 7.46153 7.45436 7.12076 6.98599 6.93111 6.82185 6.92521 6.95943 6.77227 6.59746 7.97269 6.50429 6.37384 6.33383 6.19649 6.73813 5.93682 5.5057 6.49715 5.41478 5.4035 6.75302 5.22214 5.13938 5.11523 5.7345 5.11267 5.0635 11.8244 5.85395 4.94156 7.46469 4.86491 4.85219 4.8469 7.68969 4.81705 4.78181 4.74096 4.72687 5.51335 4.70756 4.98961 4.59681 5.88652 5.50062 4.67056 4.46558 4.46272 4.44934 5.09823 4.44637 4.44083 5.35809 4.41126 4.38562 4.37709 4.36609 4.26712 4.26691 8.72054 8.5181 4.24505
threshold=1.0000000180025095e-35 1.0000000180025095e-35 36.500000000000007 1.0000000180025095e-35 1.0000000180025095e-35 49.500000000000007 1.0000000180025095e-35 25.500000000000004 1.0000000180025095e-35 2015.5000000000002 1.0000000180025095e-35 47.500000000000007 1.0000000180025095e-35 1.0000000180025095e-35 2012.5000000000002 2013.5000000000002 2010.5000000000002 1.0000000180025095e-35 18.500000000000004 2008.5000000000002 1.0000000180025095e-35 2015.5000000000002 17.500000000000004 71.500000000000014 19.500000000000004 1.0000000180025095e-35 2007.5000000000002 1.0000000180025095e-35 37.500000000000007 25.500000000000004 9.5000000000000018 2009.5000000000002 2011.5000000000002 2011.5000000000002 2013.5000000000002 2011.5000000000002 1.0000000180025095e-35 1996.5000000000002 61.500000000000007 2005.5000000000002 2014.5000000000002 2014.5000000000002 20.500000000000004 2012.5000000000002 2009.5000000000002 1998.5000000000002 2013.5000000000002 1.0000000180025095e-35 2014.5000000000002 2014.5000000000002 1.0000000180025095e-35 1996.5000000000002 1999.5000000000002 10.500000000000002 2009.5000000000002 47.500000000000007 1.0000000180025095e-35 16.500000000000004 27.500000000000004 2004.5000000000002 1.0000000180025095e-35 1.0000000180025095e-35 2014.5000000000002 12.500000000000002 1.0000000180025095e-35 1.0000000180025095e-35 2011.5000000000002 80.500000000000014 2003.5000000000002 1.0000000180025095e-35 1.0000000180025095e-35 29.500000000000004 24.500000000000004 2015.5000000000002 2006.5000000000002 55.500000000000007 1.0000000180025095e-35 2015.5000000000002 2011.5000000000002 2014.5000000000002 2004.5000000000002 1999.5000000000002 2003.5000000000002 1.0000000180025095e-35 1.0000000180025095e-35 2013.5000000000002 25.500000000000004 2010.5000000000002 15.500000000000002 2006.5000000000002 26.500000000000004 1996.5000000000002 70.500000000000014 24.500000000000004 2011.5000000000002 2014.5000000000002 2013.5000000000002 14.500000000000002 17.500000000000004 1995.5000000000002
decision_type=2 2 2 2 2 2 2 2 2 2 2 2 2 2 2 2 2 2 2 2 2 2 2 2 2 2 2 2 2 2 2 2 2 2 2 2 2 2 2 2 2 2 2 2 2 2 2 2 2 2 2 2 2 2 2 2 2 2 2 2 2 2 2 2 2 2 2 2 2 2 2 2 2 2 2 2 2 2 2 2 2 2 2 2 2 2 2 2 2 2 2 2 2 2 2 2 2 2 2 2
left_child=2 3 6 4 5 9 7 13 50 10 26 21 17 16 54 33 18 23 45 59 86 46 32 37 60 99 36 28 30 42 35 69 -22 51 -3 56 -2 -13 -21 -15 92 84 43 44 -29 63 47 64 -39 -33 67 -9 -53 -46 55 -12 -28 85 95 -10 76 73 -63 -1 74 66 -66 -7 -69 -32 -47 72 -56 -26 91 -61 -18 -78 -30 -80 81 -25 -83 -84 -17 -16 93 89 -11 90 -88 -4 -6 -8 -49 -59 98 -98 -45 -20
right_child=1 34 11 -5 40 8 20 15 19 88 14 12 -14 39 57 41 24 -19 25 38 22 -23 -24 80 61 -27 27 29 78 -31 31 49 -34 -35 -36 -37 -38 48 -40 -41 -42 -43 -44 96 53 70 -48 94 -50 -51 -52 52 -54 -55 71 -57 -58 58 -60 75 -62 62 -64 -65 65 -67 -68 68 -70 -71 -72 -73 -74 -75 -76 -77 77 -79 79 -81 -82 82 83 -85 -86 -87 87 -89 -90 -91 -92 -93 -94 -95 -96 -97 97 -99 -100 -101
leaf_value=0.018839638922266741 0.0095045938528294117 0.055719479968388053 0.080162181663120169 0.062052481610220478 0.035233034373957757 -0.026483930506619732 -0.020558575735487666 0.037499436621484215 0.062755740382551911 0.027006945138531691 -0.026844447143652701 0.081203312661499952 0.018649665671209664 0.026864534311624444 -0.014567690395777539 -0.012021005214492076 0.01544186499657859 0.031290616668308839 0.049431323920761654 -0.013241775703044729 -0.036876037329096424 0.061916009690064583 -0.048347824891657759 -0.080259928273095943 0.0011742125878739249 0.053773039170228437 0.064913663796908494 0.011907773677370337 0.0022437171697326933 0.009931456859253179 0.03567947072408998 0.018096374611649889 -0.014252936339887176 -0.019304182074754036 0.068781038983391898 -0.052234750926803721 -0.0073934602040279301 -0.04545063000432456 0.0093076336632418235 -0.053624978424503048 0.055183805855173712 0.0063615847143307508 -0.011096409698486256 0.0058292570821947285 -0.054477646927324812 0.0045049416266447614 -0.020502893758789859 0.0261608279774804 -0.027747506813661945 0.035282853031190026 0.022533606467784829 -0.063542053598823006 -0.029124046190512877 -0.0097598594992931442 -0.014575577222659016 0.050737698863477426 -0.024794937086899487 0.024424485363895607 -0.0041418461262674204 -0.016235146135753425 -0.029001903375412603 0.070270550970775142 -0.040833185329112072 -0.049777935670418633 0.016236863295404826 0.088474253755819965 -0.085669645198433106 0.019488211706422117 -0.043431952626135799 0.0014653678447730206 0.062214719038011401 -0.029629664798855516 0.01763335830291143 0.020165124014741069 -0.031724128803888273 0.031510789384701955 -0.018256625237777595 0.065399424521483271 -0.021368135004824464 0.03671510444765818 -0.056151268429855544 0.044640115857531304 0.045505108121128471 -0.055124987614999212 0.094361473237121893 0.011065202812174971 0.10018976994670564 -0.021195750435722575 0.046605612030922221 0.031011275436295234 -0.044179883290039836 -0.045518748859901204 0.070838471273934167 -0.046065142276627141 -0.037081498137785246 0.064241528597113504 0.017524743518041504 -0.0045323840537834425 0.05077762343131309 -0.016632391440384541
leaf_count=15 396 1277 3 927 825 1321 1535 14 50 211 813 5 98 12 112 566 1664 50 10 256 384 17 493 16 1731 19 13 151 314 1248 46 1882 299 1231 797 37 832 3807 345 152 287 367 614 137 32 1225 600 36 223 249 24 61 2060 453 431 11 14 127 71 24 28 22 6 40 11 12 12 20 341 459 15 147 90 145 2407 164 73 9 198 16 1243 14 6 22 4 173 3 81 271 52 18 342 38 71 16 36 277 509 61 1353
internal_value=0 0.257373 -0.445361 0.132123 0.0632946 -0.00260411 -0.233741 -0.155001 -0.322462 0.0747243 0.042208 -0.778106 -0.897976 0.0204246 -0.248261 -0.422636 0.0444671 -0.921864 -0.121154 0.179689 -0.526482 -0.591829 -0.715588 -0.936679 0.164834 -0.304301 0.115465 0.143781 0.251884 0.0440034 0.323165 0.341811 -0.538505 -0.517038 1.21326 -0.445517 -0.03902 -0.88594 -0.00621008 -0.950476 0.825287 -0.0870896 -0.0423111 0.0257633 -0.137043 0.0735054 -0.601008 -0.641902 -0.888993 0.401579 -0.571703 -0.59299 -0.601769 -0.253884 -0.405971 -0.516071 0.367752 0.204094 0.431136 0.658015 0.272029 0.0653226 0.923789 -0.617262 -0.656601 0.110546 -0.728321 -0.586482 -0.797005 0.0912928 0.103842 -0.270794 -0.180091 0.0527965 -0.666265 0.507829 0.285688 -0.184104 -0.110909 -0.340244 -1.09653 -0.535319 -0.140542 -0.663413 -0.225528 0.0195643 -0.402387 -0.0770308 0.760114 0.306317 -0.470459 -0.889335 0.735226 -0.433724 0.137613 0.65835 0.1309 0.064782 0.393417 -0.323098
internal_count=39825 17127 22698 15053 14126 12976 13758 10822 2545 10431 9949 8940 5484 6519 2011 4303 6355 5386 2677 839 2936 3456 1176 5336 3678 1382 7938 6710 3228 3482 2700 2636 683 3366 2074 64 1228 4035 601 164 1150 937 2234 1620 636 1295 3439 2839 4030 2131 1706 2135 2121 485 1492 824 27 519 234 238 1774 1904 28 55 2787 35 23 1682 361 505 1240 668 521 1876 2752 188 1746 82 528 214 1301 58 42 28 570 285 1760 154 482 73 21 345 863 1606 52 163 984 786 198 1363
shrinkage=0.05


Tree=8
num_leaves=101
num_cat=0
split_feature=19 13 0 8 5 0 20 0 7 2 15 2 0 6 2 12 2 0 3 2 2 11 22 12 0 2 6 2 2 2 0 12 2 2 2 2 0 2 2 2 0 7 2 7 0 2 2 2 10 2 2 2 2 21 0 2 0 0 14 0 2 9 2 0 0 22 0 2 0 20 2 2 2 0 2 0 0 2 2 0 7 0 2 2 2 14 0 2 2 2 2 2 0 2 2 0 2 2 2 2
split_gain=1073.69 464.135 360.412 261.172 160.03 85.3178 127.205 72.1411 71.1808 52.5857 47.6432 32.1954 30.3396 29.0349 28.7161 26.5511 23.9385 23.9039 20.6475 16.8845 14.4157 14.3743 13.5412 13.8754 13.2672 10.6613 10.2768 9.56044 8.70068 8.30542 8.22303 14.5633 9.04772 7.96345 7.83633 7.63841 7.58014 7.43504 6.96488 6.58835 6.56557 13.8181 24.3451 13.304 7.40606 6.27053 6.21403 10.596 6.21125 6.05991 5.73694 11.6019 10.8998 5.42512 6.51067 5.4013 5.36113 5.23268 5.20809 5.4447 5.1962 5.16163 4.93834 4.90367 6.14112 4.87037 4.82165 4.75668 8.73305 7.10622 4.80174 6.47348 5.55091 5.44278 4.7471 6.68352 4.63861 4.52625 4.50662 4.44676 4.4112 4.35137 5.01945 4.90063 4.5366 4.33133 4.30382 4.29796 4.29269 4.4593 7.22537 4.24225 4.23136 4.96158 4.18437 4.18186 6.00023 4.17071 7.18796 4.16277
threshold=1.0000000180025095e-35 1.0000000180025095e-35 41.500000000000007 1.0000000180025095e-35 1.0000000180025095e-35 26.500000000000004 1.0000000180025095e-35 49.500000000000007 1.0000000180025095e-35 2015.5000000000002 1.0000000180025095e-35 2012.5000000000002 18.500000000000004 1.0000000180025095e-35 2013.5000000000002 1.0000000180025095e-35 2010.5000000000002 51.500000000000007 1.0000000180025095e-35 2009.5000000000002 2015.5000000000002 1.0000000180025095e-35 1.0000000180025095e-35 1.0000000180025095e-35 17.500000000000004 2005.5000000000002 1.0000000180025095e-35 2014.5000000000002 2011.5000000000002 2013.5000000000002 10.500000000000002 1.0000000180025095e-35 2004.5000000000002 2014.5000000000002 2014.5000000000002 2013.5000000000002 44.500000000000007 2015.5000000000002 2010.5000000000002 2014.5000000000002 37.500000000000007 1.0000000180025095e-35 2008.5000000000002 1.0000000180025095e-35 35.500000000000007 1996.5000000000002 1995.5000000000002 1998.5000000000002 1.0000000180025095e-35 2004.5000000000002 2002.5000000000002 1998.5000000000002 2005.5000000000002 1.0000000180025095e-35 50.500000000000007 2015.5000000000002 40.500000000000007 80.500000000000014 1.0000000180025095e-35 99.500000000000014 2005.5000000000002 1.0000000180025095e-35 2002.5000000000002 16.500000000000004 27.500000000000004 1.0000000180025095e-35 8.5000000000000018 2011.5000000000002 39.500000000000007 1.0000000180025095e-35 1996.5000000000002 1999.5000000000002 2002.5000000000002 29.500000000000004 2013.5000000000002 99.500000000000014 53.500000000000007 2006.5000000000002 2011.5000000000002 49.500000000000007 1.0000000180025095e-35 78.500000000000014 2004.5000000000002 2010.5000000000002 2008.5000000000002 1.0000000180025095e-35 36.500000000000007 2015.5000000000002 1873.5000000000002 1999.5000000000002 2004.5000000000002 2014.5000000000002 12.500000000000002 2013.5000000000002 2005.5000000000002 13.500000000000002 2011.5000000000002 2003.5000000000002 1999.5000000000002 2004.5000000000002
decision_type=2 2 2 2 2 2 2 2 2 2 2 2 2 2 2 2 2 2 2 2 2 2 2 2 2 2 2 2 2 2 2 2 2 2 2 2 2 2 2 2 2 2 2 2 2 2 2 2 2 2 2 2 2 2 2 2 2 2 2 2 2 2 2 2 2 2 2 2 2 2 2 2 2 2 2 2 2 2 2 2 2 2 2 2 2 2 2 2 2 2 2 2 2 2 2 2 2 2 2 2
left_child=2 3 5 4 7 6 18 9 48 10 30 60 25 15 26 17 46 20 21 49 29 22 23 37 34 -8 56 57 77 45 -2 40 62 85 66 -3 -15 50 -23 -6 41 42 86 -42 -43 -4 -14 -48 78 -10 51 -1 -52 54 -17 -18 67 61 -59 -60 -12 97 -33 -13 -65 -35 -20 70 69 -69 -7 -72 73 -73 75 -21 -29 -28 -9 -31 -11 83 -83 84 -50 -16 88 -26 -32 -90 -91 95 -27 -94 -46 96 -44 98 -19 -45
right_child=1 35 13 -5 39 14 12 8 19 80 11 63 16 36 33 53 55 27 24 74 -22 38 -24 -25 87 92 28 76 -30 79 31 32 -34 65 -36 -37 -38 -39 -40 -41 43 44 91 99 94 -47 47 -49 81 -51 52 -53 -54 -55 -56 -57 -58 58 59 -61 -62 -63 -64 64 -66 -67 -68 68 -70 -71 71 72 -74 -75 -76 -77 -78 -79 -80 -81 -82 82 -84 -85 -86 -87 -88 -89 89 90 -92 -93 93 -95 -96 -97 -98 -99 -100 -101
leaf_value=-0.073125376028102304 -0.010590449775326728 0.053665840788822097 0.07827351820606096 0.059950376858571422 0.035143528813023364 0.032367046491744704 -0.013059984092847086 -0.019467484659458759 0.060651576578195004 0.052391989056441449 -0.032177001248182346 0.00092950676379437386 0.065033898430587059 -0.092428198754452268 -0.01470319234298623 -0.048582820553618983 0.0011803098559085307 -0.051190594666723432 0.054228533054934462 0.0081703009097710468 0.070414895778088002 -0.022445261205418114 -0.020211062578152625 0.045689946050682627 -0.051286143798431841 0.0040216854235603002 -0.029213172161641716 0.056827053080445139 -0.040459468745390186 -0.018915211288228047 0.073295548140056899 0.049749036444310633 0.033114130623394508 0.0049091425171653262 0.0023249502573533492 0.066687794667293659 0.016189007798574875 0.045110626116861847 -0.064341852291136453 0.053136669805941207 -0.010072379497358364 0.0013079813538521901 0.013379150611805557 0.070119941670854155 -0.053951754596451462 -0.038415063728173326 -0.060101942728958614 -0.013496731654004468 -0.027481331541481524 0.021291872066463262 -0.05410266227043288 0.035552869500104688 -0.0085038296697952306 0.060047536738545015 0.032062262101898144 0.020165692504717003 0.01449060746781531 -0.057949496629239886 -0.046717920351720996 0.10582228862074879 -0.016586354428692895 -0.0028786355982161672 -0.065612532020847353 0.031431458958127441 -0.0039343140006256935 -0.056154269190771024 -0.030835819162182539 -0.041861415332780601 -0.039102349696575403 -0.017057497702188496 -0.061503707001184363 -0.087540414868654479 -0.029234507038048026 0.01458719181908065 -0.014240713260003521 -0.066619505699815743 -0.02707132078495187 0.023269268073872567 0.014006171867785126 -0.038688062428841902 0.030458403231049553 -0.0092175582702211014 -0.043042759531773007 -0.035241774686291409 -0.0099228725711075789 0.090388557631291333 0.058433569349940234 0.044492352467796523 -0.041922120012595161 0.019089962481498326 -0.0081779895536840588 0.031143705043891808 0.011294541150884498 0.022726384525292003 0.041189775892292696 0.014291412816964411 0.053877743044536401 -0.04749047067372747 0.024260327789614025 0.0097607384058874362
leaf_count=12 307 1277 5 927 863 13 177 208 50 130 265 285 10 7 784 17 1923 31 7 308 13 74 1625 53 352 473 20 7 40 401 7 5 270 404 87 797 108 26 96 287 726 3101 81 12 5 2469 52 1216 402 263 58 59 571 25 26 163 32 640 6 4 1227 28 15 163 71 14 589 131 269 1307 65 6 2884 48 205 13 159 94 50 165 352 51 360 399 236 4 11 5 32 116 600 198 1300 540 65 1833 68 2981 23 486
internal_value=0 0.245689 -0.424949 0.125933 0.0602734 -0.255483 -0.13629 -0.00247724 -0.307354 0.0710864 0.0401412 -0.23631 0.0454684 -0.807788 -0.441371 -0.824801 -0.078621 -0.837331 -0.434578 0.171048 -0.703291 -0.338576 -0.299515 -0.0824812 -0.676681 0.213175 -0.510313 -0.944787 -0.000205383 -0.712536 0.109786 0.122722 0.56525 -0.164504 -0.513443 1.17149 0.193439 -0.1543 -0.917085 0.790366 0.105403 0.132215 0.231248 -0.0285087 0.0406326 -0.763788 -0.295314 -0.307598 -0.545317 0.544152 -0.193206 0.34758 -0.254014 0.439447 0.00633246 0.053222 -0.527039 -0.966662 -1.13546 0.321179 -0.38648 -0.931457 -0.73766 0.194239 0.411045 0.0586663 -0.597034 -0.532666 -0.447729 -0.385559 -0.581016 -0.586312 -0.57263 0.0669372 -0.0468341 0.10529 -0.470318 0.281043 -0.258634 -0.492131 0.726858 -0.597204 -0.775053 -0.528005 -0.419124 -0.283477 -0.0751977 -0.998894 -0.0932713 -0.107861 -0.0752123 0.339777 0.249425 0.292897 0.687106 0.312056 0.635905 -0.939564 -0.375669 0.223673
internal_count=39825 17127 22698 15053 14126 15583 9468 12976 2545 10431 9949 2011 5854 7115 6115 7000 3364 6932 3614 839 3053 2574 2404 779 1040 2490 4909 3879 154 3040 7938 7631 290 1206 683 2074 115 726 170 1150 7341 6117 2946 1224 3171 2474 1278 1268 1706 313 700 71 629 68 43 2086 4755 3713 650 10 1492 3063 20 519 234 418 596 4723 1707 1438 3016 3003 2938 54 526 321 166 114 258 566 482 1448 411 1037 638 788 766 357 755 748 716 2180 2313 1840 70 1982 149 3035 54 498
shrinkage=0.05


Tree=9
num_leaves=101
num_cat=0
split_feature=19 13 0 8 5 0 20 0 7 2 15 2 0 6 2 12 0 2 3 2 11 2 0 22 12 2 6 2 2 2 2 2 0 12 2 2 0 2 0 2 2 0 7 2 7 0 2 10 2 2 2 2 2 0 21 0 2 0 2 0 14 0 9 2 2 0 2 2 0 0 22 0 0 0 0 4 0 0 0 4 2 2 0 2 0 2 2 2 2 2 0 2 2 0 2 2 0 2 2 2
split_gain=973.884 428.504 331.168 240.697 145.753 77.4072 115.313 65.3398 64.5815 47.8436 43.0637 29.1235 27.4041 26.573 26.159 24.2143 22.47 21.6406 18.9623 15.4573 13.2604 13.075 12.3514 12.2672 12.575 9.62948 9.33049 8.93616 7.88203 7.69167 7.50379 7.49438 7.42639 13.2221 8.20219 7.19676 6.90364 6.73398 6.68858 6.54284 6.23165 5.92993 12.5018 22.3395 12.0151 6.71881 5.73809 5.68228 5.65646 9.70983 5.17938 10.5219 9.88575 5.01412 4.97104 5.90037 4.88152 4.86402 4.85027 4.82013 4.80267 4.91426 4.76687 4.57974 4.48675 4.47413 4.57436 4.45143 4.44631 5.57806 4.43765 4.31004 4.25846 4.21466 5.89482 4.21354 4.18444 4.16959 4.14363 4.12484 6.30321 4.09078 4.19032 4.08908 4.08173 8.22843 10.8929 5.25069 4.89042 4.29057 5.43037 4.07524 4.16981 4.05987 5.77605 4.11452 4.05308 4.48959 7.75219 4.04995
threshold=1.0000000180025095e-35 1.0000000180025095e-35 41.500000000000007 1.0000000180025095e-35 1.0000000180025095e-35 26.500000000000004 1.0000000180025095e-35 49.500000000000007 1.0000000180025095e-35 2015.5000000000002 1.0000000180025095e-35 2012.5000000000002 18.500000000000004 1.0000000180025095e-35 2013.5000000000002 1.0000000180025095e-35 51.500000000000007 2010.5000000000002 1.0000000180025095e-35 2008.5000000000002 1.0000000180025095e-35 2015.5000000000002 17.500000000000004 1.0000000180025095e-35 1.0000000180025095e-35 2005.5000000000002 1.0000000180025095e-35 2014.5000000000002 2011.5000000000002 2013.5000000000002 2011.5000000000002 2013.5000000000002 10.500000000000002 1.0000000180025095e-35 2004.5000000000002 2014.5000000000002 44.500000000000007 2015.5000000000002 61.500000000000007 2010.5000000000002 2014.5000000000002 37.500000000000007 1.0000000180025095e-35 2009.5000000000002 1.0000000180025095e-35 35.500000000000007 1996.5000000000002 1.0000000180025095e-35 1995.5000000000002 1998.5000000000002 2002.5000000000002 1998.5000000000002 2005.5000000000002 80.500000000000014 1.0000000180025095e-35 50.500000000000007 2015.5000000000002 40.500000000000007 2010.5000000000002 31.500000000000004 1.0000000180025095e-35 99.500000000000014 1.0000000180025095e-35 2004.5000000000002 2002.5000000000002 33.500000000000007 1996.5000000000002 1998.5000000000002 16.500000000000004 27.500000000000004 1.0000000180025095e-35 55.500000000000007 8.5000000000000018 55.500000000000007 64.500000000000014 1.0000000180025095e-35 70.500000000000014 49.500000000000007 15.500000000000002 1.0000000180025095e-35 2000.5000000000002 2012.5000000000002 15.500000000000002 2006.5000000000002 14.500000000000002 2013.5000000000002 2012.5000000000002 2013.5000000000002 2004.5000000000002 2009.5000000000002 16.500000000000004 2011.5000000000002 2007.5000000000002 80.500000000000014 2003.5000000000002 2010.5000000000002 52.500000000000007 2003.5000000000002 1999.5000000000002 2014.5000000000002
decision_type=2 2 2 2 2 2 2 2 2 2 2 2 2 2 2 2 2 2 2 2 2 2 2 2 2 2 2 2 2 2 2 2 2 2 2 2 2 2 2 2 2 2 2 2 2 2 2 2 2 2 2 2 2 2 2 2 2 2 2 2 2 2 2 2 2 2 2 2 2 2 2 2 2 2 2 2 2 2 2 2 2 2 2 2 2 2 2 2 2 2 2 2 2 2 2 2 2 2 2 2
left_child=2 3 5 4 7 6 18 9 47 10 32 58 25 15 26 16 21 48 20 63 23 29 30 24 37 -8 57 53 83 46 -20 -3 -2 41 64 -16 -15 50 -21 -22 76 42 43 -34 -43 84 -4 91 -14 -50 51 -1 -52 62 55 -17 -19 65 72 -60 -55 -62 96 -10 -35 66 -7 -67 -13 99 -37 -65 -12 -29 -75 77 -6 -31 -11 80 -53 -36 -83 -28 87 86 89 88 -44 -86 -91 92 -9 95 -95 -49 -18 98 -98 -70
right_child=1 31 13 -5 40 14 12 8 19 78 11 68 17 36 35 54 27 56 22 38 39 -23 -24 -25 -26 -27 28 73 -30 75 -32 -33 33 34 81 70 -38 -39 -40 -41 -42 44 45 -45 -46 -47 -48 93 49 -51 52 79 -54 60 -56 -57 -58 -59 59 -61 61 -63 -64 71 -66 67 -68 -69 69 -71 -72 -73 -74 74 -76 -77 -78 -79 -80 -81 -82 82 -84 -85 85 -87 -88 -89 -90 90 -92 -93 -94 94 -96 -97 97 -99 -100 -101
leaf_value=-0.070158378183854259 -0.01006353460112188 0.051734594349655487 0.076145173649947342 0.057986751581957534 0.032113191669052091 0.040552811242825448 -0.0124130737668192 -0.0017910540813197635 0.058687874680636444 0.02410462173017346 0.01450483249887414 0.00088304654534648343 0.06254874616740877 -0.088792743239814786 -0.013480835002490817 -0.046308386676247253 -0.061917121446786454 0.0011213055545948806 -0.033923441234320804 -0.012578390186868472 -0.021404792631786278 0.066953994504875533 -0.0480233350017574 -0.019243219322662722 0.043623814627833823 0.011857278125562387 -0.027765852192343267 0.003142826049082996 -0.038612609568893334 -0.018748036852575711 -0.012560254757995616 0.064754172505926258 -0.00076294204503616324 0.047553275389656327 0.022939314049110905 0.0046639590413037448 0.015401118377484119 0.043059743231260189 0.0087919452004009118 -0.062209043242426612 0.051210676654763747 -0.0095735095805628972 0.073177646114044176 0.01749401481188231 0.010633355128971912 0.032788684951222453 -0.036776316320829193 -0.021014331965580377 -0.0576535874324446 -0.012835777561429125 -0.051570932607982789 -0.046165085339878301 -0.0080798380940319114 -0.055938148886912779 0.05774026618516831 0.030615591108957355 0.019179384990708922 0.013762907409892606 -0.0057442676092772753 -0.035684291338249172 -0.044882708693384704 0.10024862394354883 -0.0027362230042182684 -0.016494542381698077 -0.062743310318972165 -0.069644527202994633 -0.022232494516294023 -0.027733847844202526 0.021752577718706416 -0.0037372315714249982 -0.053917029992692281 0.029055679181628741 -0.023378457997659929 -0.057209693133910569 -0.011898167859910729 0.068455256037733503 0.06733791745932792 -0.038019144285620907 0.043143418338470393 0.049884411011655666 0.098989200188612236 0.010005173477521731 0.061683815108475482 0.022132546925006318 0.0081868039511389205 -0.0067779474440646222 0.021847685204938835 0.02104188248548243 -0.0018109070933228812 -0.024262446869582923 -0.00066392342761516416 0.013310350744925994 -0.030647142130445865 0.014360345868852764 -0.042655313733779204 -0.033550737146032635 -0.048095837338214577 -0.044831457123863244 0.032962228325360859 0.060925495874837671
leaf_count=12 307 1277 5 927 825 12 177 87 50 211 31 285 10 7 788 17 145 1923 384 256 74 13 357 1625 53 2313 20 47 40 397 299 797 1041 5 181 404 108 26 345 96 287 726 9 1905 498 70 2469 704 52 1216 58 12 571 640 25 26 163 32 397 63 6 4 28 24 15 28 2046 2637 127 71 14 164 1001 54 65 5 38 164 271 43 4 21 68 94 432 1130 293 221 279 116 621 50 121 19 289 436 30 2839 21 36
internal_value=0 0.234596 -0.405573 0.120052 0.0574016 -0.243315 -0.129732 -0.00235776 -0.293117 0.0676266 0.0381762 -0.22493 0.0432239 -0.774602 -0.420715 -0.791011 -0.803046 -0.0747412 -0.414404 0.162868 -0.322439 -0.672778 -0.647348 -0.285055 -0.0784313 0.202676 -0.48672 -0.907944 -0.000210736 -0.681638 -0.489903 1.13242 0.104385 0.116686 0.539233 -0.156423 0.184105 -0.146688 -0.00651981 -0.881368 0.757212 0.100206 0.125696 0.219981 -0.0270963 0.0386068 -0.731227 -0.520476 -0.280977 -0.292643 -0.183648 0.330438 -0.241426 -0.929296 0.420555 0.0060601 0.0505666 -0.502703 -0.367949 -0.19661 -1.09588 0.306512 -0.894715 0.603151 -0.705331 -0.508085 -0.43738 -0.562932 0.184787 0.391664 0.0557457 0.463771 -0.444787 -0.448479 -0.652248 -0.469237 0.672094 -0.485819 0.69533 0.674941 -0.194648 0.631699 0.98829 0.267283 0.0248519 -0.0073136 0.0918235 0.188758 0.0106244 0.00535899 -0.0874505 -0.246119 -0.370625 -0.570301 -0.779395 -0.515108 -0.902588 -0.885683 -0.282386 0.599781
internal_count=39825 17127 22698 15053 14126 15583 9468 12976 2545 10431 9949 2011 5854 7115 6115 7000 6932 3364 3614 839 2574 3053 1040 2404 779 2490 4909 3879 154 3040 683 2074 7938 7631 290 1206 115 726 601 170 1150 7341 6117 2946 1224 3171 2474 1706 1278 1268 700 71 629 3713 68 43 2086 4755 1492 460 650 10 3063 238 20 4723 2058 2665 519 234 418 188 1032 166 119 566 863 561 482 59 16 270 89 114 3101 2592 1462 509 288 1169 737 258 208 1448 308 1140 3035 2890 51 163
shrinkage=0.05


Tree=10
num_leaves=101
num_cat=0
split_feature=19 13 0 8 5 0 20 0 7 2 15 2 0 6 2 12 0 2 3 2 11 2 0 22 12 2 6 2 2 2 2 2 0 12 2 2 2 0 2 2 12 0 7 2 7 0 2 2 2 2 0 2 2 2 2 2 14 21 0 2 3 14 0 0 14 0 0 2 9 2 0 0 0 2 7 0 2 2 0 22 2 2 2 0 2 0 0 2 2 2 0 2 2 0 14 0 2 2 2 2
split_gain=883.539 396.072 304.588 222.076 132.821 70.2292 104.548 59.1844 58.6116 43.5462 38.9283 26.3479 24.7518 24.3352 23.8334 22.0927 21.1625 19.5653 17.4041 14.1308 12.2462 11.8711 11.5294 11.1106 11.4042 8.69725 8.46945 8.36934 7.37963 7.14386 7.12858 6.87059 6.70743 12.0206 7.44288 6.5033 6.32337 6.30482 6.10284 5.90204 5.52707 5.35673 11.306 20.3273 10.8502 6.08956 5.29496 5.2568 5.15427 8.96274 4.82077 4.75447 4.83899 4.67856 9.56129 9.17203 5.77494 4.5614 5.35072 4.53656 8.91645 5.34135 5.29529 5.73378 4.43015 4.45561 4.41272 4.41249 4.40783 4.21953 6.17468 4.15686 7.90848 4.23152 4.13383 4.09281 6.08981 4.08333 4.05452 4.04712 4.01136 5.98806 5.17622 5.00592 3.98102 3.96451 4.58855 5.53443 5.66922 4.87797 4.6107 4.9493 4.17686 3.94994 3.94129 3.89822 3.87412 3.87406 4.03089 6.52026
threshold=1.0000000180025095e-35 1.0000000180025095e-35 41.500000000000007 1.0000000180025095e-35 1.0000000180025095e-35 26.500000000000004 1.0000000180025095e-35 49.500000000000007 1.0000000180025095e-35 2015.5000000000002 1.0000000180025095e-35 2012.5000000000002 18.500000000000004 1.0000000180025095e-35 2013.5000000000002 1.0000000180025095e-35 51.500000000000007 2010.5000000000002 1.0000000180025095e-35 2009.5000000000002 1.0000000180025095e-35 2015.5000000000002 17.500000000000004 1.0000000180025095e-35 1.0000000180025095e-35 2005.5000000000002 1.0000000180025095e-35 2014.5000000000002 2013.5000000000002 2011.5000000000002 2013.5000000000002 2014.5000000000002 10.500000000000002 1.0000000180025095e-35 2004.5000000000002 2014.5000000000002 2005.5000000000002 44.500000000000007 2015.5000000000002 2014.5000000000002 1.0000000180025095e-35 37.500000000000007 1.0000000180025095e-35 2008.5000000000002 1.0000000180025095e-35 35.500000000000007 2004.5000000000002 1996.5000000000002 1995.5000000000002 1999.5000000000002 80.500000000000014 2004.5000000000002 1996.5000000000002 2002.5000000000002 1998.5000000000002 2006.5000000000002 1.0000000180025095e-35 1.0000000180025095e-35 50.500000000000007 2010.5000000000002 1.0000000180025095e-35 1.0000000180025095e-35 40.500000000000007 39.500000000000007 1.0000000180025095e-35 99.500000000000014 8.5000000000000018 2015.5000000000002 1.0000000180025095e-35 2013.5000000000002 99.500000000000014 18.500000000000004 20.500000000000004 2013.5000000000002 1.0000000180025095e-35 80.500000000000014 2003.5000000000002 2002.5000000000002 53.500000000000007 1.0000000180025095e-35 1996.5000000000002 1999.5000000000002 2002.5000000000002 29.500000000000004 2015.5000000000002 64.500000000000014 36.500000000000007 2006.5000000000002 2004.5000000000002 2013.5000000000002 25.500000000000004 2013.5000000000002 2008.5000000000002 90.500000000000014 1.0000000180025095e-35 36.500000000000007 2002.5000000000002 1873.5000000000002 1999.5000000000002 2004.5000000000002
decision_type=2 2 2 2 2 2 2 2 2 2 2 2 2 2 2 2 2 2 2 2 2 2 2 2 2 2 2 2 2 2 2 2 2 2 2 2 2 2 2 2 2 2 2 2 2 2 2 2 2 2 2 2 2 2 2 2 2 2 2 2 2 2 2 2 2 2 2 2 2 2 2 2 2 2 2 2 2 2 2 2 2 2 2 2 2 2 2 2 2 2 2 2 2 2 2 2 2 2 2 2
left_child=2 3 5 4 7 6 18 9 40 10 32 51 25 15 26 16 21 48 20 46 23 30 31 24 38 -8 59 50 -3 -28 47 66 -2 41 77 94 -22 -15 53 85 75 42 43 95 -43 -44 -10 -4 -14 -50 68 52 -12 54 -1 -55 -57 58 -17 80 61 62 63 -61 -52 -66 -20 -19 -18 70 93 73 -73 -13 -11 -9 -77 -35 -29 -37 -7 -82 83 -83 -24 86 87 88 -6 92 91 -89 -88 -21 -16 97 -46 -34 -99 -100
right_child=1 28 13 -5 39 14 12 8 19 74 11 71 17 37 35 57 27 67 22 69 36 -23 84 -25 -26 -27 29 78 -30 -31 -32 -33 33 34 -36 79 -38 -39 -40 -41 -42 44 45 -45 96 -47 -48 -49 49 -51 64 -53 -54 55 -56 56 -58 -59 -60 60 -62 -63 -64 -65 65 -67 -68 -69 -70 -71 -72 72 -74 -75 -76 76 -78 -79 -80 -81 81 82 -84 -85 -86 -87 89 90 -90 -91 -92 -93 -94 -95 -96 -97 -98 98 99 -101
leaf_value=-0.067452638212761998 -0.0095632169155638689 0.049910957799177341 0.074228539908171964 0.056143616673484754 0.064643332298115141 0.029372419667686573 -0.011798865696060225 -0.022954883165457365 0.056846283410623123 0.048961861936872283 0.018287529293901164 -0.011381791077451967 0.060247557265444562 -0.085593730623258646 -0.013324554441154244 -0.044179209856294317 -0.043378827093785918 0.0010652533120905608 0.053305805963753387 0.0050336862013258986 0.027684855638902214 0.063806375288116376 -0.047527147773042823 -0.018323298353178967 0.041681962282400273 0.011273103518185633 0.012712656689328762 0.053446852808223838 0.062958733674769604 -0.036870535802884789 -0.022375497738377673 0.0028370946667829553 0.069666623544591647 0.045495119497024415 0.030151037650518117 0.0044310583189204342 -0.048119944011011682 0.014652374636353821 0.041132370895667694 0.049391315959864568 0.022932105894392943 -0.0090995602878163658 0.0011808602539339517 0.015434453911987786 0.085237624322716518 0.031268068736784116 0.019459906043701306 -0.035219801425554066 -0.046519623442450503 -0.011730328369044141 -0.054047903932490343 -0.01555365613458265 -0.03990164334904691 -0.035825796927233193 0.032087158477504749 -0.013082032009835588 0.0096187426748116211 0.055585479506624548 0.029241455078473012 -0.018029427276854883 -0.053289197641507274 0.042763654877908376 0.03746883533523504 -0.032498170189989531 -0.043143046064311658 0.095482476627670343 -0.028260122936099988 0.018243814502912455 -0.0026007924883407656 -0.013415162857184632 -0.06457310443197628 0.060724144121677349 0.0097495810202800105 0.011388514587709075 0.027551341854339606 0.018329241395668213 -0.038550224792850342 -0.060104759046157266 -0.024745686855345363 -0.051821332864185915 -0.058319684077617819 -0.083651834352389806 -0.027156780252873505 0.015117085882589934 0.044704122178496342 0.057718578390618419 0.035115785583080282 0.038161973671369295 -0.015731239279067364 0.050404541037896877 0.050809862002473796 0.010016416857005897 0.00059947688942948182 0.054882825908683042 0.087415133842467671 0.055773946274631836 0.0090681124894828949 -0.039838457035323988 0.018168873372483622 -0.0077319241816085418
leaf_count=12 307 1277 5 927 12 13 177 1321 50 130 16 135 10 7 784 17 3035 1923 7 291 12 13 352 1625 53 2313 114 7 797 40 566 87 7 5 270 404 158 108 26 287 24 726 3101 2180 7 70 263 2469 82 1186 640 1330 146 125 59 335 169 25 26 1795 86 14 16 334 6 4 589 163 28 205 13 41 134 209 352 20 341 15 159 14 66 6 2377 48 5 61 51 256 39 39 191 87 127 17 4 11 491 32 116 600
internal_value=0 0.224063 -0.387148 0.114469 0.0546761 -0.231737 -0.123497 -0.00224296 -0.27956 0.064343 0.0363116 -0.214128 0.0410897 -0.743138 -0.401037 -0.758976 -0.770538 -0.0710559 -0.395218 0.155073 -0.307133 -0.643803 -0.61927 -0.271339 -0.074606 0.192688 -0.46424 -0.873075 1.0957 -0.000217264 -0.652292 -0.467287 0.099258 0.110957 0.514863 -0.148736 -0.847626 0.175255 -0.139496 0.725808 -0.496863 0.0952691 0.119507 0.209241 -0.0257561 0.0366919 0.49854 -0.7003 -0.26736 -0.278439 -0.893951 -0.350329 -0.679784 -0.174618 0.31468 -0.229495 -0.109286 0.402765 0.00579661 -0.479511 -0.413596 -0.388687 -0.396809 -0.405605 -1.0587 0.293339 -0.546239 0.0480444 -0.859921 -0.0438235 0.0996717 0.175886 0.429775 0.0483544 0.665402 -0.510845 -0.704814 -0.675465 -0.427695 0.0529715 -0.538989 -0.544843 -0.528923 0.0883313 -0.924098 0.642943 0.605407 0.699631 0.0589248 0.352294 0.761242 0.619852 0.20978 0.155216 -0.256419 -0.070687 0.202169 -0.0878565 -0.101719 -0.070694
internal_count=39825 17127 22698 15053 14126 15583 9468 12976 2545 10431 9949 2011 5854 7115 6115 7000 6932 3364 3614 839 2574 3053 1040 2404 779 2490 4909 3879 2074 154 3040 683 7938 7631 290 1206 170 115 726 1150 1706 7341 6117 2946 1224 3171 313 2474 1278 1268 3713 1492 162 700 71 629 504 68 43 4755 2245 2159 2145 2129 650 10 596 2086 3063 526 321 519 175 344 482 1682 361 20 166 418 2510 2497 2431 54 357 863 802 585 51 217 534 343 178 308 788 766 498 755 748 716
shrinkage=0.05


Tree=11
num_leaves=101
num_cat=0
split_feature=19 13 0 8 5 0 20 0 7 2 15 2 0 6 2 12 0 2 3 2 11 2 0 22 12 2 2 6 2 2 2 2 2 0 12 2 0 2 0 2 2 10 0 7 2 7 0 2 0 2 2 0 2 2 2 2 0 2 2 0 2 2 2 21 0 2 3 14 0 0 0 0 14 9 0 2 2 0 0 0 2 2 0 2 4 0 2 0 0 0 0 2 2 0 16 2 0 0 0 4
split_gain=801.749 366.468 280.258 205.094 121.117 63.7408 94.8231 53.6051 53.1717 39.6469 35.19 23.8409 22.3571 22.295 21.7263 20.1623 19.9658 17.6907 15.9999 12.931 11.3307 10.7867 10.7661 10.0615 10.3481 7.85551 7.84519 7.69458 7.33011 6.66057 6.62509 6.47604 6.11239 6.05779 10.9256 6.75397 5.93703 5.87771 5.77199 5.59078 5.5337 5.12837 4.83777 10.2282 18.6778 9.79947 5.73982 5.88215 5.7361 4.88638 7.99122 4.9463 4.82092 4.74544 4.70099 8.35637 4.64991 4.43605 4.37211 5.96692 4.22673 8.69525 8.45887 4.19057 4.85487 4.16557 8.26874 4.81967 4.78993 5.25194 4.10116 7.00363 4.0875 4.07941 4.05532 4.04858 3.98907 3.92059 3.87666 3.84867 4.22643 7.11732 3.83421 4.51604 3.8111 3.87746 3.81042 3.89929 3.79786 3.77131 7.27987 3.82023 3.76427 3.74473 3.73096 3.72932 3.72678 5.42976 3.92494 3.72455
threshold=1.0000000180025095e-35 1.0000000180025095e-35 41.500000000000007 1.0000000180025095e-35 1.0000000180025095e-35 26.500000000000004 1.0000000180025095e-35 49.500000000000007 1.0000000180025095e-35 2015.5000000000002 1.0000000180025095e-35 2012.5000000000002 18.500000000000004 1.0000000180025095e-35 2013.5000000000002 1.0000000180025095e-35 51.500000000000007 2010.5000000000002 1.0000000180025095e-35 2008.5000000000002 1.0000000180025095e-35 2015.5000000000002 17.500000000000004 1.0000000180025095e-35 1.0000000180025095e-35 2005.5000000000002 2014.5000000000002 1.0000000180025095e-35 2014.5000000000002 2011.5000000000002 2013.5000000000002 2011.5000000000002 2010.5000000000002 10.500000000000002 1.0000000180025095e-35 2004.5000000000002 61.500000000000007 2014.5000000000002 44.500000000000007 2014.5000000000002 2015.5000000000002 1.0000000180025095e-35 37.500000000000007 1.0000000180025095e-35 2009.5000000000002 1.0000000180025095e-35 27.500000000000004 2004.5000000000002 14.500000000000002 2013.5000000000002 2012.5000000000002 19.500000000000004 1996.5000000000002 2013.5000000000002 1995.5000000000002 1998.5000000000002 80.500000000000014 2004.5000000000002 2009.5000000000002 47.500000000000007 2002.5000000000002 1998.5000000000002 2005.5000000000002 1.0000000180025095e-35 50.500000000000007 2010.5000000000002 1.0000000180025095e-35 1.0000000180025095e-35 40.500000000000007 39.500000000000007 29.500000000000004 24.500000000000004 1.0000000180025095e-35 1.0000000180025095e-35 99.500000000000014 2004.5000000000002 2015.5000000000002 55.500000000000007 15.500000000000002 52.500000000000007 2003.5000000000002 1999.5000000000002 12.500000000000002 2013.5000000000002 1.0000000180025095e-35 49.500000000000007 2012.5000000000002 15.500000000000002 70.500000000000014 18.500000000000004 27.500000000000004 2013.5000000000002 2011.5000000000002 92.500000000000014 1.0000000180025095e-35 2007.5000000000002 55.500000000000007 64.500000000000014 78.500000000000014 1.0000000180025095e-35
decision_type=2 2 2 2 2 2 2 2 2 2 2 2 2 2 2 2 2 2 2 2 2 2 2 2 2 2 2 2 2 2 2 2 2 2 2 2 2 2 2 2 2 2 2 2 2 2 2 2 2 2 2 2 2 2 2 2 2 2 2 2 2 2 2 2 2 2 2 2 2 2 2 2 2 2 2 2 2 2 2 2 2 2 2 2 2 2 2 2 2 2 2 2 2 2 2 2 2 2 2 2
left_child=2 3 5 4 7 6 18 9 41 10 33 58 25 15 27 16 21 54 20 75 23 30 29 24 40 -8 56 65 -3 -20 52 -29 -22 -2 42 -36 -21 -16 -15 88 60 92 43 44 -35 -44 48 -48 53 50 -50 -51 -4 57 -14 -56 73 -45 59 -12 61 -1 -62 64 -17 -7 67 68 69 -67 71 -60 -58 79 93 -10 94 -77 -11 -18 81 -81 -27 -84 85 -32 -37 -88 -6 91 -91 -13 95 -74 -19 -9 -28 -98 -99 -63
right_child=1 28 13 -5 39 14 12 8 19 78 11 89 17 38 37 63 26 76 22 36 32 -23 -24 -25 -26 82 96 31 -30 -31 84 -33 -34 34 35 86 -38 -39 -40 -41 -42 -43 45 46 -46 -47 47 -49 49 51 -52 -53 -54 -55 55 -57 72 -59 70 -61 62 99 -64 -65 -66 66 -68 -69 -70 -71 -72 -73 74 -75 -76 77 -78 -79 -80 80 -82 -83 83 -85 -86 -87 87 -89 -90 90 -92 -93 -94 -95 -96 -97 97 98 -100 -101
leaf_value=-0.064968912928455552 -0.0090880699548270012 0.049669199553308126 0.072495473816870964 0.054405780125146491 0.029356591516419783 -0.025734095137903076 -0.011215554591222591 -0.00083651640902636176 0.055111306498408889 0.021489059252961185 -0.022628586132428095 -0.010810908684808418 0.058105098131987602 -0.082759377831004136 -0.01219521258736494 -0.042179279813180093 -0.058300007241847474 0.049947558692240143 -0.031251503863730226 -0.011882587050431208 -0.018845516147216846 0.060923816347839971 -0.044484557100664145 -0.017448463861509785 0.039851311468744877 0.0026692637336584177 0.0036401733677700332 0.012085236727265301 0.064971261729868335 -0.01104726008844031 -0.016782839312668118 -0.035223333219508393 -0.058735010335429882 -0.00079870382085530051 -0.032386184630333915 0.020426683175822413 0.008263451686556263 0.002516805265109705 0.013940600317417062 0.047666305005661068 0.039315575170123566 -0.026094744910275042 -0.008649228301059627 0.069811574824336503 0.015907713786426161 0.0096113328378021716 -0.062970297777639558 0.010782014896928671 -0.0028432784255372013 0.000124533213483924 0.018685603758757986 -0.015026331926791654 -0.033738496542417555 0.019950915859172091 -0.053584023302168576 -0.011593444729261779 -0.052263767534312403 -0.0017794039235423074 -0.011811823963781694 0.05180103691053152 -0.047614442837393217 -0.010867542866011552 -0.00722992370550946 0.053563709620580983 0.027934401800148164 -0.017172339695767088 -0.051337423062818903 0.040407788337548413 0.035608534689759448 -0.031056254807803364 -0.025522306108671483 0.018963894818356548 0.14434362792947028 -0.0024720085612552319 0.09136357514926273 -0.016646808174208858 0.01735581423995863 0.026820530078982375 0.040031275084717821 -0.044518797184608473 -0.041421705421654048 0.033544691071490329 0.0095933154852673175 0.020517993372283119 0.065952419523065478 -0.0354644814667869 0.0080515056572430261 0.058119947433430443 0.063531293090566959 0.037827994502454672 -0.0040384255953252075 0.01082616718084476 0.013946549786198959 -0.078167068662212708 0.00061515207854716627 -0.028185173470252456 -0.053854284379292509 -0.00093951531189288319 -0.07852315903646126 0.045829536679696241
leaf_count=12 307 1600 5 927 825 2510 177 87 50 211 813 135 10 7 788 17 145 16 384 256 74 13 357 1625 53 473 47 114 474 299 397 40 96 1041 20 181 345 418 108 287 26 1448 726 9 1905 498 11 704 849 377 217 504 2469 221 52 1216 640 279 431 11 58 16 571 25 26 1795 86 14 16 334 147 90 1 28 4 24 163 164 271 30 2839 21 1300 540 5 164 21 68 38 104 71 209 50 5 1907 121 54 57 8 43
internal_value=0 0.214028 -0.369637 0.109152 0.0520828 -0.22075 -0.117578 -0.00213424 -0.266617 0.0612147 0.0345343 -0.203849 0.0390621 -0.713183 -0.382371 -0.728475 -0.739586 -0.0675553 -0.377035 0.1477 -0.292604 -0.616178 -0.59279 -0.258315 -0.0709847 0.183197 -0.839934 -0.442917 1.06103 -0.446005 -0.62431 -0.000229008 -0.816061 0.0943757 0.105501 0.491528 -0.00671356 -0.141442 0.166856 0.696097 -0.132687 -0.474199 0.0905695 0.113612 0.199039 -0.0244804 0.0348621 0.192897 -0.0110476 -0.0604806 0.0306876 -0.170744 -0.670868 0.178239 -0.254427 -0.264946 -0.860358 0.00891892 -0.333608 -0.432419 -0.166067 0.29962 -0.21821 0.385959 0.00554197 -0.45752 -0.394277 -0.370378 -0.378136 -0.386525 -0.212969 -0.129489 -1.02363 -0.826816 0.281412 0.553507 0.0456483 0.42379 0.636921 -0.834266 -0.817637 -0.22845 0.21436 0.25581 -0.42664 -0.442548 0.575515 0.922626 0.615403 0.167332 0.409659 0.045954 -0.213146 -0.829784 0.02024 -0.333373 -0.407964 -0.601056 -0.202813 0.60987
internal_count=39825 17127 22698 15053 14126 15583 9468 12976 2545 10431 9949 2011 5854 7115 6115 7000 6932 3364 3614 839 2574 3053 1040 2404 779 2490 3879 4909 2074 683 3040 154 170 7938 7631 290 601 1206 115 1150 726 1706 7341 6117 2946 1224 3171 715 2456 1947 1066 881 2474 509 1278 1268 3713 288 1492 824 700 71 629 68 43 4755 2245 2159 2145 2129 668 521 650 3063 10 238 2086 188 482 3035 2890 51 2313 1840 566 561 270 89 863 519 175 344 258 6 1923 208 166 119 65 59
shrinkage=0.05


Tree=12
num_leaves=101
num_cat=0
split_feature=19 13 0 8 5 0 20 0 7 2 15 2 6 0 2 12 0 2 3 2 2 11 2 0 22 12 2 2 6 16 2 2 0 12 2 2 2 0 2 12 0 2 0 2 2 0 7 2 7 0 2 2 2 2 0 0 7 0 21 0 0 2 0 0 2 2 2 2 2 14 0 14 2 0 2 0 2 0 2 22 2 0 2 0 2 0 21 0 2 0 2 14 0 0 0 0 2 0 2 2
split_gain=727.619 339.325 258.075 189.562 110.438 57.8395 86.0002 48.551 48.2453 36.1051 31.8155 21.574 20.4367 20.1962 19.8112 18.4074 19.0543 15.9964 14.6975 11.8358 10.5165 10.4796 10.2399 9.1601 9.11129 9.39396 7.34211 7.09602 6.98924 6.08232 5.87245 5.77606 5.47168 9.93653 6.12745 5.31271 5.30818 5.29576 5.01961 4.89031 4.6622 4.6549 4.56886 4.45766 6.38563 4.37045 9.25035 16.9699 8.84964 5.41766 4.29097 7.6946 4.28882 4.4631 3.92541 3.98923 3.88996 3.86814 3.85383 4.40693 3.84865 5.6173 3.84636 3.93675 4.09406 3.83223 3.81978 7.91947 7.82439 5.2153 3.81363 3.79199 3.78248 4.34687 3.7518 5.70935 3.73824 3.70649 3.69881 3.69187 3.69078 3.67534 4.89125 3.65422 3.63873 3.63077 4.29738 3.61735 3.60661 3.60256 3.5997 3.59421 3.59358 3.72426 3.53531 3.53464 3.52595 3.61288 3.50417 3.6473
