tree
version=v2
num_class=1
num_tree_per_iteration=1
label_index=0
max_feature_idx=4735
objective=regression
feature_names=Column_0 Column_1 Column_2 Column_3 Column_4 Column_5 Column_6 Column_7 Column_8 Column_9 Column_10 Column_11 Column_12 Column_13 Column_14 Column_15 Column_16 Column_17 Column_18 Column_19 Column_20 Column_21 Column_22 Column_23 Column_24 Column_25 Column_26 Column_27 Column_28 Column_29 Column_30 Column_31 Column_32 Column_33 Column_34 Column_35 Column_36 Column_37 Column_38 Column_39 Column_40 Column_41 Column_42 Column_43 Column_44 Column_45 Column_46 Column_47 Column_48 Column_49 Column_50 Column_51 Column_52 Column_53 Column_54 Column_55 Column_56 Column_57 Column_58 Column_59 Column_60 Column_61 Column_62 Column_63 Column_64 Column_65 Column_66 Column_67 Column_68 Column_69 Column_70 Column_71 Column_72 Column_73 Column_74 Column_75 Column_76 Column_77 Column_78 Column_79 Column_80 Column_81 Column_82 Column_83 Column_84 Column_85 Column_86 Column_87 Column_88 Column_89 Column_90 Column_91 Column_92 Column_93 Column_94 Column_95 Column_96 Column_97 Column_98 Column_99 Column_100 Column_101 Column_102 Column_103 Column_104 Column_105 Column_106 Column_107 Column_108 Column_109 Column_110 Column_111 Column_112 Column_113 Column_114 Column_115 Column_116 Column_117 Column_118 Column_119 Column_120 Column_121 Column_122 Column_123 Column_124 Column_125 Column_126 Column_127 Column_128 Column_129 Column_130 Column_131 Column_132 Column_133 Column_134 Column_135 Column_136 Column_137 Column_138 Column_139 Column_140 Column_141 Column_142 Column_143 Column_144 Column_145 Column_146 Column_147 Column_148 Column_149 Column_150 Column_151 Column_152 Column_153 Column_154 Column_155 Column_156 Column_157 Column_158 Column_159 Column_160 Column_161 Column_162 Column_163 Column_164 Column_165 Column_166 Column_167 Column_168 Column_169 Column_170 Column_171 Column_172 Column_173 Column_174 Column_175 Column_176 Column_177 Column_178 Column_179 Column_180 Column_181 Column_182 Column_183 Column_184 Column_185 Column_186 Column_187 Column_188 Column_189 Column_190 Column_191 Column_192 Column_193 Column_194 Column_195 Column_196 Column_197 Column_198 Column_199 Column_200 Column_201 Column_202 Column_203 Column_204 Column_205 Column_206 Column_207 Column_208 Column_209 Column_210 Column_211 Column_212 Column_213 Column_214 Column_215 Column_216 Column_217 Column_218 Column_219 Column_220 Column_221 Column_222 Column_223 Column_224 Column_225 Column_226 Column_227 Column_228 Column_229 Column_230 Column_231 Column_232 Column_233 Column_234 Column_235 Column_236 Column_237 Column_238 Column_239 Column_240 Column_241 Column_242 Column_243 Column_244 Column_245 Column_246 Column_247 Column_248 Column_249 Column_250 Column_251 Column_252 Column_253 Column_254 Column_255 Column_256 Column_257 Column_258 Column_259 Column_260 Column_261 Column_262 Column_263 Column_264 Column_265 Column_266 Column_267 Column_268 Column_269 Column_270 Column_271 Column_272 Column_273 Column_274 Column_275 Column_276 Column_277 Column_278 Column_279 Column_280 Column_281 Column_282 Column_283 Column_284 Column_285 Column_286 Column_287 Column_288 Column_289 Column_290 Column_291 Column_292 Column_293 Column_294 Column_295 Column_296 Column_297 Column_298 Column_299 Column_300 Column_301 Column_302 Column_303 Column_304 Column_305 Column_306 Column_307 Column_308 Column_309 Column_310 Column_311 Column_312 Column_313 Column_314 Column_315 Column_316 Column_317 Column_318 Column_319 Column_320 Column_321 Column_322 Column_323 Column_324 Column_325 Column_326 Column_327 Column_328 Column_329 Column_330 Column_331 Column_332 Column_333 Column_334 Column_335 Column_336 Column_337 Column_338 Column_339 Column_340 Column_341 Column_342 Column_343 Column_344 Column_345 Column_346 Column_347 Column_348 Column_349 Column_350 Column_351 Column_352 Column_353 Column_354 Column_355 Column_356 Column_357 Column_358 Column_359 Column_360 Column_361 Column_362 Column_363 Column_364 Column_365 Column_366 Column_367 Column_368 Column_369 Column_370 Column_371 Column_372 Column_373 Column_374 Column_375 Column_376 Column_377 Column_378 Column_379 Column_380 Column_381 Column_382 Column_383 Column_384 Column_385 Column_386 Column_387 Column_388 Column_389 Column_390 Column_391 Column_392 Column_393 Column_394 Column_395 Column_396 Column_397 Column_398 Column_399 Column_400 Column_401 Column_402 Column_403 Column_404 Column_405 Column_406 Column_407 Column_408 Column_409 Column_410 Column_411 Column_412 Column_413 Column_414 Column_415 Column_416 Column_417 Column_418 Column_419 Column_420 Column_421 Column_422 Column_423 Column_424 Column_425 Column_426 Column_427 Column_428 Column_429 Column_430 Column_431 Column_432 Column_433 Column_434 Column_435 Column_436 Column_437 Column_438 Column_439 Column_440 Column_441 Column_442 Column_443 Column_444 Column_445 Column_446 Column_447 Column_448 Column_449 Column_450 Column_451 Column_452 Column_453 Column_454 Column_455 Column_456 Column_457 Column_458 Column_459 Column_460 Column_461 Column_462 Column_463 Column_464 Column_465 Column_466 Column_467 Column_468 Column_469 Column_470 Column_471 Column_472 Column_473 Column_474 Column_475 Column_476 Column_477 Column_478 Column_479 Column_480 Column_481 Column_482 Column_483 Column_484 Column_485 Column_486 Column_487 Column_488 Column_489 Column_490 Column_491 Column_492 Column_493 Column_494 Column_495 Column_496 Column_497 Column_498 Column_499 Column_500 Column_501 Column_502 Column_503 Column_504 Column_505 Column_506 Column_507 Column_508 Column_509 Column_510 Column_511 Column_512 Column_513 Column_514 Column_515 Column_516 Column_517 Column_518 Column_519 Column_520 Column_521 Column_522 Column_523 Column_524 Column_525 Column_526 Column_527 Column_528 Column_529 Column_530 Column_531 Column_532 Column_533 Column_534 Column_535 Column_536 Column_537 Column_538 Column_539 Column_540 Column_541 Column_542 Column_543 Column_544 Column_545 Column_546 Column_547 Column_548 Column_549 Column_550 Column_551 Column_552 Column_553 Column_554 Column_555 Column_556 Column_557 Column_558 Column_559 Column_560 Column_561 Column_562 Column_563 Column_564 Column_565 Column_566 Column_567 Column_568 Column_569 Column_570 Column_571 Column_572 Column_573 Column_574 Column_575 Column_576 Column_577 Column_578 Column_579 Column_580 Column_581 Column_582 Column_583 Column_584 Column_585 Column_586 Column_587 Column_588 Column_589 Column_590 Column_591 Column_592 Column_593 Column_594 Column_595 Column_596 Column_597 Column_598 Column_599 Column_600 Column_601 Column_602 Column_603 Column_604 Column_605 Column_606 Column_607 Column_608 Column_609 Column_610 Column_611 Column_612 Column_613 Column_614 Column_615 Column_616 Column_617 Column_618 Column_619 Column_620 Column_621 Column_622 Column_623 Column_624 Column_625 Column_626 Column_627 Column_628 Column_629 Column_630 Column_631 Column_632 Column_633 Column_634 Column_635 Column_636 Column_637 Column_638 Column_639 Column_640 Column_641 Column_642 Column_643 Column_644 Column_645 Column_646 Column_647 Column_648 Column_649 Column_650 Column_651 Column_652 Column_653 Column_654 Column_655 Column_656 Column_657 Column_658 Column_659 Column_660 Column_661 Column_662 Column_663 Column_664 Column_665 Column_666 Column_667 Column_668 Column_669 Column_670 Column_671 Column_672 Column_673 Column_674 Column_675 Column_676 Column_677 Column_678 Column_679 Column_680 Column_681 Column_682 Column_683 Column_684 Column_685 Column_686 Column_687 Column_688 Column_689 Column_690 Column_691 Column_692 Column_693 Column_694 Column_695 Column_696 Column_697 Column_698 Column_699 Column_700 Column_701 Column_702 Column_703 Column_704 Column_705 Column_706 Column_707 Column_708 Column_709 Column_710 Column_711 Column_712 Column_713 Column_714 Column_715 Column_716 Column_717 Column_718 Column_719 Column_720 Column_721 Column_722 Column_723 Column_724 Column_725 Column_726 Column_727 Column_728 Column_729 Column_730 Column_731 Column_732 Column_733 Column_734 Column_735 Column_736 Column_737 Column_738 Column_739 Column_740 Column_741 Column_742 Column_743 Column_744 Column_745 Column_746 Column_747 Column_748 Column_749 Column_750 Column_751 Column_752 Column_753 Column_754 Column_755 Column_756 Column_757 Column_758 Column_759 Column_760 Column_761 Column_762 Column_763 Column_764 Column_765 Column_766 Column_767 Column_768 Column_769 Column_770 Column_771 Column_772 Column_773 Column_774 Column_775 Column_776 Column_777 Column_778 Column_779 Column_780 Column_781 Column_782 Column_783 Column_784 Column_785 Column_786 Column_787 Column_788 Column_789 Column_790 Column_791 Column_792 Column_793 Column_794 Column_795 Column_796 Column_797 Column_798 Column_799 Column_800 Column_801 Column_802 Column_803 Column_804 Column_805 Column_806 Column_807 Column_808 Column_809 Column_810 Column_811 Column_812 Column_813 Column_814 Column_815 Column_816 Column_817 Column_818 Column_819 Column_820 Column_821 Column_822 Column_823 Column_824 Column_825 Column_826 Column_827 Column_828 Column_829 Column_830 Column_831 Column_832 Column_833 Column_834 Column_835 Column_836 Column_837 Column_838 Column_839 Column_840 Column_841 Column_842 Column_843 Column_844 Column_845 Column_846 Column_847 Column_848 Column_849 Column_850 Column_851 Column_852 Column_853 Column_854 Column_855 Column_856 Column_857 Column_858 Column_859 Column_860 Column_861 Column_862 Column_863 Column_864 Column_865 Column_866 Column_867 Column_868 Column_869 Column_870 Column_871 Column_872 Column_873 Column_874 Column_875 Column_876 Column_877 Column_878 Column_879 Column_880 Column_881 Column_882 Column_883 Column_884 Column_885 Column_886 Column_887 Column_888 Column_889 Column_890 Column_891 Column_892 Column_893 Column_894 Column_895 Column_896 Column_897 Column_898 Column_899 Column_900 Column_901 Column_902 Column_903 Column_904 Column_905 Column_906 Column_907 Column_908 Column_909 Column_910 Column_911 Column_912 Column_913 Column_914 Column_915 Column_916 Column_917 Column_918 Column_919 Column_920 Column_921 Column_922 Column_923 Column_924 Column_925 Column_926 Column_927 Column_928 Column_929 Column_930 Column_931 Column_932 Column_933 Column_934 Column_935 Column_936 Column_937 Column_938 Column_939 Column_940 Column_941 Column_942 Column_943 Column_944 Column_945 Column_946 Column_947 Column_948 Column_949 Column_950 Column_951 Column_952 Column_953 Column_954 Column_955 Column_956 Column_957 Column_958 Column_959 Column_960 Column_961 Column_962 Column_963 Column_964 Column_965 Column_966 Column_967 Column_968 Column_969 Column_970 Column_971 Column_972 Column_973 Column_974 Column_975 Column_976 Column_977 Column_978 Column_979 Column_980 Column_981 Column_982 Column_983 Column_984 Column_985 Column_986 Column_987 Column_988 Column_989 Column_990 Column_991 Column_992 Column_993 Column_994 Column_995 Column_996 Column_997 Column_998 Column_999 Column_1000 Column_1001 Column_1002 Column_1003 Column_1004 Column_1005 Column_1006 Column_1007 Column_1008 Column_1009 Column_1010 Column_1011 Column_1012 Column_1013 Column_1014 Column_1015 Column_1016 Column_1017 Column_1018 Column_1019 Column_1020 Column_1021 Column_1022 Column_1023 Column_1024 Column_1025 Column_1026 Column_1027 Column_1028 Column_1029 Column_1030 Column_1031 Column_1032 Column_1033 Column_1034 Column_1035 Column_1036 Column_1037 Column_1038 Column_1039 Column_1040 Column_1041 Column_1042 Column_1043 Column_1044 Column_1045 Column_1046 Column_1047 Column_1048 Column_1049 Column_1050 Column_1051 Column_1052 Column_1053 Column_1054 Column_1055 Column_1056 Column_1057 Column_1058 Column_1059 Column_1060 Column_1061 Column_1062 Column_1063 Column_1064 Column_1065 Column_1066 Column_1067 Column_1068 Column_1069 Column_1070 Column_1071 Column_1072 Column_1073 Column_1074 Column_1075 Column_1076 Column_1077 Column_1078 Column_1079 Column_1080 Column_1081 Column_1082 Column_1083 Column_1084 Column_1085 Column_1086 Column_1087 Column_1088 Column_1089 Column_1090 Column_1091 Column_1092 Column_1093 Column_1094 Column_1095 Column_1096 Column_1097 Column_1098 Column_1099 Column_1100 Column_1101 Column_1102 Column_1103 Column_1104 Column_1105 Column_1106 Column_1107 Column_1108 Column_1109 Column_1110 Column_1111 Column_1112 Column_1113 Column_1114 Column_1115 Column_1116 Column_1117 Column_1118 Column_1119 Column_1120 Column_1121 Column_1122 Column_1123 Column_1124 Column_1125 Column_1126 Column_1127 Column_1128 Column_1129 Column_1130 Column_1131 Column_1132 Column_1133 Column_1134 Column_1135 Column_1136 Column_1137 Column_1138 Column_1139 Column_1140 Column_1141 Column_1142 Column_1143 Column_1144 Column_1145 Column_1146 Column_1147 Column_1148 Column_1149 Column_1150 Column_1151 Column_1152 Column_1153 Column_1154 Column_1155 Column_1156 Column_1157 Column_1158 Column_1159 Column_1160 Column_1161 Column_1162 Column_1163 Column_1164 Column_1165 Column_1166 Column_1167 Column_1168 Column_1169 Column_1170 Column_1171 Column_1172 Column_1173 Column_1174 Column_1175 Column_1176 Column_1177 Column_1178 Column_1179 Column_1180 Column_1181 Column_1182 Column_1183 Column_1184 Column_1185 Column_1186 Column_1187 Column_1188 Column_1189 Column_1190 Column_1191 Column_1192 Column_1193 Column_1194 Column_1195 Column_1196 Column_1197 Column_1198 Column_1199 Column_1200 Column_1201 Column_1202 Column_1203 Column_1204 Column_1205 Column_1206 Column_1207 Column_1208 Column_1209 Column_1210 Column_1211 Column_1212 Column_1213 Column_1214 Column_1215 Column_1216 Column_1217 Column_1218 Column_1219 Column_1220 Column_1221 Column_1222 Column_1223 Column_1224 Column_1225 Column_1226 Column_1227 Column_1228 Column_1229 Column_1230 Column_1231 Column_1232 Column_1233 Column_1234 Column_1235 Column_1236 Column_1237 Column_1238 Column_1239 Column_1240 Column_1241 Column_1242 Column_1243 Column_1244 Column_1245 Column_1246 Column_1247 Column_1248 Column_1249 Column_1250 Column_1251 Column_1252 Column_1253 Column_1254 Column_1255 Column_1256 Column_1257 Column_1258 Column_1259 Column_1260 Column_1261 Column_1262 Column_1263 Column_1264 Column_1265 Column_1266 Column_1267 Column_1268 Column_1269 Column_1270 Column_1271 Column_1272 Column_1273 Column_1274 Column_1275 Column_1276 Column_1277 Column_1278 Column_1279 Column_1280 Column_1281 Column_1282 Column_1283 Column_1284 Column_1285 Column_1286 Column_1287 Column_1288 Column_1289 Column_1290 Column_1291 Column_1292 Column_1293 Column_1294 Column_1295 Column_1296 Column_1297 Column_1298 Column_1299 Column_1300 Column_1301 Column_1302 Column_1303 Column_1304 Column_1305 Column_1306 Column_1307 Column_1308 Column_1309 Column_1310 Column_1311 Column_1312 Column_1313 Column_1314 Column_1315 Column_1316 Column_1317 Column_1318 Column_1319 Column_1320 Column_1321 Column_1322 Column_1323 Column_1324 Column_1325 Column_1326 Column_1327 Column_1328 Column_1329 Column_1330 Column_1331 Column_1332 Column_1333 Column_1334 Column_1335 Column_1336 Column_1337 Column_1338 Column_1339 Column_1340 Column_1341 Column_1342 Column_1343 Column_1344 Column_1345 Column_1346 Column_1347 Column_1348 Column_1349 Column_1350 Column_1351 Column_1352 Column_1353 Column_1354 Column_1355 Column_1356 Column_1357 Column_1358 Column_1359 Column_1360 Column_1361 Column_1362 Column_1363 Column_1364 Column_1365 Column_1366 Column_1367 Column_1368 Column_1369 Column_1370 Column_1371 Column_1372 Column_1373 Column_1374 Column_1375 Column_1376 Column_1377 Column_1378 Column_1379 Column_1380 Column_1381 Column_1382 Column_1383 Column_1384 Column_1385 Column_1386 Column_1387 Column_1388 Column_1389 Column_1390 Column_1391 Column_1392 Column_1393 Column_1394 Column_1395 Column_1396 Column_1397 Column_1398 Column_1399 Column_1400 Column_1401 Column_1402 Column_1403 Column_1404 Column_1405 Column_1406 Column_1407 Column_1408 Column_1409 Column_1410 Column_1411 Column_1412 Column_1413 Column_1414 Column_1415 Column_1416 Column_1417 Column_1418 Column_1419 Column_1420 Column_1421 Column_1422 Column_1423 Column_1424 Column_1425 Column_1426 Column_1427 Column_1428 Column_1429 Column_1430 Column_1431 Column_1432 Column_1433 Column_1434 Column_1435 Column_1436 Column_1437 Column_1438 Column_1439 Column_1440 Column_1441 Column_1442 Column_1443 Column_1444 Column_1445 Column_1446 Column_1447 Column_1448 Column_1449 Column_1450 Column_1451 Column_1452 Column_1453 Column_1454 Column_1455 Column_1456 Column_1457 Column_1458 Column_1459 Column_1460 Column_1461 Column_1462 Column_1463 Column_1464 Column_1465 Column_1466 Column_1467 Column_1468 Column_1469 Column_1470 Column_1471 Column_1472 Column_1473 Column_1474 Column_1475 Column_1476 Column_1477 Column_1478 Column_1479 Column_1480 Column_1481 Column_1482 Column_1483 Column_1484 Column_1485 Column_1486 Column_1487 Column_1488 Column_1489 Column_1490 Column_1491 Column_1492 Column_1493 Column_1494 Column_1495 Column_1496 Column_1497 Column_1498 Column_1499 Column_1500 Column_1501 Column_1502 Column_1503 Column_1504 Column_1505 Column_1506 Column_1507 Column_1508 Column_1509 Column_1510 Column_1511 Column_1512 Column_1513 Column_1514 Column_1515 Column_1516 Column_1517 Column_1518 Column_1519 Column_1520 Column_1521 Column_1522 Column_1523 Column_1524 Column_1525 Column_1526 Column_1527 Column_1528 Column_1529 Column_1530 Column_1531 Column_1532 Column_1533 Column_1534 Column_1535 Column_1536 Column_1537 Column_1538 Column_1539 Column_1540 Column_1541 Column_1542 Column_1543 Column_1544 Column_1545 Column_1546 Column_1547 Column_1548 Column_1549 Column_1550 Column_1551 Column_1552 Column_1553 Column_1554 Column_1555 Column_1556 Column_1557 Column_1558 Column_1559 Column_1560 Column_1561 Column_1562 Column_1563 Column_1564 Column_1565 Column_1566 Column_1567 Column_1568 Column_1569 Column_1570 Column_1571 Column_1572 Column_1573 Column_1574 Column_1575 Column_1576 Column_1577 Column_1578 Column_1579 Column_1580 Column_1581 Column_1582 Column_1583 Column_1584 Column_1585 Column_1586 Column_1587 Column_1588 Column_1589 Column_1590 Column_1591 Column_1592 Column_1593 Column_1594 Column_1595 Column_1596 Column_1597 Column_1598 Column_1599 Column_1600 Column_1601 Column_1602 Column_1603 Column_1604 Column_1605 Column_1606 Column_1607 Column_1608 Column_1609 Column_1610 Column_1611 Column_1612 Column_1613 Column_1614 Column_1615 Column_1616 Column_1617 Column_1618 Column_1619 Column_1620 Column_1621 Column_1622 Column_1623 Column_1624 Column_1625 Column_1626 Column_1627 Column_1628 Column_1629 Column_1630 Column_1631 Column_1632 Column_1633 Column_1634 Column_1635 Column_1636 Column_1637 Column_1638 Column_1639 Column_1640 Column_1641 Column_1642 Column_1643 Column_1644 Column_1645 Column_1646 Column_1647 Column_1648 Column_1649 Column_1650 Column_1651 Column_1652 Column_1653 Column_1654 Column_1655 Column_1656 Column_1657 Column_1658 Column_1659 Column_1660 Column_1661 Column_1662 Column_1663 Column_1664 Column_1665 Column_1666 Column_1667 Column_1668 Column_1669 Column_1670 Column_1671 Column_1672 Column_1673 Column_1674 Column_1675 Column_1676 Column_1677 Column_1678 Column_1679 Column_1680 Column_1681 Column_1682 Column_1683 Column_1684 Column_1685 Column_1686 Column_1687 Column_1688 Column_1689 Column_1690 Column_1691 Column_1692 Column_1693 Column_1694 Column_1695 Column_1696 Column_1697 Column_1698 Column_1699 Column_1700 Column_1701 Column_1702 Column_1703 Column_1704 Column_1705 Column_1706 Column_1707 Column_1708 Column_1709 Column_1710 Column_1711 Column_1712 Column_1713 Column_1714 Column_1715 Column_1716 Column_1717 Column_1718 Column_1719 Column_1720 Column_1721 Column_1722 Column_1723 Column_1724 Column_1725 Column_1726 Column_1727 Column_1728 Column_1729 Column_1730 Column_1731 Column_1732 Column_1733 Column_1734 Column_1735 Column_1736 Column_1737 Column_1738 Column_1739 Column_1740 Column_1741 Column_1742 Column_1743 Column_1744 Column_1745 Column_1746 Column_1747 Column_1748 Column_1749 Column_1750 Column_1751 Column_1752 Column_1753 Column_1754 Column_1755 Column_1756 Column_1757 Column_1758 Column_1759 Column_1760 Column_1761 Column_1762 Column_1763 Column_1764 Column_1765 Column_1766 Column_1767 Column_1768 Column_1769 Column_1770 Column_1771 Column_1772 Column_1773 Column_1774 Column_1775 Column_1776 Column_1777 Column_1778 Column_1779 Column_1780 Column_1781 Column_1782 Column_1783 Column_1784 Column_1785 Column_1786 Column_1787 Column_1788 Column_1789 Column_1790 Column_1791 Column_1792 Column_1793 Column_1794 Column_1795 Column_1796 Column_1797 Column_1798 Column_1799 Column_1800 Column_1801 Column_1802 Column_1803 Column_1804 Column_1805 Column_1806 Column_1807 Column_1808 Column_1809 Column_1810 Column_1811 Column_1812 Column_1813 Column_1814 Column_1815 Column_1816 Column_1817 Column_1818 Column_1819 Column_1820 Column_1821 Column_1822 Column_1823 Column_1824 Column_1825 Column_1826 Column_1827 Column_1828 Column_1829 Column_1830 Column_1831 Column_1832 Column_1833 Column_1834 Column_1835 Column_1836 Column_1837 Column_1838 Column_1839 Column_1840 Column_1841 Column_1842 Column_1843 Column_1844 Column_1845 Column_1846 Column_1847 Column_1848 Column_1849 Column_1850 Column_1851 Column_1852 Column_1853 Column_1854 Column_1855 Column_1856 Column_1857 Column_1858 Column_1859 Column_1860 Column_1861 Column_1862 Column_1863 Column_1864 Column_1865 Column_1866 Column_1867 Column_1868 Column_1869 Column_1870 Column_1871 Column_1872 Column_1873 Column_1874 Column_1875 Column_1876 Column_1877 Column_1878 Column_1879 Column_1880 Column_1881 Column_1882 Column_1883 Column_1884 Column_1885 Column_1886 Column_1887 Column_1888 Column_1889 Column_1890 Column_1891 Column_1892 Column_1893 Column_1894 Column_1895 Column_1896 Column_1897 Column_1898 Column_1899 Column_1900 Column_1901 Column_1902 Column_1903 Column_1904 Column_1905 Column_1906 Column_1907 Column_1908 Column_1909 Column_1910 Column_1911 Column_1912 Column_1913 Column_1914 Column_1915 Column_1916 Column_1917 Column_1918 Column_1919 Column_1920 Column_1921 Column_1922 Column_1923 Column_1924 Column_1925 Column_1926 Column_1927 Column_1928 Column_1929 Column_1930 Column_1931 Column_1932 Column_1933 Column_1934 Column_1935 Column_1936 Column_1937 Column_1938 Column_1939 Column_1940 Column_1941 Column_1942 Column_1943 Column_1944 Column_1945 Column_1946 Column_1947 Column_1948 Column_1949 Column_1950 Column_1951 Column_1952 Column_1953 Column_1954 Column_1955 Column_1956 Column_1957 Column_1958 Column_1959 Column_1960 Column_1961 Column_1962 Column_1963 Column_1964 Column_1965 Column_1966 Column_1967 Column_1968 Column_1969 Column_1970 Column_1971 Column_1972 Column_1973 Column_1974 Column_1975 Column_1976 Column_1977 Column_1978 Column_1979 Column_1980 Column_1981 Column_1982 Column_1983 Column_1984 Column_1985 Column_1986 Column_1987 Column_1988 Column_1989 Column_1990 Column_1991 Column_1992 Column_1993 Column_1994 Column_1995 Column_1996 Column_1997 Column_1998 Column_1999 Column_2000 Column_2001 Column_2002 Column_2003 Column_2004 Column_2005 Column_2006 Column_2007 Column_2008 Column_2009 Column_2010 Column_2011 Column_2012 Column_2013 Column_2014 Column_2015 Column_2016 Column_2017 Column_2018 Column_2019 Column_2020 Column_2021 Column_2022 Column_2023 Column_2024 Column_2025 Column_2026 Column_2027 Column_2028 Column_2029 Column_2030 Column_2031 Column_2032 Column_2033 Column_2034 Column_2035 Column_2036 Column_2037 Column_2038 Column_2039 Column_2040 Column_2041 Column_2042 Column_2043 Column_2044 Column_2045 Column_2046 Column_2047 Column_2048 Column_2049 Column_2050 Column_2051 Column_2052 Column_2053 Column_2054 Column_2055 Column_2056 Column_2057 Column_2058 Column_2059 Column_2060 Column_2061 Column_2062 Column_2063 Column_2064 Column_2065 Column_2066 Column_2067 Column_2068 Column_2069 Column_2070 Column_2071 Column_2072 Column_2073 Column_2074 Column_2075 Column_2076 Column_2077 Column_2078 Column_2079 Column_2080 Column_2081 Column_2082 Column_2083 Column_2084 Column_2085 Column_2086 Column_2087 Column_2088 Column_2089 Column_2090 Column_2091 Column_2092 Column_2093 Column_2094 Column_2095 Column_2096 Column_2097 Column_2098 Column_2099 Column_2100 Column_2101 Column_2102 Column_2103 Column_2104 Column_2105 Column_2106 Column_2107 Column_2108 Column_2109 Column_2110 Column_2111 Column_2112 Column_2113 Column_2114 Column_2115 Column_2116 Column_2117 Column_2118 Column_2119 Column_2120 Column_2121 Column_2122 Column_2123 Column_2124 Column_2125 Column_2126 Column_2127 Column_2128 Column_2129 Column_2130 Column_2131 Column_2132 Column_2133 Column_2134 Column_2135 Column_2136 Column_2137 Column_2138 Column_2139 Column_2140 Column_2141 Column_2142 Column_2143 Column_2144 Column_2145 Column_2146 Column_2147 Column_2148 Column_2149 Column_2150 Column_2151 Column_2152 Column_2153 Column_2154 Column_2155 Column_2156 Column_2157 Column_2158 Column_2159 Column_2160 Column_2161 Column_2162 Column_2163 Column_2164 Column_2165 Column_2166 Column_2167 Column_2168 Column_2169 Column_2170 Column_2171 Column_2172 Column_2173 Column_2174 Column_2175 Column_2176 Column_2177 Column_2178 Column_2179 Column_2180 Column_2181 Column_2182 Column_2183 Column_2184 Column_2185 Column_2186 Column_2187 Column_2188 Column_2189 Column_2190 Column_2191 Column_2192 Column_2193 Column_2194 Column_2195 Column_2196 Column_2197 Column_2198 Column_2199 Column_2200 Column_2201 Column_2202 Column_2203 Column_2204 Column_2205 Column_2206 Column_2207 Column_2208 Column_2209 Column_2210 Column_2211 Column_2212 Column_2213 Column_2214 Column_2215 Column_2216 Column_2217 Column_2218 Column_2219 Column_2220 Column_2221 Column_2222 Column_2223 Column_2224 Column_2225 Column_2226 Column_2227 Column_2228 Column_2229 Column_2230 Column_2231 Column_2232 Column_2233 Column_2234 Column_2235 Column_2236 Column_2237 Column_2238 Column_2239 Column_2240 Column_2241 Column_2242 Column_2243 Column_2244 Column_2245 Column_2246 Column_2247 Column_2248 Column_2249 Column_2250 Column_2251 Column_2252 Column_2253 Column_2254 Column_2255 Column_2256 Column_2257 Column_2258 Column_2259 Column_2260 Column_2261 Column_2262 Column_2263 Column_2264 Column_2265 Column_2266 Column_2267 Column_2268 Column_2269 Column_2270 Column_2271 Column_2272 Column_2273 Column_2274 Column_2275 Column_2276 Column_2277 Column_2278 Column_2279 Column_2280 Column_2281 Column_2282 Column_2283 Column_2284 Column_2285 Column_2286 Column_2287 Column_2288 Column_2289 Column_2290 Column_2291 Column_2292 Column_2293 Column_2294 Column_2295 Column_2296 Column_2297 Column_2298 Column_2299 Column_2300 Column_2301 Column_2302 Column_2303 Column_2304 Column_2305 Column_2306 Column_2307 Column_2308 Column_2309 Column_2310 Column_2311 Column_2312 Column_2313 Column_2314 Column_2315 Column_2316 Column_2317 Column_2318 Column_2319 Column_2320 Column_2321 Column_2322 Column_2323 Column_2324 Column_2325 Column_2326 Column_2327 Column_2328 Column_2329 Column_2330 Column_2331 Column_2332 Column_2333 Column_2334 Column_2335 Column_2336 Column_2337 Column_2338 Column_2339 Column_2340 Column_2341 Column_2342 Column_2343 Column_2344 Column_2345 Column_2346 Column_2347 Column_2348 Column_2349 Column_2350 Column_2351 Column_2352 Column_2353 Column_2354 Column_2355 Column_2356 Column_2357 Column_2358 Column_2359 Column_2360 Column_2361 Column_2362 Column_2363 Column_2364 Column_2365 Column_2366 Column_2367 Column_2368 Column_2369 Column_2370 Column_2371 Column_2372 Column_2373 Column_2374 Column_2375 Column_2376 Column_2377 Column_2378 Column_2379 Column_2380 Column_2381 Column_2382 Column_2383 Column_2384 Column_2385 Column_2386 Column_2387 Column_2388 Column_2389 Column_2390 Column_2391 Column_2392 Column_2393 Column_2394 Column_2395 Column_2396 Column_2397 Column_2398 Column_2399 Column_2400 Column_2401 Column_2402 Column_2403 Column_2404 Column_2405 Column_2406 Column_2407 Column_2408 Column_2409 Column_2410 Column_2411 Column_2412 Column_2413 Column_2414 Column_2415 Column_2416 Column_2417 Column_2418 Column_2419 Column_2420 Column_2421 Column_2422 Column_2423 Column_2424 Column_2425 Column_2426 Column_2427 Column_2428 Column_2429 Column_2430 Column_2431 Column_2432 Column_2433 Column_2434 Column_2435 Column_2436 Column_2437 Column_2438 Column_2439 Column_2440 Column_2441 Column_2442 Column_2443 Column_2444 Column_2445 Column_2446 Column_2447 Column_2448 Column_2449 Column_2450 Column_2451 Column_2452 Column_2453 Column_2454 Column_2455 Column_2456 Column_2457 Column_2458 Column_2459 Column_2460 Column_2461 Column_2462 Column_2463 Column_2464 Column_2465 Column_2466 Column_2467 Column_2468 Column_2469 Column_2470 Column_2471 Column_2472 Column_2473 Column_2474 Column_2475 Column_2476 Column_2477 Column_2478 Column_2479 Column_2480 Column_2481 Column_2482 Column_2483 Column_2484 Column_2485 Column_2486 Column_2487 Column_2488 Column_2489 Column_2490 Column_2491 Column_2492 Column_2493 Column_2494 Column_2495 Column_2496 Column_2497 Column_2498 Column_2499 Column_2500 Column_2501 Column_2502 Column_2503 Column_2504 Column_2505 Column_2506 Column_2507 Column_2508 Column_2509 Column_2510 Column_2511 Column_2512 Column_2513 Column_2514 Column_2515 Column_2516 Column_2517 Column_2518 Column_2519 Column_2520 Column_2521 Column_2522 Column_2523 Column_2524 Column_2525 Column_2526 Column_2527 Column_2528 Column_2529 Column_2530 Column_2531 Column_2532 Column_2533 Column_2534 Column_2535 Column_2536 Column_2537 Column_2538 Column_2539 Column_2540 Column_2541 Column_2542 Column_2543 Column_2544 Column_2545 Column_2546 Column_2547 Column_2548 Column_2549 Column_2550 Column_2551 Column_2552 Column_2553 Column_2554 Column_2555 Column_2556 Column_2557 Column_2558 Column_2559 Column_2560 Column_2561 Column_2562 Column_2563 Column_2564 Column_2565 Column_2566 Column_2567 Column_2568 Column_2569 Column_2570 Column_2571 Column_2572 Column_2573 Column_2574 Column_2575 Column_2576 Column_2577 Column_2578 Column_2579 Column_2580 Column_2581 Column_2582 Column_2583 Column_2584 Column_2585 Column_2586 Column_2587 Column_2588 Column_2589 Column_2590 Column_2591 Column_2592 Column_2593 Column_2594 Column_2595 Column_2596 Column_2597 Column_2598 Column_2599 Column_2600 Column_2601 Column_2602 Column_2603 Column_2604 Column_2605 Column_2606 Column_2607 Column_2608 Column_2609 Column_2610 Column_2611 Column_2612 Column_2613 Column_2614 Column_2615 Column_2616 Column_2617 Column_2618 Column_2619 Column_2620 Column_2621 Column_2622 Column_2623 Column_2624 Column_2625 Column_2626 Column_2627 Column_2628 Column_2629 Column_2630 Column_2631 Column_2632 Column_2633 Column_2634 Column_2635 Column_2636 Column_2637 Column_2638 Column_2639 Column_2640 Column_2641 Column_2642 Column_2643 Column_2644 Column_2645 Column_2646 Column_2647 Column_2648 Column_2649 Column_2650 Column_2651 Column_2652 Column_2653 Column_2654 Column_2655 Column_2656 Column_2657 Column_2658 Column_2659 Column_2660 Column_2661 Column_2662 Column_2663 Column_2664 Column_2665 Column_2666 Column_2667 Column_2668 Column_2669 Column_2670 Column_2671 Column_2672 Column_2673 Column_2674 Column_2675 Column_2676 Column_2677 Column_2678 Column_2679 Column_2680 Column_2681 Column_2682 Column_2683 Column_2684 Column_2685 Column_2686 Column_2687 Column_2688 Column_2689 Column_2690 Column_2691 Column_2692 Column_2693 Column_2694 Column_2695 Column_2696 Column_2697 Column_2698 Column_2699 Column_2700 Column_2701 Column_2702 Column_2703 Column_2704 Column_2705 Column_2706 Column_2707 Column_2708 Column_2709 Column_2710 Column_2711 Column_2712 Column_2713 Column_2714 Column_2715 Column_2716 Column_2717 Column_2718 Column_2719 Column_2720 Column_2721 Column_2722 Column_2723 Column_2724 Column_2725 Column_2726 Column_2727 Column_2728 Column_2729 Column_2730 Column_2731 Column_2732 Column_2733 Column_2734 Column_2735 Column_2736 Column_2737 Column_2738 Column_2739 Column_2740 Column_2741 Column_2742 Column_2743 Column_2744 Column_2745 Column_2746 Column_2747 Column_2748 Column_2749 Column_2750 Column_2751 Column_2752 Column_2753 Column_2754 Column_2755 Column_2756 Column_2757 Column_2758 Column_2759 Column_2760 Column_2761 Column_2762 Column_2763 Column_2764 Column_2765 Column_2766 Column_2767 Column_2768 Column_2769 Column_2770 Column_2771 Column_2772 Column_2773 Column_2774 Column_2775 Column_2776 Column_2777 Column_2778 Column_2779 Column_2780 Column_2781 Column_2782 Column_2783 Column_2784 Column_2785 Column_2786 Column_2787 Column_2788 Column_2789 Column_2790 Column_2791 Column_2792 Column_2793 Column_2794 Column_2795 Column_2796 Column_2797 Column_2798 Column_2799 Column_2800 Column_2801 Column_2802 Column_2803 Column_2804 Column_2805 Column_2806 Column_2807 Column_2808 Column_2809 Column_2810 Column_2811 Column_2812 Column_2813 Column_2814 Column_2815 Column_2816 Column_2817 Column_2818 Column_2819 Column_2820 Column_2821 Column_2822 Column_2823 Column_2824 Column_2825 Column_2826 Column_2827 Column_2828 Column_2829 Column_2830 Column_2831 Column_2832 Column_2833 Column_2834 Column_2835 Column_2836 Column_2837 Column_2838 Column_2839 Column_2840 Column_2841 Column_2842 Column_2843 Column_2844 Column_2845 Column_2846 Column_2847 Column_2848 Column_2849 Column_2850 Column_2851 Column_2852 Column_2853 Column_2854 Column_2855 Column_2856 Column_2857 Column_2858 Column_2859 Column_2860 Column_2861 Column_2862 Column_2863 Column_2864 Column_2865 Column_2866 Column_2867 Column_2868 Column_2869 Column_2870 Column_2871 Column_2872 Column_2873 Column_2874 Column_2875 Column_2876 Column_2877 Column_2878 Column_2879 Column_2880 Column_2881 Column_2882 Column_2883 Column_2884 Column_2885 Column_2886 Column_2887 Column_2888 Column_2889 Column_2890 Column_2891 Column_2892 Column_2893 Column_2894 Column_2895 Column_2896 Column_2897 Column_2898 Column_2899 Column_2900 Column_2901 Column_2902 Column_2903 Column_2904 Column_2905 Column_2906 Column_2907 Column_2908 Column_2909 Column_2910 Column_2911 Column_2912 Column_2913 Column_2914 Column_2915 Column_2916 Column_2917 Column_2918 Column_2919 Column_2920 Column_2921 Column_2922 Column_2923 Column_2924 Column_2925 Column_2926 Column_2927 Column_2928 Column_2929 Column_2930 Column_2931 Column_2932 Column_2933 Column_2934 Column_2935 Column_2936 Column_2937 Column_2938 Column_2939 Column_2940 Column_2941 Column_2942 Column_2943 Column_2944 Column_2945 Column_2946 Column_2947 Column_2948 Column_2949 Column_2950 Column_2951 Column_2952 Column_2953 Column_2954 Column_2955 Column_2956 Column_2957 Column_2958 Column_2959 Column_2960 Column_2961 Column_2962 Column_2963 Column_2964 Column_2965 Column_2966 Column_2967 Column_2968 Column_2969 Column_2970 Column_2971 Column_2972 Column_2973 Column_2974 Column_2975 Column_2976 Column_2977 Column_2978 Column_2979 Column_2980 Column_2981 Column_2982 Column_2983 Column_2984 Column_2985 Column_2986 Column_2987 Column_2988 Column_2989 Column_2990 Column_2991 Column_2992 Column_2993 Column_2994 Column_2995 Column_2996 Column_2997 Column_2998 Column_2999 Column_3000 Column_3001 Column_3002 Column_3003 Column_3004 Column_3005 Column_3006 Column_3007 Column_3008 Column_3009 Column_3010 Column_3011 Column_3012 Column_3013 Column_3014 Column_3015 Column_3016 Column_3017 Column_3018 Column_3019 Column_3020 Column_3021 Column_3022 Column_3023 Column_3024 Column_3025 Column_3026 Column_3027 Column_3028 Column_3029 Column_3030 Column_3031 Column_3032 Column_3033 Column_3034 Column_3035 Column_3036 Column_3037 Column_3038 Column_3039 Column_3040 Column_3041 Column_3042 Column_3043 Column_3044 Column_3045 Column_3046 Column_3047 Column_3048 Column_3049 Column_3050 Column_3051 Column_3052 Column_3053 Column_3054 Column_3055 Column_3056 Column_3057 Column_3058 Column_3059 Column_3060 Column_3061 Column_3062 Column_3063 Column_3064 Column_3065 Column_3066 Column_3067 Column_3068 Column_3069 Column_3070 Column_3071 Column_3072 Column_3073 Column_3074 Column_3075 Column_3076 Column_3077 Column_3078 Column_3079 Column_3080 Column_3081 Column_3082 Column_3083 Column_3084 Column_3085 Column_3086 Column_3087 Column_3088 Column_3089 Column_3090 Column_3091 Column_3092 Column_3093 Column_3094 Column_3095 Column_3096 Column_3097 Column_3098 Column_3099 Column_3100 Column_3101 Column_3102 Column_3103 Column_3104 Column_3105 Column_3106 Column_3107 Column_3108 Column_3109 Column_3110 Column_3111 Column_3112 Column_3113 Column_3114 Column_3115 Column_3116 Column_3117 Column_3118 Column_3119 Column_3120 Column_3121 Column_3122 Column_3123 Column_3124 Column_3125 Column_3126 Column_3127 Column_3128 Column_3129 Column_3130 Column_3131 Column_3132 Column_3133 Column_3134 Column_3135 Column_3136 Column_3137 Column_3138 Column_3139 Column_3140 Column_3141 Column_3142 Column_3143 Column_3144 Column_3145 Column_3146 Column_3147 Column_3148 Column_3149 Column_3150 Column_3151 Column_3152 Column_3153 Column_3154 Column_3155 Column_3156 Column_3157 Column_3158 Column_3159 Column_3160 Column_3161 Column_3162 Column_3163 Column_3164 Column_3165 Column_3166 Column_3167 Column_3168 Column_3169 Column_3170 Column_3171 Column_3172 Column_3173 Column_3174 Column_3175 Column_3176 Column_3177 Column_3178 Column_3179 Column_3180 Column_3181 Column_3182 Column_3183 Column_3184 Column_3185 Column_3186 Column_3187 Column_3188 Column_3189 Column_3190 Column_3191 Column_3192 Column_3193 Column_3194 Column_3195 Column_3196 Column_3197 Column_3198 Column_3199 Column_3200 Column_3201 Column_3202 Column_3203 Column_3204 Column_3205 Column_3206 Column_3207 Column_3208 Column_3209 Column_3210 Column_3211 Column_3212 Column_3213 Column_3214 Column_3215 Column_3216 Column_3217 Column_3218 Column_3219 Column_3220 Column_3221 Column_3222 Column_3223 Column_3224 Column_3225 Column_3226 Column_3227 Column_3228 Column_3229 Column_3230 Column_3231 Column_3232 Column_3233 Column_3234 Column_3235 Column_3236 Column_3237 Column_3238 Column_3239 Column_3240 Column_3241 Column_3242 Column_3243 Column_3244 Column_3245 Column_3246 Column_3247 Column_3248 Column_3249 Column_3250 Column_3251 Column_3252 Column_3253 Column_3254 Column_3255 Column_3256 Column_3257 Column_3258 Column_3259 Column_3260 Column_3261 Column_3262 Column_3263 Column_3264 Column_3265 Column_3266 Column_3267 Column_3268 Column_3269 Column_3270 Column_3271 Column_3272 Column_3273 Column_3274 Column_3275 Column_3276 Column_3277 Column_3278 Column_3279 Column_3280 Column_3281 Column_3282 Column_3283 Column_3284 Column_3285 Column_3286 Column_3287 Column_3288 Column_3289 Column_3290 Column_3291 Column_3292 Column_3293 Column_3294 Column_3295 Column_3296 Column_3297 Column_3298 Column_3299 Column_3300 Column_3301 Column_3302 Column_3303 Column_3304 Column_3305 Column_3306 Column_3307 Column_3308 Column_3309 Column_3310 Column_3311 Column_3312 Column_3313 Column_3314 Column_3315 Column_3316 Column_3317 Column_3318 Column_3319 Column_3320 Column_3321 Column_3322 Column_3323 Column_3324 Column_3325 Column_3326 Column_3327 Column_3328 Column_3329 Column_3330 Column_3331 Column_3332 Column_3333 Column_3334 Column_3335 Column_3336 Column_3337 Column_3338 Column_3339 Column_3340 Column_3341 Column_3342 Column_3343 Column_3344 Column_3345 Column_3346 Column_3347 Column_3348 Column_3349 Column_3350 Column_3351 Column_3352 Column_3353 Column_3354 Column_3355 Column_3356 Column_3357 Column_3358 Column_3359 Column_3360 Column_3361 Column_3362 Column_3363 Column_3364 Column_3365 Column_3366 Column_3367 Column_3368 Column_3369 Column_3370 Column_3371 Column_3372 Column_3373 Column_3374 Column_3375 Column_3376 Column_3377 Column_3378 Column_3379 Column_3380 Column_3381 Column_3382 Column_3383 Column_3384 Column_3385 Column_3386 Column_3387 Column_3388 Column_3389 Column_3390 Column_3391 Column_3392 Column_3393 Column_3394 Column_3395 Column_3396 Column_3397 Column_3398 Column_3399 Column_3400 Column_3401 Column_3402 Column_3403 Column_3404 Column_3405 Column_3406 Column_3407 Column_3408 Column_3409 Column_3410 Column_3411 Column_3412 Column_3413 Column_3414 Column_3415 Column_3416 Column_3417 Column_3418 Column_3419 Column_3420 Column_3421 Column_3422 Column_3423 Column_3424 Column_3425 Column_3426 Column_3427 Column_3428 Column_3429 Column_3430 Column_3431 Column_3432 Column_3433 Column_3434 Column_3435 Column_3436 Column_3437 Column_3438 Column_3439 Column_3440 Column_3441 Column_3442 Column_3443 Column_3444 Column_3445 Column_3446 Column_3447 Column_3448 Column_3449 Column_3450 Column_3451 Column_3452 Column_3453 Column_3454 Column_3455 Column_3456 Column_3457 Column_3458 Column_3459 Column_3460 Column_3461 Column_3462 Column_3463 Column_3464 Column_3465 Column_3466 Column_3467 Column_3468 Column_3469 Column_3470 Column_3471 Column_3472 Column_3473 Column_3474 Column_3475 Column_3476 Column_3477 Column_3478 Column_3479 Column_3480 Column_3481 Column_3482 Column_3483 Column_3484 Column_3485 Column_3486 Column_3487 Column_3488 Column_3489 Column_3490 Column_3491 Column_3492 Column_3493 Column_3494 Column_3495 Column_3496 Column_3497 Column_3498 Column_3499 Column_3500 Column_3501 Column_3502 Column_3503 Column_3504 Column_3505 Column_3506 Column_3507 Column_3508 Column_3509 Column_3510 Column_3511 Column_3512 Column_3513 Column_3514 Column_3515 Column_3516 Column_3517 Column_3518 Column_3519 Column_3520 Column_3521 Column_3522 Column_3523 Column_3524 Column_3525 Column_3526 Column_3527 Column_3528 Column_3529 Column_3530 Column_3531 Column_3532 Column_3533 Column_3534 Column_3535 Column_3536 Column_3537 Column_3538 Column_3539 Column_3540 Column_3541 Column_3542 Column_3543 Column_3544 Column_3545 Column_3546 Column_3547 Column_3548 Column_3549 Column_3550 Column_3551 Column_3552 Column_3553 Column_3554 Column_3555 Column_3556 Column_3557 Column_3558 Column_3559 Column_3560 Column_3561 Column_3562 Column_3563 Column_3564 Column_3565 Column_3566 Column_3567 Column_3568 Column_3569 Column_3570 Column_3571 Column_3572 Column_3573 Column_3574 Column_3575 Column_3576 Column_3577 Column_3578 Column_3579 Column_3580 Column_3581 Column_3582 Column_3583 Column_3584 Column_3585 Column_3586 Column_3587 Column_3588 Column_3589 Column_3590 Column_3591 Column_3592 Column_3593 Column_3594 Column_3595 Column_3596 Column_3597 Column_3598 Column_3599 Column_3600 Column_3601 Column_3602 Column_3603 Column_3604 Column_3605 Column_3606 Column_3607 Column_3608 Column_3609 Column_3610 Column_3611 Column_3612 Column_3613 Column_3614 Column_3615 Column_3616 Column_3617 Column_3618 Column_3619 Column_3620 Column_3621 Column_3622 Column_3623 Column_3624 Column_3625 Column_3626 Column_3627 Column_3628 Column_3629 Column_3630 Column_3631 Column_3632 Column_3633 Column_3634 Column_3635 Column_3636 Column_3637 Column_3638 Column_3639 Column_3640 Column_3641 Column_3642 Column_3643 Column_3644 Column_3645 Column_3646 Column_3647 Column_3648 Column_3649 Column_3650 Column_3651 Column_3652 Column_3653 Column_3654 Column_3655 Column_3656 Column_3657 Column_3658 Column_3659 Column_3660 Column_3661 Column_3662 Column_3663 Column_3664 Column_3665 Column_3666 Column_3667 Column_3668 Column_3669 Column_3670 Column_3671 Column_3672 Column_3673 Column_3674 Column_3675 Column_3676 Column_3677 Column_3678 Column_3679 Column_3680 Column_3681 Column_3682 Column_3683 Column_3684 Column_3685 Column_3686 Column_3687 Column_3688 Column_3689 Column_3690 Column_3691 Column_3692 Column_3693 Column_3694 Column_3695 Column_3696 Column_3697 Column_3698 Column_3699 Column_3700 Column_3701 Column_3702 Column_3703 Column_3704 Column_3705 Column_3706 Column_3707 Column_3708 Column_3709 Column_3710 Column_3711 Column_3712 Column_3713 Column_3714 Column_3715 Column_3716 Column_3717 Column_3718 Column_3719 Column_3720 Column_3721 Column_3722 Column_3723 Column_3724 Column_3725 Column_3726 Column_3727 Column_3728 Column_3729 Column_3730 Column_3731 Column_3732 Column_3733 Column_3734 Column_3735 Column_3736 Column_3737 Column_3738 Column_3739 Column_3740 Column_3741 Column_3742 Column_3743 Column_3744 Column_3745 Column_3746 Column_3747 Column_3748 Column_3749 Column_3750 Column_3751 Column_3752 Column_3753 Column_3754 Column_3755 Column_3756 Column_3757 Column_3758 Column_3759 Column_3760 Column_3761 Column_3762 Column_3763 Column_3764 Column_3765 Column_3766 Column_3767 Column_3768 Column_3769 Column_3770 Column_3771 Column_3772 Column_3773 Column_3774 Column_3775 Column_3776 Column_3777 Column_3778 Column_3779 Column_3780 Column_3781 Column_3782 Column_3783 Column_3784 Column_3785 Column_3786 Column_3787 Column_3788 Column_3789 Column_3790 Column_3791 Column_3792 Column_3793 Column_3794 Column_3795 Column_3796 Column_3797 Column_3798 Column_3799 Column_3800 Column_3801 Column_3802 Column_3803 Column_3804 Column_3805 Column_3806 Column_3807 Column_3808 Column_3809 Column_3810 Column_3811 Column_3812 Column_3813 Column_3814 Column_3815 Column_3816 Column_3817 Column_3818 Column_3819 Column_3820 Column_3821 Column_3822 Column_3823 Column_3824 Column_3825 Column_3826 Column_3827 Column_3828 Column_3829 Column_3830 Column_3831 Column_3832 Column_3833 Column_3834 Column_3835 Column_3836 Column_3837 Column_3838 Column_3839 Column_3840 Column_3841 Column_3842 Column_3843 Column_3844 Column_3845 Column_3846 Column_3847 Column_3848 Column_3849 Column_3850 Column_3851 Column_3852 Column_3853 Column_3854 Column_3855 Column_3856 Column_3857 Column_3858 Column_3859 Column_3860 Column_3861 Column_3862 Column_3863 Column_3864 Column_3865 Column_3866 Column_3867 Column_3868 Column_3869 Column_3870 Column_3871 Column_3872 Column_3873 Column_3874 Column_3875 Column_3876 Column_3877 Column_3878 Column_3879 Column_3880 Column_3881 Column_3882 Column_3883 Column_3884 Column_3885 Column_3886 Column_3887 Column_3888 Column_3889 Column_3890 Column_3891 Column_3892 Column_3893 Column_3894 Column_3895 Column_3896 Column_3897 Column_3898 Column_3899 Column_3900 Column_3901 Column_3902 Column_3903 Column_3904 Column_3905 Column_3906 Column_3907 Column_3908 Column_3909 Column_3910 Column_3911 Column_3912 Column_3913 Column_3914 Column_3915 Column_3916 Column_3917 Column_3918 Column_3919 Column_3920 Column_3921 Column_3922 Column_3923 Column_3924 Column_3925 Column_3926 Column_3927 Column_3928 Column_3929 Column_3930 Column_3931 Column_3932 Column_3933 Column_3934 Column_3935 Column_3936 Column_3937 Column_3938 Column_3939 Column_3940 Column_3941 Column_3942 Column_3943 Column_3944 Column_3945 Column_3946 Column_3947 Column_3948 Column_3949 Column_3950 Column_3951 Column_3952 Column_3953 Column_3954 Column_3955 Column_3956 Column_3957 Column_3958 Column_3959 Column_3960 Column_3961 Column_3962 Column_3963 Column_3964 Column_3965 Column_3966 Column_3967 Column_3968 Column_3969 Column_3970 Column_3971 Column_3972 Column_3973 Column_3974 Column_3975 Column_3976 Column_3977 Column_3978 Column_3979 Column_3980 Column_3981 Column_3982 Column_3983 Column_3984 Column_3985 Column_3986 Column_3987 Column_3988 Column_3989 Column_3990 Column_3991 Column_3992 Column_3993 Column_3994 Column_3995 Column_3996 Column_3997 Column_3998 Column_3999 Column_4000 Column_4001 Column_4002 Column_4003 Column_4004 Column_4005 Column_4006 Column_4007 Column_4008 Column_4009 Column_4010 Column_4011 Column_4012 Column_4013 Column_4014 Column_4015 Column_4016 Column_4017 Column_4018 Column_4019 Column_4020 Column_4021 Column_4022 Column_4023 Column_4024 Column_4025 Column_4026 Column_4027 Column_4028 Column_4029 Column_4030 Column_4031 Column_4032 Column_4033 Column_4034 Column_4035 Column_4036 Column_4037 Column_4038 Column_4039 Column_4040 Column_4041 Column_4042 Column_4043 Column_4044 Column_4045 Column_4046 Column_4047 Column_4048 Column_4049 Column_4050 Column_4051 Column_4052 Column_4053 Column_4054 Column_4055 Column_4056 Column_4057 Column_4058 Column_4059 Column_4060 Column_4061 Column_4062 Column_4063 Column_4064 Column_4065 Column_4066 Column_4067 Column_4068 Column_4069 Column_4070 Column_4071 Column_4072 Column_4073 Column_4074 Column_4075 Column_4076 Column_4077 Column_4078 Column_4079 Column_4080 Column_4081 Column_4082 Column_4083 Column_4084 Column_4085 Column_4086 Column_4087 Column_4088 Column_4089 Column_4090 Column_4091 Column_4092 Column_4093 Column_4094 Column_4095 Column_4096 Column_4097 Column_4098 Column_4099 Column_4100 Column_4101 Column_4102 Column_4103 Column_4104 Column_4105 Column_4106 Column_4107 Column_4108 Column_4109 Column_4110 Column_4111 Column_4112 Column_4113 Column_4114 Column_4115 Column_4116 Column_4117 Column_4118 Column_4119 Column_4120 Column_4121 Column_4122 Column_4123 Column_4124 Column_4125 Column_4126 Column_4127 Column_4128 Column_4129 Column_4130 Column_4131 Column_4132 Column_4133 Column_4134 Column_4135 Column_4136 Column_4137 Column_4138 Column_4139 Column_4140 Column_4141 Column_4142 Column_4143 Column_4144 Column_4145 Column_4146 Column_4147 Column_4148 Column_4149 Column_4150 Column_4151 Column_4152 Column_4153 Column_4154 Column_4155 Column_4156 Column_4157 Column_4158 Column_4159 Column_4160 Column_4161 Column_4162 Column_4163 Column_4164 Column_4165 Column_4166 Column_4167 Column_4168 Column_4169 Column_4170 Column_4171 Column_4172 Column_4173 Column_4174 Column_4175 Column_4176 Column_4177 Column_4178 Column_4179 Column_4180 Column_4181 Column_4182 Column_4183 Column_4184 Column_4185 Column_4186 Column_4187 Column_4188 Column_4189 Column_4190 Column_4191 Column_4192 Column_4193 Column_4194 Column_4195 Column_4196 Column_4197 Column_4198 Column_4199 Column_4200 Column_4201 Column_4202 Column_4203 Column_4204 Column_4205 Column_4206 Column_4207 Column_4208 Column_4209 Column_4210 Column_4211 Column_4212 Column_4213 Column_4214 Column_4215 Column_4216 Column_4217 Column_4218 Column_4219 Column_4220 Column_4221 Column_4222 Column_4223 Column_4224 Column_4225 Column_4226 Column_4227 Column_4228 Column_4229 Column_4230 Column_4231 Column_4232 Column_4233 Column_4234 Column_4235 Column_4236 Column_4237 Column_4238 Column_4239 Column_4240 Column_4241 Column_4242 Column_4243 Column_4244 Column_4245 Column_4246 Column_4247 Column_4248 Column_4249 Column_4250 Column_4251 Column_4252 Column_4253 Column_4254 Column_4255 Column_4256 Column_4257 Column_4258 Column_4259 Column_4260 Column_4261 Column_4262 Column_4263 Column_4264 Column_4265 Column_4266 Column_4267 Column_4268 Column_4269 Column_4270 Column_4271 Column_4272 Column_4273 Column_4274 Column_4275 Column_4276 Column_4277 Column_4278 Column_4279 Column_4280 Column_4281 Column_4282 Column_4283 Column_4284 Column_4285 Column_4286 Column_4287 Column_4288 Column_4289 Column_4290 Column_4291 Column_4292 Column_4293 Column_4294 Column_4295 Column_4296 Column_4297 Column_4298 Column_4299 Column_4300 Column_4301 Column_4302 Column_4303 Column_4304 Column_4305 Column_4306 Column_4307 Column_4308 Column_4309 Column_4310 Column_4311 Column_4312 Column_4313 Column_4314 Column_4315 Column_4316 Column_4317 Column_4318 Column_4319 Column_4320 Column_4321 Column_4322 Column_4323 Column_4324 Column_4325 Column_4326 Column_4327 Column_4328 Column_4329 Column_4330 Column_4331 Column_4332 Column_4333 Column_4334 Column_4335 Column_4336 Column_4337 Column_4338 Column_4339 Column_4340 Column_4341 Column_4342 Column_4343 Column_4344 Column_4345 Column_4346 Column_4347 Column_4348 Column_4349 Column_4350 Column_4351 Column_4352 Column_4353 Column_4354 Column_4355 Column_4356 Column_4357 Column_4358 Column_4359 Column_4360 Column_4361 Column_4362 Column_4363 Column_4364 Column_4365 Column_4366 Column_4367 Column_4368 Column_4369 Column_4370 Column_4371 Column_4372 Column_4373 Column_4374 Column_4375 Column_4376 Column_4377 Column_4378 Column_4379 Column_4380 Column_4381 Column_4382 Column_4383 Column_4384 Column_4385 Column_4386 Column_4387 Column_4388 Column_4389 Column_4390 Column_4391 Column_4392 Column_4393 Column_4394 Column_4395 Column_4396 Column_4397 Column_4398 Column_4399 Column_4400 Column_4401 Column_4402 Column_4403 Column_4404 Column_4405 Column_4406 Column_4407 Column_4408 Column_4409 Column_4410 Column_4411 Column_4412 Column_4413 Column_4414 Column_4415 Column_4416 Column_4417 Column_4418 Column_4419 Column_4420 Column_4421 Column_4422 Column_4423 Column_4424 Column_4425 Column_4426 Column_4427 Column_4428 Column_4429 Column_4430 Column_4431 Column_4432 Column_4433 Column_4434 Column_4435 Column_4436 Column_4437 Column_4438 Column_4439 Column_4440 Column_4441 Column_4442 Column_4443 Column_4444 Column_4445 Column_4446 Column_4447 Column_4448 Column_4449 Column_4450 Column_4451 Column_4452 Column_4453 Column_4454 Column_4455 Column_4456 Column_4457 Column_4458 Column_4459 Column_4460 Column_4461 Column_4462 Column_4463 Column_4464 Column_4465 Column_4466 Column_4467 Column_4468 Column_4469 Column_4470 Column_4471 Column_4472 Column_4473 Column_4474 Column_4475 Column_4476 Column_4477 Column_4478 Column_4479 Column_4480 Column_4481 Column_4482 Column_4483 Column_4484 Column_4485 Column_4486 Column_4487 Column_4488 Column_4489 Column_4490 Column_4491 Column_4492 Column_4493 Column_4494 Column_4495 Column_4496 Column_4497 Column_4498 Column_4499 Column_4500 Column_4501 Column_4502 Column_4503 Column_4504 Column_4505 Column_4506 Column_4507 Column_4508 Column_4509 Column_4510 Column_4511 Column_4512 Column_4513 Column_4514 Column_4515 Column_4516 Column_4517 Column_4518 Column_4519 Column_4520 Column_4521 Column_4522 Column_4523 Column_4524 Column_4525 Column_4526 Column_4527 Column_4528 Column_4529 Column_4530 Column_4531 Column_4532 Column_4533 Column_4534 Column_4535 Column_4536 Column_4537 Column_4538 Column_4539 Column_4540 Column_4541 Column_4542 Column_4543 Column_4544 Column_4545 Column_4546 Column_4547 Column_4548 Column_4549 Column_4550 Column_4551 Column_4552 Column_4553 Column_4554 Column_4555 Column_4556 Column_4557 Column_4558 Column_4559 Column_4560 Column_4561 Column_4562 Column_4563 Column_4564 Column_4565 Column_4566 Column_4567 Column_4568 Column_4569 Column_4570 Column_4571 Column_4572 Column_4573 Column_4574 Column_4575 Column_4576 Column_4577 Column_4578 Column_4579 Column_4580 Column_4581 Column_4582 Column_4583 Column_4584 Column_4585 Column_4586 Column_4587 Column_4588 Column_4589 Column_4590 Column_4591 Column_4592 Column_4593 Column_4594 Column_4595 Column_4596 Column_4597 Column_4598 Column_4599 Column_4600 Column_4601 Column_4602 Column_4603 Column_4604 Column_4605 Column_4606 Column_4607 Column_4608 Column_4609 Column_4610 Column_4611 Column_4612 Column_4613 Column_4614 Column_4615 Column_4616 Column_4617 Column_4618 Column_4619 Column_4620 Column_4621 Column_4622 Column_4623 Column_4624 Column_4625 Column_4626 Column_4627 Column_4628 Column_4629 Column_4630 Column_4631 Column_4632 Column_4633 Column_4634 Column_4635 Column_4636 Column_4637 Column_4638 Column_4639 Column_4640 Column_4641 Column_4642 Column_4643 Column_4644 Column_4645 Column_4646 Column_4647 Column_4648 Column_4649 Column_4650 Column_4651 Column_4652 Column_4653 Column_4654 Column_4655 Column_4656 Column_4657 Column_4658 Column_4659 Column_4660 Column_4661 Column_4662 Column_4663 Column_4664 Column_4665 Column_4666 Column_4667 Column_4668 Column_4669 Column_4670 Column_4671 Column_4672 Column_4673 Column_4674 Column_4675 Column_4676 Column_4677 Column_4678 Column_4679 Column_4680 Column_4681 Column_4682 Column_4683 Column_4684 Column_4685 Column_4686 Column_4687 Column_4688 Column_4689 Column_4690 Column_4691 Column_4692 Column_4693 Column_4694 Column_4695 Column_4696 Column_4697 Column_4698 Column_4699 Column_4700 Column_4701 Column_4702 Column_4703 Column_4704 Column_4705 Column_4706 Column_4707 Column_4708 Column_4709 Column_4710 Column_4711 Column_4712 Column_4713 Column_4714 Column_4715 Column_4716 Column_4717 Column_4718 Column_4719 Column_4720 Column_4721 Column_4722 Column_4723 Column_4724 Column_4725 Column_4726 Column_4727 Column_4728 Column_4729 Column_4730 Column_4731 Column_4732 Column_4733 Column_4734 Column_4735
feature_infos=[0:0.37895326866813533] [0:0.40222364179309927] [0:0.34500815332854384] [0:0.33466566148043514] [0:0.34604626783227904] [0:0.37724612596854457] [0:0.36265221324402436] [0:0.62368306485712655] [0:0.38625400161877682] [0:0.41251906717944981] [0:0.41958236178386171] [0:0.35112018909843185] [0:0.43139878521774089] [0:0.5002267328504828] [0:0.52387861742385444] [0:0.51382304479719543] [0:0.45183580463449546] [0:0.59282289258635212] [0:0.35174305516367405] [0:0.58926120652165448] [0:0.45798529881297156] [0:0.38537518286357636] [0:0.37348755797787575] [0:0.37283444288493106] [0:0.40770508862404437] [0:0.35645579314379999] [0:0.46428044311009425] [0:0.50899452828131686] [0:0.39582738850653504] [0:0.42989230577134585] [0:0.40862993459500219] [0:0.36450798953840352] [0:0.40008512808859109] [0:0.32960343214196386] [0:0.34616887961096671] [0:0.38299163818761939] [0:0.3599667807214797] [0:0.32012211968555759] [0:0.31308445409361441] [0:0.48519502133107889] [0:0.30666047967947663] [0:0.3621157421675249] [0:0.32382652327835026] [0:0.30098778805273529] [0:0.31318127804450441] [0:0.35780154147076465] [0:0.42914112714318536] [0:0.36642791534008762] [0:0.38067057551503725] [0:0.31424839056819431] [0:0.35703226667737892] [0:0.29266588437197222] [0:0.35678922138692426] [0:0.34886764874540893] [0:0.34482143027349116] [0:0.30834663444840293] [0:0.31398347864528664] [0:0.29640258930823593] [0:0.42211177972959951] [0:0.47485156305445703] [0:0.42720352230576847] [0:0.52905679350150159] [0:0.67368282000669832] [0:0.39769839281810099] [0:0.49087238162007973] [0:0.44808013706837213] [0:0.46612872990052329] [0:0.54601889031477158] [0:0.34000075504966559] [0:0.49450593195723713] [0:0.32682771716574044] [0:0.71328976090070739] [0:0.48998834355122045] [0:0.44198769184927644] [0:0.46835629747558405] [0:0.54754949709241019] [0:0.37482180642518431] [0:0.34880859749739329] [0:0.49542084016472576] [0:0.39203600181159376] [0:0.50024018503292067] [0:0.54303776233033507] [0:0.32021176509248045] [0:0.60179119020028449] [0:0.35136157625192233] [0:0.40969062367020515] [0:0.37096866558831743] [0:0.56776678071990294] [0:0.60162446595776997] [0:0.38112408853475882] [0:0.3760096062497863] [0:0.33236172098492556] [0:0.41225859537349691] [0:0.33591856915667873] [0:0.34255649909143565] [0:0.33443234601340277] [0:0.38439944019430938] [0:0.33786512631468485] [0:0.36224425014270062] [0:0.33420124394200718] [0:0.3251367911095816] [0:0.36289651776279869] [0:0.38049198220645974] [0:0.44113306563528071] [0:0.35942442663421287] [0:0.40254565862956104] [0:0.3982351993085998] [0:0.35595643398562077] [0:0.3568730060380626] [0:0.39375935584002375] [0:0.408212356304262] [0:0.37582382640074674] [0:0.33628849850850462] [0:0.37718482764915984] [0:0.33327182485701279] [0:0.37601093822190107] [0:0.37846982335061369] [0:0.39956005885851914] [0:0.41840404693392541] [0:0.39301565793978932] [0:0.35688235513795841] [0:0.3913083540777198] [0:0.44379916768700173] [0:0.36763873857018203] [0:0.34486104753385605] [0:0.36097631473546715] [0:0.44553608906449182] [0:0.35550095964561423] [0:0.39105212798065336] [0:0.3986276101766692] [0:0.45832158068403467] [0:0.3800403896942996] [0:0.37715792076363647] [0:0.39188154171441614] [0:0.44507436142119167] [0:0.35791909976610575] [0:0.52314727896617608] [0:0.31603101754772533] [0:0.40158653997348209] [0:0.41802776268039266] [0:0.46797989801724194] [0:0.43071605010699182] [0:0.3607056799983272] [0:0.43829617394202869] [0:0.44481338586119135] [0:0.39503247929250052] [0:0.42339350048306085] [0:0.48951875954796248] [0:0.38005725397597701] [0:0.53716283075799665] [0:0.47810791214204229] [0:0.34856738048353031] [0:0.43620877226785665] [0:0.47022322330642002] [0:0.50229223934361078] [0:0.3223273526593613] [0:0.3747644470155353] [0:0.32768345681552835] [0:0.34319676566490609] [0:0.34769053091571994] [0:0.45593292589479406] [0:0.40309793159842272] [0:0.40883960260825891] [0:0.38136640489277279] [0:0.40449622666814466] [0:0.42411370594870151] [0:0.4047498938855062] [0:0.37421378826017937] [0:0.32982550605447747] [0:0.36248604027716946] [0:0.41496745570700821] [0:0.35194596525844435] [0:0.48200316976663521] [0:0.33806139017189252] [0:0.32636196150904934] [0:0.46040028712893877] [0:0.32671639813358339] [0:0.38350506958784353] [0:0.4970924155614862] [0:0.33813677832946037] [0:0.40125234952999572] [0:0.38653292885847235] [0:0.36717649888444159] [0:0.40952862792596828] [0:0.3947959051702461] [0:0.39906523396546029] [0:0.36684658641034507] [0:0.36722642720845727] [0:0.43568803169459741] [0:0.47449929027465781] [0:0.52484281526480714] [0:0.46601011945890236] [0:0.38918463848779783] [0:0.33205437945812605] [0:0.47804774152871149] [0:0.46153992239945973] [0:0.41754025518878346] [0:0.36303334785748104] [0:0.35647961245252552] [0:0.3392846009590299] [0:0.36170884661232761] [0:0.37901461603994729] [0:0.49746606588576286] [0:0.38428999476861719] [0:0.41499729826821502] [0:0.49503610283609145] [0:0.355857688255864] [0:0.41321464398943569] [0:0.4918522887717367] [0:0.41463004629227407] [0:0.41536051219353998] [0:0.36943097651232548] [0:0.3795710315476919] [0:0.34705225350830127] [0:0.35952622113181371] [0:0.35586571353568508] [0:0.44331142522538758] [0:0.44526854891349488] [0:0.39477034985109649] [0:0.41982858966338049] [0:0.35770364982538772] [0:0.44753657498014526] [0:0.40177888550529944] [0:0.32679429446674479] [0:0.39857793082211357] [0:0.47064450887801723] [0:0.4165303559285648] [0:0.51922223207301144] [0:0.38205360185381304] [0:0.35840000746545042] [0:0.50534827701700402] [0:0.4531329241853343] [0:0.39972286702453463] [0:0.53452975667105895] [0:0.37111555306009142] [0:0.43087219256889281] [0:0.43263085974139953] [0:0.35236473481854574] [0:0.51808867269009973] [0:0.40133509406655005] [0:0.44963602763386173] [0:0.55120224858993738] [0:0.3650901673853949] [0:0.33529840772359121] [0:0.36705303499875314] [0:0.38974761891351944] [0:0.41785497328245419] [0:0.41578101470754292] [0:0.44980575430135111] [0:0.43117036118629121] [0:0.46150502025721463] [0:0.35004896363038213] [0:0.43145213909689673] [0:0.47830504525482381] [0:0.37516030641393594] [0:0.54527132861263372] [0:0.3877087837013366] [0:0.43078573086036925] [0:0.37620375478902818] [0:0.42108860615044491] [0:0.38401268359162166] [0:0.38353273174143354] [0:0.38289012557361257] [0:0.36884061549266595] [0:0.39612727146084137] [0:0.40758731371585927] [0:0.39484363863465538] [0:0.41283300310800725] [0:0.49090988784749623] [0:0.41735516623963886] [0:0.40186403725039194] [0:0.30507678806736332] [0:0.46451682440686154] [0:0.43616239271773788] [0:0.40376875693832776] [0:0.37832982311446289] [0:0.40234916003075377] [0:0.4515367066005731] [0:0.37675490263679817] [0:0.34159318435761826] [0:0.42895862056455281] [0:0.3717306404232959] [0:0.41712917970254043] [0:0.4617284887496565] [0:0.36260640538987071] [0:0.42796619579056522] [0:0.41448063390450546] [0:0.46999783095265707] [0:0.44255546355055492] [0:0.35627477681130659] [0:0.39487291592432633] [0:0.48586110766596052] [0:0.48384449850572409] [0:0.40343749861716854] [0:0.47441650980788674] [0:0.49592756260537402] [0:0.43774110438561536] [0:0.37027803491453487] [0:0.48836081946265925] [0:0.45659728232383123] [0:0.4338211241659557] [0:0.34429597443007043] [0:0.45845134941214682] [0:0.40610130657962651] [0:0.50734960608266266] [0:0.40451048908874226] [0:0.38247629802387473] [0:0.44925961686811666] [0:0.3544062406421859] [0:0.41675367414027248] [0:0.38648679643774331] [0:0.51809299454639157] [0:0.37335514698950301] [0:0.36409279599336364] [0:0.55893434424138178] [0:0.32183591804046047] [0:0.40315837554261769] [0:0.25155962115254393] [0:0.44455958233683412] [0:0.4639791722254541] [0:0.33305656255971217] [0:0.40510883380165114] [0:0.38549877899448259] [0:0.3876209170305851] [0:0.37423441249446021] [0:0.51636329823570692] [0:0.51850327619322845] [0:0.60670547612741454] [0:0.40525557259492345] [0:0.41364124083490467] [0:0.40083707176683903] [0:0.447974855062031] [0:0.58530288477220582] [0:0.41000400425805228] [0:0.41876645576831834] [0:0.43771424554840671] [0:0.39540096433978622] [0:0.48295408504457338] [0:0.47243861904925888] [0:0.41630338986692467] [0:0.39216290165822293] [0:0.40949030812786114] [0:0.46896511536248131] [0:0.46014164623244075] [0:0.41308684863770284] [0:0.41849353740508144] [0:0.32811474376547339] [0:0.32945553508735381] [0:0.40090761706021122] [0:0.35855650699244668] [0:0.47373910239710565] [0:0.47221349609381125] [0:0.51398238012676745] [0:0.42953295601223884] [0:0.36857363994875586] [0:0.37320571281253145] [0:0.42800610135240191] [0:0.3692409018927103] [0:0.47239058016331059] [0:0.39358771278886467] [0:0.38427446674740168] [0:0.32661458327892195] [0:0.37397429514109176] [0:0.45207437699652325] [0:0.41933051391951165] [0:0.39966113355674077] [0:0.31759029389125776] [0:0.35680900526731762] [0:0.40275309947866167] [0:0.42541862279600928] [0:0.41575994827740237] [0:0.45495224383749444] [0:0.3594038362068428] [0:0.37168947053711637] [0:0.48022244188688373] [0:0.39972160575814708] [0:0.31579872887534716] [0:0.54164514562973942] [0:0.42267966057347467] [0:0.34697421729588329] [0:0.40097300130922253] [0:0.39321387923808165] [0:0.38536535041202641] [0:0.34806964837455195] [0:0.38464429496565533] [0:0.36669826296675329] [0:0.40845647721407302] [0:0.52052181190591962] [0:0.44525329457432755] [0:0.4211517128341285] [0:0.37775198512698965] [0:0.44171271141563728] [0:0.36162389881241397] [0:0.37562068582485308] [0:0.52767555923066289] [0:0.39554203122933262] [0:0.44519843056358288] [0:0.44236380168484801] [0:0.38131489063226959] [0:0.42335071676299274] [0:0.57435219432840501] [0:0.41265130112380682] [0:0.37777263296849717] [0:0.4959916372276435] [0:0.47133265462628587] [0:0.39411828871536142] [0:0.39982771735686268] [0:0.37953564765499209] [0:0.40116647725996779] [0:0.45127136065686291] [0:0.45500712925345993] [0:0.3804778498494033] [0:0.30565852087449541] [0:0.47629733719927603] [0:0.43903333098354902] [0:0.57117967287493976] [0:0.50260869252252682] [0:0.41790566794992712] [0:0.50520556192339328] [0:0.377758652654614] [0:0.38980424401520902] [0:0.42951406720848578] [0:0.36041422374950732] [0:0.49169991138260655] [0:0.45645428424785134] [0:0.39470202500769264] [0:0.43155804848617818] [0:0.40292007441059591] [0:0.42321089352994773] [0:0.51127269454052682] [0:0.48862120582920909] [0:0.37463645100553927] [0:0.41993879099546455] [0:0.40239816410225038] [0:0.50794137482520718] [0:0.39533563867489879] [0:0.43978463889205055] [0:0.44850423737889589] [0:0.43350647417163762] [0:0.39099147820511726] [0:0.53315703276744686] [0:0.53157615802732816] [0:0.41591382203451316] [0:0.39601746615022776] [0:0.3546716641077004] [0:0.41639329297885991] [0:0.38733360773377501] [0:0.43133550662283093] [0:0.35385493896889397] [0:0.37181177637295215] [0:0.39214665408680333] [0:0.42910712454651101] [0:0.53302152700558425] [0:0.49809263903806628] [0:0.4470522024112647] [0:0.55740913803934633] [0:0.38530203255585699] [0:0.54134991508293173] [0:0.52476055404515443] [0:0.41311792534880504] [0:0.37646392231690146] [0:0.37372355644550237] [0:0.41054377190738472] [0:0.42214349097060311] [0:0.35247577549665976] [0:0.38394531642421165] [0:0.36553866893363895] [0:0.402997506899472] [0:0.33936547145247209] [0:0.36662581312663239] [0:0.57986202058901481] [0:0.38879678844893389] [0:0.36759426215669144] [0:0.36001466910397362] [0:0.43254942346831338] [0:0.37192568966360801] [0:0.38314205144773344] [0:0.46366536705294875] [0:0.4093289972370926] [0:0.37141246941368911] [0:0.41195711563248311] [0:0.43149586292797576] [0:0.43870561224006022] [0:0.43065524587931092] [0:0.75293235177173146] [0:0.30564510254255262] [0:0.45362649705058583] [0:0.49090483722709977] [0:0.38650771662478856] [0:0.32800676476068497] [0:0.41110399941298009] [0:0.4072327396347033] [0:0.4073930130828548] [0:0.37458362086271274] [0:0.45064711341772451] [0:0.37865302883001423] [0:0.40024379589857967] [0:0.47395041839884811] [0:0.47932367360007927] [0:0.44895792488837605] [0:0.34994211290972371] [0:0.46271687091944985] [0:0.4020155498963594] [0:0.38934666134902424] [0:0.50983359479798063] [0:0.46168393017926473] [0:0.44160002919556118] [0:0.33774257410831471] [0:0.54112794971063594] [0:0.4599835183656637] [0:0.36882444184705215] [0:0.42203056917434256] [0:0.36637530413202707] [0:0.36252591395536837] [0:0.2993144026544664] [0:0.36946787039224288] [0:0.33572866516118682] [0:0.40318002457115332] [0:0.35648108063670569] [0:0.4779931102658882] [0:0.38376778537690687] [0:0.32192189038997043] [0:0.32421019220246594] [0:0.39735441268799832] [0:0.30161540889207639] [0:0.35987868021564512] [0:0.40922686964810723] [0:0.37229776913297402] [0:0.37575588987812825] [0:0.39537085138074379] [0:0.37565311586574479] [0:0.4116234973127505] [0:0.48358883925515572] [0:0.45393357184245392] [0:0.45064840996671723] [0:0.48405479963440395] [0:0.47804406760046103] [0:0.36541464923944111] [0:0.33294933520549902] [0:0.33062480237850428] [0:0.36660959389431369] [0:0.39307613913740125] [0:0.44615959323334947] [0:0.36945795405491821] [0:0.42222345983667209] [0:0.39782863950952541] [0:0.38479517024166238] [0:0.37122546137425072] [0:0.40442273635846526] [0:0.43161594237427386] [0:0.39534700094373953] [0:0.40471938148665032] [0:0.40936518614167583] [0:0.43415530547107362] [0:0.3541560802540471] [0:0.51522809078270715] [0:0.45069759228572093] [0:0.38122638207877196] [0:0.49965376390843819] [0:0.39433634439233062] [0:0.5953225361003025] [0:0.44021995604921571] [0:0.51935233393149172] [0:0.40346080387122718] [0:0.48289875325127107] [0:0.36783219277277135] [0:0.34094926741451709] [0:0.32858619658773469] [0:0.39248817439697653] [0:0.39786948661713406] [0:0.40555318849258293] [0:0.37583055547163297] [0:0.40275724372103305] [0:0.39193233499537827] [0:0.53352448969670141] [0:0.36303456388927247] [0:0.45145074283732389] [0:0.48527095681707932] [0:0.39618608026198188] [0:0.38508817249292548] [0:0.45875970224390389] [0:0.39567264473151659] [0:0.3870535990651377] [0:0.48447377501534938] [0:0.39578305005642755] [0:0.37013757522412372] [0:0.45989792710180522] [0:0.38602538552268933] [0:0.36844201115512848] [0:0.35667457097995825] [0:0.58876236633657342] [0:0.35677278354075337] [0:0.4561873629940093] [0:0.38547709627558069] [0:0.38012876461475054] [0:0.4363381255706078] [0:0.41469559833654762] [0:0.53831822875746904] [0:0.47295972247488427] [0:0.38472805289374024] [0:0.44672169089672992] [0:0.33708062781428133] [0:0.36588046919104217] [0:0.34790076472645415] [0:0.37367954517626772] [0:0.47597738599320166] [0:0.35337609990309543] [0:0.37016730494473121] [0:0.39691935405281881] [0:0.60812403306631457] [0:0.45864983393182795] [0:0.46281572086196371] [0:0.39657054746164183] [0:0.48163461679935188] [0:0.43108527008641234] [0:0.42015810239114698] [0:0.35335509471466675] [0:0.43954463554374773] [0:0.38951312555802842] [0:0.42166574625984238] [0:0.4508253312464458] [0:0.49515895244740576] [0:0.45047884313923259] [0:0.45480707550246491] [0:0.45625748431017427] [0:0.40510527670971597] [0:0.46330649713236466] [0:0.37277516758410451] [0:0.43311860343986264] [0:0.51433225256511794] [0:0.42827681889415825] [0:0.3955493288464994] [0:0.376874538873053] [0:0.44986438210795049] [0:0.3876724868141635] [0:0.42729540909072738] [0:0.44223713759480543] [0:0.41496612455174336] [0:0.43066808792019551] [0:0.36557997950213922] [0:0.41031965125794034] [0:0.36947538300557298] [0:0.3716250758113766] [0:0.39005610586898909] [0:0.44796133909148694] [0:0.46573276264464003] [0:0.50031621287965444] [0:0.51175304541415179] [0:0.37203731911484872] [0:0.41817439655601168] [0:0.44251726383001383] [0:0.48686462495328858] [0:0.48381435073049939] [0:0.62259797065870726] [0:0.42114910645379983] [0:0.38121887162295204] [0:0.38784377404603648] [0:0.41104522119023418] [0:0.42359708868011386] [0:0.37268352396912302] [0:0.35662372240670498] [0:0.36354101417737006] [0:0.49802449964533174] [0:0.3347874420191167] [0:0.3577669847755568] [0:0.37752948000509484] [0:0.41240236384005391] [0:0.41201995727724344] [0:0.35169267806886578] [0:0.40055732694727669] [0:0.41159209454313589] [0:0.4489975179056383] [0:0.42158967345185222] [0:0.43954176559413888] [0:0.46523666585090134] [0:0.38812144282735417] [0:0.45818881206289613] [0:0.55131753830241104] [0:0.46753223889789219] [0:0.5313276705194635] [0:0.41658603623116192] [0:0.37863124359501088] [0:0.44045111455188812] [0:0.37040091152280313] [0:0.3650297839187937] [0:0.43718782492698166] [0:0.4728035372696493] [0:0.55996876818422159] [0:0.49944820021317088] [0:0.44963231647573199] [0:0.40242367599874668] [0:0.36041855617919166] [0:0.3833425694964836] [0:0.52190401914451745] [0:0.44169805580331034] [0:0.4479541734033558] [0:0.41005028756687617] [0:0.38064397182859383] [0:0.3398627489122909] [0:0.36603028503907842] [0:0.367845477026436] [0:0.58605440301014022] [0:0.42440231368970593] [0:0.36989487306195074] [0:0.4926979851062912] [0:0.41452882818509451] [0:0.39867510053885058] [0:0.34768760882321398] [0:0.38944861530161606] [0:0.35705557687652856] [0:0.33744368031547589] [0:0.39585307519101021] [0:0.36228415143877407] [0:0.36628788312854521] [0:0.37618676760090064] [0:0.43272538242714015] [0:0.52617590953559346] [0:0.34672708128872776] [0:0.44729301974394975] [0:0.40407459554396891] [0:0.56957114185141411] [0:0.58849169223513387] [0:0.5087802629918341] [0:0.54525221635698029] [0:0.4682796256289451] [0:0.36920397321441428] [0:0.49900518519472153] [0:0.37978801490151137] [0:0.44962821546850085] [0:0.3704916423861993] [0:0.36413953634111368] [0:0.33900850681504613] [0:0.33789831404420206] [0:0.37283108868607978] [0:0.46937733758587202] [0:0.43719560004492958] [0:0.46810429917216101] [0:0.31842258854050426] [0:0.35288962973134597] [0:0.36268216738717451] [0:0.38417525030600863] [0:0.45515591811029482] [0:0.42306465157408363] [0:0.3573549348027556] [0:0.40645673189901332] [0:0.38942582110986101] [0:0.39105077078882378] [0:0.37027606774619592] [0:0.44118431132570968] [0:0.35399276915034511] [0:0.40726851580976831] [0:0.36565618285778495] [0:0.31800575056883151] [0:0.39373577721035791] [0:0.34755648800247635] [0:0.38438975402960324] [0:0.36416737748605343] [0:0.33295254928759555] [0:0.41104180033756488] [0:0.34970391462736339] [0:0.38176875858406772] [0:0.51399933275518794] [0:0.57275963613912839] [0:0.40686346365294179] [0:0.39414008941858847] [0:0.44555334311814154] [0:0.37544178908775899] [0:0.53595028439319459] [0:0.42320277488751218] [0:0.34877108050531924] [0:0.38612200175563027] [0:0.35117676320953289] [0:0.40332594857275794] [0:0.63997359008077992] [0:0.42175907892265335] [0:0.34229218988178711] [0:0.32383155700734606] [0:0.38242138098624279] [0:0.4874299851606374] [0:0.48175425872170263] [0:0.41377510198413808] [0:0.44204753727242152] [0:0.44280567295908069] [0:0.3990985622619177] [0:0.42373282820410263] [0:0.43318031453074385] [0:0.45133975783385744] [0:0.61867809834154452] [0:0.37218707756339603] [0:0.43346470119103503] [0:0.4927804775098743] [0:0.56562099846717684] [0:0.35354955297292445] [0:0.43503411378746332] [0:0.58779521303244042] [0:0.33494224105632309] [0:0.43352145505048362] [0:0.40749125709307088] [0:0.38573407857652225] [0:0.36270997852210446] [0:0.4477889634905951] [0:0.57033328542807582] [0:0.41942986557632694] [0:0.35435171380795349] [0:0.41840333710107475] [0:0.42671233525863789] [0:0.38916453292654829] [0:0.42995524935434232] [0:0.33308371091013095] [0:0.37845891465099596] [0:0.42058271566840316] [0:0.40019262684372009] [0:0.39064241171057346] [0:0.3698398235731844] [0:0.41025133060729413] [0:0.45063279018731661] [0:0.41607727078849766] [0:0.41808365435370282] [0:0.50241384422380087] [0:0.39777738127255424] [0:0.41142997291377265] [0:0.48197871579765922] [0:0.43472065581592528] [0:0.37351932763720763] [0:0.53808585177636425] [0:0.32722738799631929] [0:0.52264491973524396] [0:0.44310290785028505] [0:0.38775446258953056] [0:0.45501092759311279] [0:0.42910502426510932] [0:0.37090290476815768] [0:0.31329108493647695] [0:0.40223200966367628] [0:0.40869642418215724] [0:0.45210457922688191] [0:0.49979576934448611] [0:0.44031069666337352] [0:0.46813427844715699] [0:0.36978926564946474] [0:0.33194394389893916] [0:0.5195720366644494] [0:0.45759391637557179] [0:0.40218521299252574] [0:0.38253483427949853] [0:0.40789043304419231] [0:0.34249879748081585] [0:0.37394772520834685] [0:0.37480914439216551] [0:0.38094370595830479] [0:0.39326208209125568] [0:0.43316515754507995] [0:0.432440719872562] [0:0.33205060984097573] [0:0.75981441710393449] [0:0.4290125323697257] [0:0.31406088836613028] [0:0.41024210669758204] [0:0.36168739559254159] [0:0.40395084881444809] [0:0.53539239113241333] [0:0.55645616649301533] [0:0.50191470696862406] [0:0.44719903754659329] [0:0.35392658266092314] [0:0.39856397487700573] [0:0.42110603870790958] [0:0.51433277559932467] [0:0.42402060157988825] [0:0.50165819679048651] [0:0.63171655386734382] [0:0.4270743130261927] [0:0.40659807722679864] [0:0.35889663366611652] [0:0.39247818246275018] [0:0.3533440010866804] [0:0.44890619008788291] [0:0.4403668775619719] [0:0.37391740796489192] [0:0.3585254576245982] [0:0.37154312820933499] [0:0.48794633203470494] [0:0.49123199858853817] [0:0.4126397066132001] [0:0.46584471565252622] [0:0.36414492399206849] [0:0.3587254753378098] [0:0.40943330040246095] [0:0.44689977928720787] [0:0.4792379907149264] [0:0.38913612502287409] [0:0.42751995831527151] [0:0.33442017406745206] [0:0.36944777676132323] [0:0.34364596896828753] [0:0.46106018825890438] [0:0.39853815606538773] [0:0.47224985572005068] [0:0.42469680502996943] [0:0.61654469006034973] [0:0.41761700263611662] [0:0.41496101969113092] [0:0.35685653851890664] [0:0.43251136188650868] [0:0.34906754094708092] [0:0.35240076200604065] [0:0.52699181109809445] [0:0.39497067968362487] [0:0.37495659861490743] [0:0.47347145784926803] [0:0.41003642058871104] [0:0.43382144802358846] [0:0.37375000341573145] [0:0.33428290876305417] [0:0.35611081776461961] [0:0.45606008180271951] [0:0.3843508513616089] [0:0.38652795808291285] [0:0.42702153679339899] [0:0.43200295021418811] [0:0.37120466092041976] [0:0.3760827416962137] [0:0.42210038547008188] [0:0.40775384558371092] [0:0.53169210750047646] [0:0.38221707232573859] [0:0.51485024448825256] [0:0.37838043990362202] [0:0.36024823453380939] [0:0.44980252218873701] [0:0.3754551197931027] [0:0.37660359266934018] [0:0.44382718553328709] [0:0.39140089355937147] [0:0.36092407929652276] [0:0.4016096594496168] [0:0.41568965734374919] [0:0.38287125865453309] [0:0.39653188106529097] [0:0.37793832165218655] [0:0.4184732368400047] [0:0.40027899461685973] [0:0.43302769377525557] [0:0.37882459400431406] [0:0.35162897024623307] [0:0.36027494235514795] [0:0.42757156689527798] [0:0.47999604392532547] [0:0.55249202831016742] [0:0.42213171320615317] [0:0.41803996858332265] [0:0.48803738292258164] [0:0.4386383413059754] [0:0.38624377046361275] [0:0.43516161448678348] [0:0.3432505202578921] [0:0.38719546226311402] [0:0.40596541729795382] [0:0.40854463783028527] [0:0.41128454509376355] [0:0.43152008792835594] [0:0.44966958090064196] [0:0.362696369562021] [0:0.39860506072617458] [0:0.51877267589713771] [0:0.37179469783824948] [0:0.42772697851694885] [0:0.32525342231772181] [0:0.38650079560062101] [0:0.45478058560029144] [0:0.38863080061949673] [0:0.32819473407481004] [0:0.48800367218462987] [0:0.37787395480653596] [0:0.41922473414245348] [0:0.42370994330230077] [0:0.37957267418901736] [0:0.37547929085752152] [0:0.36211340271712367] [0:0.56034003533296839] [0:0.38693400252890964] [0:0.38620586055413969] [0:0.36567840414580494] [0:0.41183846787044626] [0:0.45031747488881768] [0:0.47389146236999552] [0:0.38534694949167031] [0:0.38856507042848804] [0:0.37920074686853428] [0:0.34354327926239642] [0:0.36329193640615132] [0:0.42598908244614225] [0:0.41134086793752023] [0:0.39895149753000181] [0:0.37665751860372021] [0:0.40058660064967999] [0:0.40670054980595949] [0:0.37473627149624245] [0:0.33825811873142375] [0:0.42241294093573162] [0:0.39900779970497424] [0:0.40041243682230743] [0:0.40637252171817417] [0:0.3770776310370883] [0:0.41396722685812415] [0:0.3683694568413059] [0:0.43888417228156235] [0:0.41456519444164691] [0:0.42570286128812412] [0:0.4394231383122606] [0:0.39183555151337784] [0:0.35331863170281608] [0:0.40833875861389751] [0:0.41256415986793815] [0:0.50455428237757149] [0:0.43340170472860351] [0:0.43068298630663049] [0:0.51336081765835584] [0:0.36097506422542558] [0:0.35713026183485674] [0:0.35603641166631106] [0:0.32211775362263245] [0:0.3954209628916272] [0:0.38774220747646992] [0:0.44188146506800963] [0:0.45895372437636639] [0:0.49884010563065023] [0:0.41730117339472717] [0:0.41594026641504994] [0:0.4994520099717849] [0:0.37003428732361177] [0:0.38132851423246017] [0:0.37611250025509468] [0:0.43962151454795018] [0:0.41158659219439547] [0:0.41320926626317012] [0:0.40620976303123246] [0:0.42904648883179775] [0:0.39569075471032916] [0:0.37685489513884934] [0:0.52810863299918542] [0:0.69376628453780997] [0:0.39566248243091801] [0:0.4101523112972893] [0:0.39108910765372479] [0:0.39914638599995328] [0:0.35606393453023139] [0:0.50614104384628478] [0:0.48460217452961096] [0:0.35603529803254508] [0:0.35434197208726609] [0:0.3933261216684153] [0:0.46639388703243978] [0:0.55116440281723611] [0:0.54505636246181188] [0:0.33981686777275272] [0:0.44043572066221642] [0:0.3559749205140042] [0:0.35673212325496634] [0:0.41735506599391825] [0:0.57229492550158256] [0:0.31626682422921648] [0:0.37582507354988476] [0:0.39368218573437275] [0:0.40449108685519197] [0:0.34729489417119991] [0:0.44658307519896812] [0:0.34271120912820752] [0:0.3927151494990303] [0:0.34859916217688808] [0:0.38228826810160754] [0:0.5231731619126514] [0:0.43938949274921185] [0:0.46565668151606882] [0:0.36541475890779812] [0:0.40184411098416917] [0:0.63055869640286255] [0:0.39332947925710782] [0:0.39743539251459176] [0:0.43116659202472546] [0:0.44005423898032192] [0:0.37651921957688345] [0:0.37378961973806402] [0:0.34989741788477113] [0:0.40087136083980351] [0:0.45484418723811465] [0:0.39443568461980888] [0:0.48538390854457186] [0:0.48389111548263913] [0:0.40664111380922785] [0:0.53255695930399249] [0:0.39586485086223999] [0:0.37124115614638348] [0:0.47253673292885773] [0:0.4595383730828253] [0:0.33681866213349437] [0:0.37752915962884354] [0:0.37929996461767951] [0:0.47056477333848229] [0:0.34186347873425826] [0:0.33895636753137864] [0:0.32893774336906695] [0:0.38512679841584291] [0:0.37674116007520597] [0:0.44724113912140168] [0:0.38250751661376203] [0:0.33495538220252108] [0:0.36257431232862319] [0:0.36237480166892833] [0:0.40963862791281164] [0:0.37679556351721061] [0:0.47965366270401616] [0:0.46210470630867051] [0:0.41200545370320307] [0:0.34088407578634577] [0:0.36906985347902266] [0:0.46762369581207036] [0:0.445414792942808] [0:0.37397117466896956] [0:0.45652790397935428] [0:0.44553340116835749] [0:0.42399231875658544] [0:0.40467707478208881] [0:0.44925259766224923] [0:0.38558303416772777] [0:0.53825888029398905] [0:0.4267565060969391] [0:0.52331426795069025] [0:0.45938071064566932] [0:0.34571523365026202] [0:0.43329634360695501] [0:0.42226941844113697] [0:0.45420280468342639] [0:0.42076624194577272] [0:0.41396027758936826] [0:0.34589149741084974] [0:0.56701650171903983] [0:0.43743949892777179] [0:0.45993918711093579] [0:0.36778662709928533] [0:0.4128794022836566] [0:0.41417044940095377] [0:0.35646264696828339] [0:0.40133176441619772] [0:0.35873461056641248] [0:0.50630173168880932] [0:0.37871324861142824] [0:0.39774396794356071] [0:0.33136267413387932] [0:0.39277748514107835] [0:0.37800179414182455] [0:0.47503752420507883] [0:0.40200364652162762] [0:0.33822263064790403] [0:0.41214068673027499] [0:0.38523062238247097] [0:0.38751717093839882] [0:0.42484843803590844] [0:0.3895715589145628] [0:0.3997983733698971] [0:0.30612053279328927] [0:0.42326611189413238] [0:0.50300577568510429] [0:0.43499376523037908] [0:0.36885331796049203] [0:0.47277503109803687] [0:0.46508572672257964] [0:0.32350645150940488] [0:0.40803263813295637] [0:0.40340995139223834] [0:0.40938502263475285] [0:0.48439096614789307] [0:0.33895134384964642] [0:0.47135861798569206] [0:0.41570238399223453] [0:0.38224154549810768] [0:0.37721808607375074] [0:0.38930555927402172] [0:0.35426424639711374] [0:0.44568596076131034] [0:0.4362987296378405] [0:0.34335811510740849] [0:0.41940372136388759] [0:0.51407259271827166] [0:0.4186906549072863] [0:0.41354235986083293] [0:0.40645019789923503] [0:0.37631891740457241] [0:0.42476398654494557] [0:0.30551297642228942] [0:0.44384298794975358] [0:0.38886494401109079] [0:0.43531595888227137] [0:0.44358017760414653] [0:0.42089579304206637] [0:0.38579469332283767] [0:0.43376249188703681] [0:0.37405152281496795] [0:0.40595750693013566] [0:0.35688968243585301] [0:0.42609954908668329] [0:0.33299887687842333] [0:0.46102170429636474] [0:0.35164644014827307] [0:0.40581154692838006] [0:0.36779702685229432] [0:0.43277339732908821] [0:0.35244968060137755] [0:0.36575526244807804] [0:0.44960303272777102] [0:0.3551178992031267] [0:0.38362193458483512] [0:0.43495099081327221] [0:0.3320589005574211] [0:0.46632723617851146] [0:0.47185235176358387] [0:0.43088900094781707] [0:0.39416031626728365] [0:0.3586112998439035] [0:0.32946197313368852] [0:0.42733140847895768] [0:0.36686530811592727] [0:0.356849886650423] [0:0.44505978702864468] [0:0.44435714617217836] [0:0.38473554316491398] [0:0.40069329704382461] [0:0.42747843308892602] [0:0.39241353517342775] [0:0.42328945750697428] [0:0.29395363571533695] [0:0.41869474626432651] [0:0.43170505476104337] [0:0.35948604581210242] [0:0.3207417059970204] [0:0.43486572787096867] [0:0.41672496576013063] [0:0.4444874274852435] [0:0.3705170945630249] [0:0.39391868675171493] [0:0.38982989824704672] [0:0.46533660828270185] [0:0.58111902594157805] [0:0.45522288275072187] [0:0.37112983692731621] [0:0.44287278362792004] [0:0.41150475578942974] [0:0.34668745573216053] [0:0.40258766470961865] [0:0.39272587967392047] [0:0.44256107329392008] [0:0.33296837379289013] [0:0.51933185351462563] [0:0.44321766466510226] [0:0.41248367563150407] [0:0.38988249887966381] [0:0.38685117102050848] [0:0.46423855131302388] [0:0.42732764795101225] [0:0.49896950083982217] [0:0.46982161129870587] [0:0.39491289851331385] [0:0.37364306654464435] [0:0.37146209848693729] [0:0.37835496974522204] [0:0.35889307194307363] [0:0.45763809292220103] [0:0.64384621578090495] [0:0.34579463043437364] [0:0.44755161186982095] [0:0.47037987239512302] [0:0.41485352562770866] [0:0.54448710833650116] [0:0.40287820354801129] [0:0.4486600329971942] [0:0.46308477011970017] [0:0.39320780722017107] [0:0.49062612081045487] [0:0.40021910616284756] [0:0.39655669792579851] [0:0.32457935576449159] [0:0.45213488941069241] [0:0.43257092713136258] [0:0.45841218633091652] [0:0.44904322672611618] [0:0.42722851492547048] [0:0.45351659055102733] [0:0.4373783437382458] [0:0.3952548939915933] [0:0.42930937816043346] [0:0.37384098459488485] [0:0.4164865502948118] [0:0.38117283288432835] [0:0.34712548977484836] [0:0.39412681587886683] [0:0.42346629184552309] [0:0.34042062586627642] [0:0.50848341722316903] [0:0.54183187236560015] [0:0.38235201446544242] [0:0.35754549924201201] [0:0.59446382511573514] [0:0.4593994808432465] [0:0.37225442507255541] [0:0.38365416362929189] [0:0.48094549887972693] [0:0.39786089201777447] [0:0.37132636715645095] [0:0.35809395180821696] [0:0.43572571165711999] [0:0.54869072482013592] [0:0.39409577057677919] [0:0.42955233644714791] [0:0.44695696653248285] [0:0.32892338543828298] [0:0.42162799851892357] [0:0.46057047321563799] [0:0.43934658788166353] [0:0.53632315452117085] [0:0.42311744149529346] [0:0.41186055132901417] [0:0.38766011893482322] [0:0.36919318882956542] [0:0.41423993828408034] [0:0.49943274162982582] [0:0.43536403285954822] [0:0.36317877869889298] [0:0.48571987792919219] [0:0.40677464629789362] [0:0.35896781804620803] [0:0.48895906820564938] [0:0.5147553868051602] [0:0.37306224786819703] [0:0.38276794351034699] [0:0.41347195911022744] [0:0.38315501779267369] [0:0.46233914188307529] [0:0.59792623549075352] [0:0.31307244698021014] [0:0.42488815617702819] [0:0.37238758685085166] [0:0.38849514565491328] [0:0.38153093079041001] [0:0.38560355320960332] [0:0.445685648938284] [0:0.39517036154591773] [0:0.31732924143756897] [0:0.39155870626981665] [0:0.31909565828137532] [0:0.34068673659805948] [0:0.47830650102524552] [0:0.43586136855009866] [0:0.45912385693219659] [0:0.35924632537542234] [0:0.43026603761476256] [0:0.37030489294560892] [0:0.56582881744843505] [0:0.35168174980090072] [0:0.4119563289286276] [0:0.3574206862828373] [0:0.34207740383201346] [0:0.53630488249602881] [0:0.37693479535602853] [0:0.46457622777461471] [0:0.38316120989848174] [0:0.36394791002785798] [0:0.40017898880647712] [0:0.49215060083611406] [0:0.42962389416104541] [0:0.53611612485119087] [0:0.39048300464979147] [0:0.36567145067249401] [0:0.51090520884053003] [0:0.3725730687120834] [0:0.56020466816745385] [0:0.36041190717350557] [0:0.41958708615557655] [0:0.3424688713390589] [0:0.3791146381037907] [0:0.45181939968367152] [0:0.53268448556794767] [0:0.38464532181058342] [0:0.38062697230022113] [0:0.42847447085427359] [0:0.43082649311822674] [0:0.30844889226264166] [0:0.45889399456809227] [0:0.40181420314258626] [0:0.39250958978584016] [0:0.34164921424064687] [0:0.44633575385091462] [0:0.36000527842027003] [0:0.44942043393055786] [0:0.38693195964265525] [0:0.3629909032097845] [0:0.37316870515809847] [0:0.35788720387093925] [0:0.43927599787698096] [0:0.47750174816299623] [0:0.4023264481947883] [0:0.44905549097838421] [0:0.38432530131253229] [0:0.34438447633038188] [0:0.37421643981717218] [0:0.41524597331349911] [0:0.43998480571886023] [0:0.45284137456058315] [0:0.35198365528648196] [0:0.39023503071542887] [0:0.43430081736111453] [0:0.45651279274145873] [0:0.36068592571843927] [0:0.34326932205241695] [0:0.36075432481108149] [0:0.41269194568743756] [0:0.40834882341867001] [0:0.39267019319421287] [0:0.41573325047310222] [0:0.33160506759264535] [0:0.39275421373418834] [0:0.40060544970081291] [0:0.38548715896364971] [0:0.48737427715853254] [0:0.39364470033304783] [0:0.38896836434074272] [0:0.38390710824950591] [0:0.41615370300344257] [0:0.39266097930990052] [0:0.4115631948218148] [0:0.47007796049252359] [0:0.4595125342264379] [0:0.38783403233371838] [0:0.37103489280902402] [0:0.55132585077280494] [0:0.39374459083504959] [0:0.41888451080207817] [0:0.34571942179579468] [0:0.4281062156461391] [0:0.46284007670199945] [0:0.39218921184714489] [0:0.34743567847531148] [0:0.35792024239589293] [0:0.34166067362517616] [0:0.35371491531535981] [0:0.37016872345794644] [0:0.4726319254700177] [0:0.34049170809759766] [0:0.41145020782909503] [0:0.35718374783398826] [0:0.42113225888413786] [0:0.34499849710079461] [0:0.38535629697895213] [0:0.38659250449443594] [0:0.43314130968274078] [0:0.47392420404007285] [0:0.44649294607618634] [0:0.36901920273630334] [0:0.35142389263525986] [0:0.38782861950544406] [0:0.3441423534548686] [0:0.44589929451459409] [0:0.3605087613590181] [0:0.35711438850924893] [0:0.52412656537216851] [0:0.37761868501737628] [0:0.445590308977239] [0:0.41118631482194662] [0:0.36405965930327233] [0:0.38189468723459702] [0:0.44086294957289129] [0:0.32679572473447954] [0:0.44258679457003075] [0:0.40820205811699345] [0:0.37057501315364771] [0:0.39969344581894789] [0:0.41587239360009043] [0:0.3785901575239442] [0:0.41828833659466785] [0:0.40173793229721599] [0:0.38737952452227747] [0:0.37093844573266804] [0:0.36343280659109028] [0:0.34278568512235569] [0:0.33974042751518063] [0:0.37916700504796708] [0:0.38903493380279891] [0:0.39153598129470774] [0:0.38177308876445382] [0:0.37269033039270771] [0:0.4081838782660841] [0:0.35310891080221263] [0:0.44818748855952978] [0:0.3501867366614354] [0:0.36306836849125446] [0:0.39673980047842411] [0:0.41030701130886543] [0:0.58740317502136907] [0:0.35893326762144639] [0:0.38356691735263204] [0:0.35749725353408107] [0:0.44554454225196854] [0:0.42513040249600242] [0:0.39489786694276746] [0:0.38195090492025896] [0:0.3810614948516195] [0:0.34959272246105766] [0:0.41111903452819726] [0:0.4791083159601483] [0:0.34965353191383836] [0:0.37279624639760151] [0:0.38605873493395454] [0:0.35500844465956954] [0:0.37317529926769938] [0:0.37813130159281172] [0:0.36900078148938531] [0:0.43869331003498235] [0:0.38216902675199282] [0:0.38284104519564111] [0:0.3864958673734975] [0:0.45317049983140661] [0:0.3731686510909909] [0:0.37274274672885044] [0:0.3949612710859946] [0:0.41030148670520089] [0:0.36955782658699587] [0:0.37989731742666161] [0:0.41168570248296771] [0:0.43750979025727366] [0:0.39180551911368799] [0:0.37633947629732412] [0:0.36407712552128746] [0:0.4089574822261775] [0:0.33232927200134899] [0:0.47737638362543228] [0:0.37786987550459916] [0:0.39390408442798497] [0:0.38140193824811658] [0:0.39489139921486666] [0:0.3794275533394299] [0:0.39642226487407894] [0:0.52928465236787259] [0:0.38635148223159582] [0:0.43717260352692788] [0:0.43808734267822114] [0:0.40742956707183053] [0:0.45888223193321198] [0:0.36958640644596663] [0:0.31542368232900442] [0:0.41931942790332549] [0:0.50704389585582121] [0:0.37492511872518836] [0:0.35348539553158742] [0:0.42244278252298684] [0:0.41659849416990663] [0:0.44141997787894077] [0:0.39098379284876134] [0:0.45398228892525233] [0:0.51285334132712423] [0:0.44700870383998698] [0:0.38818869887280472] [0:0.46112132158744729] [0:0.47370250919902696] [0:0.4126825629520488] [0:0.44274545987521491] [0:0.43582481009081453] [0:0.37134745212570802] [0:0.34845814907386219] [0:0.32897621694699175] [0:0.41608807659328345] [0:0.34779529893494948] [0:0.4290196716618121] [0:0.39711172495354885] [0:0.40518499330399838] [0:0.345421169533565] [0:0.42030071602747954] [0:0.39772429644560497] [0:0.36686382278221696] [0:0.38719257784283262] [0:0.51090001332823354] [0:0.4265000745832408] [0:0.50937701779169509] [0:0.47950823705764439] [0:0.41052223313042357] [0:0.48276719090099462] [0:0.4924635804042099] [0:0.41214385395009301] [0:0.40813288932181141] [0:0.36765577968794255] [0:0.37756268447471647] [0:0.43861511992401775] [0:0.34330285123537246] [0:0.42800300756141196] [0:0.4280816087619756] [0:0.38554878316234531] [0:0.43183924603448776] [0:0.40103448220623655] [0:0.40831623953460833] [0:0.40926574029320095] [0:0.38669113195587923] [0:0.33721797339351828] [0:0.54059505496892302] [0:0.35727701279213298] [0:0.38336482228421631] [0:0.48172922721735373] [0:0.45204545991793671] [0:0.36190715768007203] [0:0.42908516540092184] [0:0.44771769981110843] [0:0.35078641706992142] [0:0.4106085932357123] [0:0.350825523882207] [0:0.44059762790094048] [0:0.31697590867778369] [0:0.52395712174394748] [0:0.364180522884679] [0:0.46870668212435945] [0:0.45196211832196381] [0:0.50502919571316829] [0:0.39689742874148887] [0:0.38376877609640531] [0:0.42506356364184505] [0:0.4571753800263344] [0:0.39189960122558043] [0:0.40580739183606196] [0:0.41807578096547149] [0:0.3982125090928052] [0:0.41567528330227449] [0:0.38075092787053316] [0:0.38442431659337256] [0:0.42374378422049108] [0:0.49178014745920012] [0:0.37116894447972187] [0:0.41565759160291182] [0:0.34417354127661742] [0:0.37032464425423728] [0:0.24684365271652464] [0:0.45408806806164442] [0:0.32992469689766551] [0:0.36005783925835422] [0:0.46586798407693808] [0:0.32201949727990264] [0:0.46667502382997922] [0:0.39670057204662179] [0:0.36169028476188908] [0:0.39516463818200048] [0:0.4206590747503976] [0:0.33886492425108627] [0:0.42376861320018799] [0:0.36032800400171749] [0:0.45740727806574505] [0:0.35189593887779608] [0:0.43291710056437932] [0:0.39844047636028385] [0:0.41867269428620957] [0:0.51534926250385615] [0:0.37926436263838409] [0:0.36314441558128946] [0:0.3753041837867544] [0:0.3522377495784339] [0:0.39892247561229244] [0:0.37321581936620041] [0:0.4376738198988962] [0:0.38826589004758227] [0:0.42029318427248519] [0:0.41199745568850205] [0:0.29819150022746227] [0:0.46384775792264232] [0:0.39702990545343669] [0:0.49972256193506459] [0:0.48558320714132519] [0:0.39908380000251159] [0:0.52912722938946388] [0:0.39765084319799165] [0:0.46733179886268716] [0:0.39370318108314029] [0:0.35288526493704248] [0:0.57232354912937] [0:0.43251069614066734] [0:0.35653169018788994] [0:0.4673506264333589] [0:0.33118085828386257] [0:0.35200207443824028] [0:0.45506291880363187] [0:0.47423943315598827] [0:0.36909158013392812] [0:0.43853065329350832] [0:0.42180082585943063] [0:0.36955933268423857] [0:0.46426471580735873] [0:0.34583338632595306] [0:0.35690650274297225] [0:0.40525805916129753] [0:0.40172113702063705] [0:0.39021739394290267] [0:0.49350390978510239] [0:0.40890149813235627] [0:0.43878355133466773] [0:0.40556840633798291] [0:0.32302192632802129] [0:0.46030028219717756] [0:0.35470091988547564] [0:0.35662367447453541] [0:0.33477769433640042] [0:0.39314866381192504] [0:0.35461819912796116] [0:0.39003589800651511] [0:0.3967156917583296] [0:0.37804795573743033] [0:0.43424862326527458] [0:0.40461796888090651] [0:0.37510385353350267] [0:0.41998014558629498] [0:0.40464464406095957] [0:0.4419801498831728] [0:0.44319019657316722] [0:0.34701521812164043] [0:0.34670535600380292] [0:0.39522593563612984] [0:0.40103186227834176] [0:0.48413968677513203] [0:0.34854036161997948] [0:0.3877811096213199] [0:0.33072000882276925] [0:0.33901022574391515] [0:0.35742779937290431] [0:0.41134315461267845] [0:0.35347118945631278] [0:0.48323178767659297] [0:0.49314518571261562] [0:0.43722201287906554] [0:0.40923304500301111] [0:0.422918719915028] [0:0.37448072876502514] [0:0.35216249613210082] [0:0.38797922403712637] [0:0.53733317332407604] [0:0.38636285995362979] [0:0.41994554161168157] [0:0.51722719408463924] [0:0.32087502902702369] [0:0.31328324436756227] [0:0.42958766609726473] [0:0.35992851638258105] [0:0.47990788469644807] [0:0.40252366869267536] [0:0.38611702056348751] [0:0.46648269409191911] [0:0.50156756922047419] [0:0.42926769839689233] [0:0.44109920579538614] [0:0.35409350714037618] [0:0.52011195518407116] [0:0.44279049653011543] [0:0.39282059410500053] [0:0.41580964464288117] [0:0.50916853115355099] [0:0.48743065070767261] [0:0.47899638244345605] [0:0.38590021345099929] [0:0.47411632266792553] [0:0.42088553300578274] [0:0.3978362083519974] [0:0.38427880834514044] [0:0.45368807666702737] [0:0.57685617896772345] [0:0.43059928710949458] [0:0.42572879693393489] [0:0.50890967559265687] [0:0.34270951569473623] [0:0.41763846331824517] [0:0.41262776105257287] [0:0.39999575954660149] [0:0.3835745837330537] [0:0.45040344926932269] [0:0.43972162521545111] [0:0.37878388741894931] [0:0.45404375690518417] [0:0.41164052511018512] [0:0.3841037377539524] [0:0.42344482472225686] [0:0.44934782573851989] [0:0.41838342411273649] [0:0.3639983970397232] [0:0.4084253334392316] [0:0.40550968487364919] [0:0.37041243443721655] [0:0.38253008667396038] [0:0.42913400091484943] [0:0.4506326589596677] [0:0.4011948181510881] [0:0.34788767453923725] [0:0.40908063416851137] [0:0.37985164134738097] [0:0.41873117715475366] [0:0.37908917880718096] [0:0.36160100033898146] [0:0.31743195293699528] [0:0.56319100639264885] [0:0.49440947282094838] [0:0.51433144565520872] [0:0.51340063722285145] [0:0.40395474588518199] [0:0.37974036242404841] [0:0.43026148829475114] [0:0.35536438812115306] [0:0.43167278706596335] [0:0.38749730974771424] [0:0.42498040844358026] [0:0.46388897378951216] [0:0.37478928801554634] [0:0.38768487323133444] [0:0.37617406296168909] [0:0.34843160008377883] [0:0.33711614072639973] [0:0.44490605172076703] [0:0.37941433638693284] [0:0.40446907988118341] [0:0.52455396130088461] [0:0.4745052952311648] [0:0.41629138459381454] [0:0.49703068133981382] [0:0.44115676850456187] [0:0.4909437523105909] [0:0.55374524952801518] [0:0.35253935968595856] [0:0.5401951690168405] [0:0.36050923975029692] [0:0.37627491592867296] [0:0.40284231623680195] [0:0.44691185654123189] [0:0.39000506260997542] [0:0.43100168458342669] [0:0.50560159499444579] [0:0.3495921223714693] [0:0.45103343363029891] [0:0.42144777962592861] [0:0.36905144428179509] [0:0.40461382287266956] [0:0.41281012969101555] [0:0.3348148234067328] [0:0.40923071848207465] [0:0.3815194901216456] [0:0.39371430283923203] [0:0.37591046543424206] [0:0.43283851944777862] [0:0.35975726550977916] [0:0.36278544988260575] 